/**
  ******************************************************************************
  * @file    weights/fc.cc
  * @author  Pierre-Emmanuel Novac <penovac@unice.fr>, LEAT, CNRS, Université Côte d'Azur, France
  * @version 1.0.0
  * @date    24 march 2020
  * @brief   Template generating plain C code for the implementation of Convolutional Neural Networks on MCU
  */

#define INPUT_SAMPLES 128
#define FC_UNITS 40


const int16_t dense_2_bias[FC_UNITS] = {-1, 0, 10, -12, 11, 11, 0, 8, -1, -5, 0, 5, -4, 1, 13, 0, 9, -2, -12, 13, 7, 7, 0, 9, 0, 4, 1, 0, -7, 8, 2, -13, -4, -3, 11, -12, 2, 8, -10, 4}
;

const int16_t dense_2_kernel[FC_UNITS][INPUT_SAMPLES] = {{6, 34, -84, 6, 17, -69, -89, 70, 23, -2, -38, -79, 64, 11, 35, 44, -12, 26, -49, -6, -76, 20, -71, -35, 45, -77, 24, -2, 77, -32, -84, -16, 41, -18, -53, -86, 13, -32, -20, -76, 47, 39, 33, 44, -59, -41, -40, 96, -81, 74, 22, 63, 18, 79, 20, -52, 80, 4, 10, -75, 31, -81, 34, 12, -22, -35, -20, -21, -93, -12, 3, 75, 64, 87, -2, 38, -30, 0, -36, 2, -47, -48, -50, 71, -24, 21, -2, 72, 41, -38, 57, -43, -90, -3, -34, 73, 81, 2, 20, -101, 15, 46, -51, 42, -64, 15, -29, 44, -62, -11, 3, -15, 56, 23, -8, 85, -8, 33, -58, -27, 23, -2, 1, -78, -74, -62, 85, 25}
, {-73, 53, -80, 33, 40, 71, 58, -36, -67, -25, -1, -72, 92, 70, 62, 34, 60, 36, -33, -6, -57, -28, -42, -64, 16, 17, 92, -71, -81, -23, 76, -76, -21, -68, -42, -96, -79, 46, 36, 81, 77, 94, 83, -87, 68, -76, 56, 69, 53, -61, 94, -79, -76, -70, -19, -45, 50, 75, 53, 48, -9, 46, -65, 33, 41, 6, 58, -13, 17, -62, -60, 65, 63, -33, -64, -39, 90, -35, 4, 15, -33, -11, 85, -79, -15, -10, -13, 5, -84, 27, 57, -49, -48, -58, -86, -90, 79, -74, -52, -49, 111, -94, 10, 83, 90, -77, -41, -93, 85, 0, -47, -58, -11, -13, -17, 53, -17, -54, 31, -70, -51, 2, 90, -79, 116, 22, 58, 95}
, {41, 103, 38, -15, 110, 97, 79, 47, 8, -56, -60, 5, 59, 66, 13, -12, 48, -64, 34, 16, 55, 4, 52, -18, 31, -69, -90, 86, -15, 91, 76, 16, 65, -59, -32, 74, -39, 0, -17, -84, -62, -92, -90, 48, 10, -38, -64, -89, -74, -3, -60, -66, -77, -61, -66, -89, -13, 19, 9, 46, -67, 92, 44, 53, 42, 92, 47, -9, -88, 1, 75, -52, -96, -34, -73, 84, 90, 66, 67, -90, -77, 6, -37, 89, 73, -35, 55, -10, 0, -16, -97, 19, 76, 82, 0, -34, 70, -79, -82, -11, 42, -57, 93, -73, 38, 36, -24, 108, -59, 76, 89, -69, -53, 83, 65, 44, -47, -80, 32, -66, 4, -70, 67, -34, 85, -68, 6, -84}
, {-85, 51, -91, 46, 13, -74, -56, -17, -21, -68, 76, -84, -58, -19, 77, 70, -7, 28, 70, -64, -72, -21, 71, -45, 46, -60, -67, -24, -33, -44, -57, -25, 44, -52, 58, -36, -13, 21, 97, 56, 78, 90, -50, -63, -47, -25, -101, 98, -75, 32, -19, -91, -73, 73, -108, -98, -16, -50, 35, 70, -24, 0, -23, -59, 77, -78, -3, -34, 52, 57, -109, 44, 68, -73, 99, -36, -71, 48, 62, -62, -43, -18, 4, 62, 12, 62, 1, -90, -46, 7, 85, 88, 35, -47, -35, 70, -57, -6, 34, 25, 36, 42, 23, -21, 43, 47, -40, 26, -1, 12, -23, -10, 19, 32, -20, 51, 54, 88, -60, 99, 31, -71, 46, -32, 59, -5, 81, 80}
, {-97, 1, 42, 36, 46, -44, 10, 38, -82, 35, -101, -2, -76, -24, 103, -94, 38, 82, 0, -21, 61, 0, 70, -3, 96, 43, 36, 15, 58, 31, -64, 47, -80, 17, 42, -54, -31, 71, -24, 43, 30, -91, -79, 48, 65, -79, 63, -51, -37, 71, 11, 38, 64, -13, -69, -64, -34, -54, 16, 19, 17, 75, -28, -39, 74, -65, -63, 42, 84, -36, 59, -76, 0, 5, -20, 32, 62, -67, 72, -14, -81, -17, -18, 37, -35, -3, -76, -48, -40, -54, -32, 34, 93, -63, -89, 63, 57, 53, 54, 20, 76, 81, -42, 66, 0, 2, -30, 19, -40, -25, 83, 22, -43, 54, -90, 16, 31, -33, -30, 47, 36, -9, 55, -50, 19, 92, 87, -49}
, {10, -49, -10, 36, 30, 3, 41, 73, 52, 76, -9, 78, 1, 45, 59, -77, 6, 60, 0, 96, 86, -84, 94, -75, 40, 50, -47, 71, 11, 80, -43, 90, 64, 26, -9, -2, 70, 44, -8, -70, -59, -25, -96, 21, -40, 95, -70, 29, 101, 77, -39, 0, 19, -56, 19, 17, -50, -11, -35, -49, 87, -29, 18, 76, 6, 47, 78, -45, -25, 86, 48, -48, 96, 11, -52, -60, 15, 100, 38, 32, -63, 98, 5, 75, 28, -76, -25, 67, 69, 14, 24, 2, -32, -103, -19, -36, -69, -25, 35, -33, 21, 54, -70, 9, -70, 24, -15, -34, 93, 18, 94, 1, -67, -39, -47, -75, 80, -47, -45, 10, 19, 21, 69, 70, 73, -20, -27, -70}
, {-84, 27, 49, -5, -17, -71, -8, 15, 84, 87, -68, -21, 14, 59, -67, -51, -69, 38, 64, -91, -3, 83, -18, -43, 8, 11, -60, -75, -30, 61, 53, 82, 20, -23, -80, -50, 80, -10, -3, -11, 88, -37, 14, 89, -79, -14, 21, 15, 83, 11, 59, -22, -51, -81, -49, 66, -63, -76, 93, 43, 58, -64, -3, 38, -85, -31, 45, 20, 10, -38, 30, 28, -26, -36, -89, -70, 78, 72, 87, -43, 43, -85, 20, -30, -57, 15, 33, 3, 94, -53, -86, 41, -34, -76, 49, 56, 27, 18, -1, -62, 0, -90, -37, -49, -56, -45, 83, -10, -77, -85, -22, -56, -42, 46, 94, -83, -91, 39, 0, 22, 12, -62, -51, -72, -5, -57, 15, 91}
, {63, 36, 44, -8, 23, -20, -35, -35, 16, -61, -40, 28, 14, 44, 26, -15, 5, 59, -63, -47, -44, 5, 18, -87, -63, 56, 11, -94, -72, 73, 113, 5, -10, 33, -35, 23, 91, -65, 33, -6, 30, -66, -39, -39, 22, -49, 26, 95, 81, 41, -44, 39, 27, -19, 18, -81, -85, -39, 81, 30, 68, 24, -60, -11, -87, -54, -62, -53, 85, 62, 101, -38, 73, -76, -61, 39, 81, 100, -23, 84, -80, -33, 12, -4, -2, 0, 16, -63, -90, 22, -85, 23, 51, -12, 47, 90, -12, -46, 46, 53, 11, 14, 12, -92, 24, -8, 0, 19, -4, -14, -88, 87, 93, 65, -8, -78, -27, -69, 44, -47, -15, 48, -62, 72, -67, 4, -50, 25}
, {103, -41, 46, 48, -66, -65, 31, 80, 42, -52, -40, 85, -73, -63, -33, -6, 20, 62, 94, -25, 35, -55, -65, -47, -49, 50, 34, 37, 47, 90, 43, 47, -11, 86, -53, -33, 52, 77, -20, -25, -21, -50, -82, -30, -17, 16, 14, 57, 45, -54, 5, 0, 46, -58, 28, -68, 56, 37, 8, -49, 72, 5, 64, -21, 10, -99, -43, 30, -38, 83, 70, 78, -3, 23, -30, -11, -73, 72, -5, -9, 92, 67, -76, -24, -30, -43, -35, -25, 20, 59, -65, 28, 89, -31, 1, 8, 71, -77, 54, -26, 93, 80, -49, 100, -6, -74, -89, 69, 95, 62, -47, -26, -54, 69, -83, 77, 79, 9, -59, 33, 95, 55, -26, 34, -5, -60, -96, -88}
, {68, -95, 25, -81, -82, 88, 26, 30, 48, -25, -26, 68, -46, 8, -12, 29, -15, -84, -90, -52, 90, 53, -41, -68, -93, -90, -1, 2, -23, -19, 20, -41, -103, -65, -76, -17, -83, -65, -28, -12, 76, 63, -88, -72, 64, -14, -12, 2, 64, 0, -42, 0, 31, 65, 94, 41, 88, 40, -42, -20, -89, 48, -88, 5, 79, -51, -1, -64, -98, -71, -2, -4, -54, 51, -47, -27, -92, -65, 87, 36, -68, -9, 15, -10, 19, -10, -20, 41, -88, 53, 25, -30, -96, 83, -7, -78, 83, 62, -49, -22, -88, -6, 74, 29, 36, 14, 42, -63, -15, 44, -12, -96, -86, 56, -81, -54, 56, 56, 4, -28, -31, -21, 10, 9, 51, -83, 9, 77}
, {-10, -51, -59, 41, 99, -50, -18, 70, -52, 37, 95, 84, -24, -33, 81, 28, 25, -40, -70, 33, 48, -83, -49, -80, 9, -12, 11, -24, -7, 57, -29, -42, -103, 65, -64, -30, 94, -87, 20, 8, 46, -78, -34, 1, 42, -5, 60, 97, 3, 78, 6, -11, -66, 29, 74, -53, -62, 18, 72, -48, 39, -22, 19, 45, -91, -78, -51, -67, 49, 76, 58, -94, -56, 63, -49, -52, -20, 14, 85, 0, -26, 2, 70, -67, -66, -17, 47, 81, 84, -2, -91, 84, 13, 88, 6, 45, -29, -50, 71, 84, 28, 4, -45, 78, 77, 15, -22, 95, -88, 37, 34, -41, -47, -41, 93, 3, -11, 80, 55, 12, 35, 80, -9, 46, -68, 55, -25, 62}
, {97, -87, -54, 95, -4, 4, -67, 58, 7, -82, 58, -37, 33, 2, -7, -18, -90, -12, -44, -25, 88, -82, -64, -69, 17, -24, -46, 41, -69, -60, 96, -70, 43, 74, -75, 34, 56, 71, -29, 49, -63, 24, -89, -81, 25, 78, 75, 31, -83, -86, -72, 32, -10, -41, -31, -34, -45, -43, 72, 91, -73, 13, 80, -68, 66, 0, -66, 63, 29, 98, 8, 21, -66, -40, 91, -85, 72, 93, -103, -73, -7, -53, 76, -6, -27, 62, -15, 20, -18, 9, -73, 37, 15, -8, -11, -57, -80, -91, 84, 21, -39, 25, 77, -33, 99, -37, 90, 10, -4, -85, 63, -55, 70, -57, -66, 55, -34, 74, 90, -32, 69, 23, 85, -52, 0, -20, -88, -60}
, {70, -57, -47, 15, -30, -63, -32, 10, 53, 21, -6, 23, -22, -33, -50, -73, -95, 27, -28, -92, 15, -58, -14, -50, 55, -66, -38, -4, 43, 89, -48, -12, -58, -23, 19, -93, -53, 47, -62, 72, 77, 82, 102, 13, 79, 11, -35, -36, 37, -71, -53, -34, 88, -78, -57, 73, -34, -84, 5, -7, -50, 96, 32, 67, -20, 85, 37, 10, 29, 40, -87, 8, 54, -37, 79, -52, -61, 51, 44, 8, -37, -89, 5, 12, 18, -54, 74, -95, -85, -59, -49, 74, -91, 93, -21, 21, 70, 68, 20, -60, -68, -13, -7, 45, -93, -86, -72, 49, 63, -75, 63, 35, 94, -42, -7, -78, -16, 89, -14, -66, -28, 12, -32, 20, -104, -40, 0, -96}
, {-13, 83, -61, -50, -8, -36, -10, -9, -72, 87, 35, 76, 34, 16, -10, -82, 58, -37, 86, 21, 40, 6, 22, -8, -25, 71, 67, 50, -31, -69, -59, -108, 13, -91, 74, -82, -91, -56, -82, -27, -88, -90, -29, 21, -88, 106, 65, 54, 64, -87, 86, 93, 31, 89, 28, -72, -6, -19, -12, -46, 36, -102, -11, 26, 56, 2, -66, -91, 51, 5, 18, -25, 14, -19, 83, -99, 59, -65, 76, -46, -26, 38, -15, 89, 80, -44, 54, 7, 19, -18, -24, -39, -35, -37, 18, 4, 97, 23, 1, 43, 22, -43, -51, 27, 63, 89, -85, 6, 92, 32, -58, -17, 23, 10, 85, 96, -97, 81, -8, 75, 75, -63, -26, -19, -19, 38, -76, -30}
, {-37, 27, -1, 8, -66, -13, -49, 83, -10, -75, 2, 107, 85, 63, 21, -13, 58, 11, 68, 33, 90, 81, -25, -36, -28, 26, 6, -28, -51, -70, 9, -43, -35, 57, -19, -4, 94, -6, -27, 36, 7, -2, -80, 76, 11, -28, -39, -49, 45, 92, -78, -5, -28, 21, 69, -10, -66, -1, -24, -36, 56, -53, 65, 102, -46, -67, -75, 100, 21, 52, 74, -70, -44, -81, -25, 35, -3, -83, 72, 98, -83, -23, 54, 94, 41, -77, -12, -89, -68, 27, 5, 36, 34, 53, 21, -70, 10, 14, -69, -76, -50, 78, 42, -66, 83, 38, 41, 90, 27, -91, 13, -78, -64, -88, 78, -19, -5, 70, -36, -28, 46, -46, 7, -90, 8, 29, 18, 64}
, {-46, 11, -46, -75, 87, -34, -73, -10, 85, 83, 45, -88, 13, -34, -31, -41, 5, 29, -43, 61, -79, -92, -72, 88, 87, 50, 22, 51, -68, -91, 66, -68, -84, -8, 6, -57, 78, 17, -82, -61, 61, -30, -57, 46, 4, 29, 14, -12, 22, -79, -40, -35, -5, 67, 10, 16, 83, -37, -81, 29, 7, -63, -35, 74, -35, -93, -68, -9, -68, -64, 70, 25, 13, 72, -60, -22, -4, -49, -104, -77, 42, 64, -94, -21, 4, -31, -70, 82, -25, 4, -39, -41, -54, -74, -63, 14, -75, 79, -71, -76, 57, -55, 33, -37, 16, -88, -52, -51, 17, -5, 79, -17, 46, -49, 33, 6, 46, 83, -34, -35, -49, -22, -7, -88, 94, 63, -72, 2}
, {-69, 60, -78, 103, 86, -82, -17, -86, 9, -1, -4, 9, 52, 16, 0, -99, 28, 0, -30, -53, -23, 13, -88, -85, -86, 1, -79, -69, -76, 60, 35, 58, 6, 3, 89, 63, -53, 79, -23, 41, -71, 4, -35, 86, -20, 97, 24, 38, 85, -94, 79, -6, -70, 1, 18, 4, -56, 42, -29, -50, -15, 79, -63, -60, -80, 33, -7, -27, -10, 71, 66, 10, 78, -74, 59, 98, 87, -30, -14, -29, -49, 45, 56, -89, 83, -4, -2, -60, -35, 18, -56, -69, -45, 44, 77, -8, -20, 74, -42, -44, -39, -51, -48, -79, 90, 70, -43, -30, 96, 0, -69, 12, -57, -52, -29, 38, 17, 65, -52, -79, -80, -70, 2, -45, 41, 69, 10, -10}
, {-56, -85, -14, -7, -58, -38, -54, -86, -62, -20, -53, -18, 47, -51, -14, -12, 83, 78, -42, 22, -32, 64, -97, -77, 42, -13, -73, 43, -3, 14, 28, 74, -51, -38, 53, -69, 15, -94, -72, -14, 80, -49, 66, 38, 33, -103, 86, -34, -78, 53, -49, -35, -81, 17, -38, -51, -89, -7, -40, -49, -46, 78, -25, 32, 47, -39, -36, 47, -60, -5, 25, 26, 23, 0, -94, -1, -63, 3, -71, 32, 18, 47, -83, -74, -39, -24, -62, 66, 22, -89, 37, -63, 93, -30, -3, 11, 76, -96, -81, -39, -81, 76, -8, -22, 32, 6, -8, 14, 53, -55, -32, 85, 0, -11, 20, -93, -33, 33, 82, -65, 56, -40, 82, -27, 26, 28, 58, -10}
, {0, 23, 41, 52, 39, 72, 30, -53, 30, 86, 54, -36, 2, -49, 37, 25, 5, 65, 48, 87, 14, 11, -1, -11, 49, 39, -7, -44, -84, 55, -47, -26, -97, 52, 60, -34, -75, -96, -54, -59, 18, -51, 2, 0, 28, 16, -80, 90, -30, -80, -27, 81, -27, -71, -23, 73, 3, -53, 27, 53, 35, -5, 38, -2, -44, 18, 10, 25, -30, -67, -75, 47, 67, 86, 76, 62, -110, 85, -86, -97, -86, 11, 66, -98, -30, -32, 60, 35, -80, -81, -35, -29, 64, -29, 25, 6, 8, -30, -82, -66, -102, 22, -78, -40, -53, -44, 17, -3, 0, -32, 15, 93, 96, -21, -58, -24, 79, -81, 81, 5, -51, -12, 34, 44, 5, -24, -50, -4}
, {-73, 93, 63, -37, 12, 9, 70, 21, 38, 15, 15, 80, -59, 71, -81, -10, 1, 29, 71, -27, -27, 2, 59, -75, -43, -14, 11, -7, -26, -10, 91, 61, -48, -76, 84, 79, -12, 70, -90, 0, 32, -45, 26, 98, -31, 30, 75, -100, -28, 4, 48, 0, -85, 14, 0, 74, -12, -59, 94, 72, 84, 90, 19, 21, 61, 57, -9, 8, 63, -84, 14, 77, -85, 29, -12, 69, 78, -6, -65, 49, -89, 98, -56, 81, 29, -27, 57, 75, -80, 23, 76, 10, 91, -100, -68, -88, -19, -55, 0, 9, -6, 7, 46, 61, 42, -2, -48, -51, 83, 15, 4, 31, 65, -72, 30, -98, 1, 45, -69, 68, 64, -23, 86, -3, 46, 45, -10, -109}
, {9, 74, -70, -40, 19, -7, 0, -53, 44, -72, 77, 21, 16, -61, -78, -10, 67, 37, 96, -19, 65, -65, -87, -75, 10, -12, -5, 46, 8, 26, -51, -103, -74, 73, -72, -50, -65, 4, -75, 30, 13, 1, -45, 44, 85, -21, 29, 62, -13, 6, -22, -54, -72, -84, 43, 38, 8, 69, 70, -15, -14, -94, -87, 87, 50, 12, -87, -45, -72, -41, 16, 28, -26, 19, -58, 0, 81, -33, -44, -71, 38, -49, -45, 24, 32, -43, 5, -22, 21, 86, -97, 81, 83, 7, -17, -90, 0, -20, -12, 30, 29, -6, 85, 81, -38, -40, -69, -85, 9, -51, 6, 29, -93, -43, 51, -5, -52, 57, -34, 63, -78, 56, -62, -27, 54, 10, -98, -57}
, {-21, 37, -91, 26, -22, -21, 64, -68, 80, 93, 34, -49, 101, 106, 33, 71, 92, 61, -77, 22, -43, 48, 52, -35, 97, -35, -83, -32, 13, -90, 52, -77, -41, -73, 91, -54, -92, -55, -84, 21, -38, 7, -70, 93, -39, 93, 7, 13, -67, 41, -97, -57, -59, 23, -27, 47, 79, 14, -38, -80, -42, 77, 88, -32, 79, -37, -23, 88, -95, 27, 73, -57, 83, 61, -14, 68, 106, 95, -86, -84, -8, 24, 79, -36, 59, -64, -59, -49, 36, -86, -57, -85, -68, -67, -47, 40, 54, 36, -73, 87, 77, 90, 34, -32, 16, 11, 49, -10, -40, 31, -52, -18, 9, -12, 53, -60, 25, -62, -22, -80, -67, 37, 45, -32, -72, -88, 24, -95}
, {-33, 16, -16, 87, 13, -33, 7, -77, 48, 80, 104, 9, -30, 47, -64, 33, -85, 38, 82, -31, 7, -49, -41, -91, -86, -70, 29, 8, -70, -91, 53, -45, -41, 42, 81, -47, -58, -75, -2, -59, 92, 92, 34, 6, -56, 0, 94, -97, 46, -58, 77, -61, 29, 44, 30, 34, 82, -54, -57, 72, -67, 82, 4, -85, 92, -66, -96, -51, -61, -51, -22, -71, -76, 29, 87, -25, -85, -6, 50, 91, 95, 51, 34, 96, 78, -30, 9, 70, 23, 90, -22, -1, 77, -86, 82, -7, -24, 2, -76, 98, -96, -18, 33, 7, 69, -37, -42, 83, -51, 40, 92, -83, 85, 48, 57, -23, -36, 35, 95, 7, -48, -93, -80, 91, -67, 9, -72, -24}
, {88, 32, 15, 72, 30, 67, 43, 90, 11, -2, 87, -36, 32, -43, 13, -100, -7, 6, 93, 16, 89, 98, 24, 61, 31, 99, 26, -35, -10, 22, -36, -89, 20, 65, 19, 2, 72, 81, 19, -58, 32, -46, -63, -29, -63, -23, 11, -94, -31, -23, 62, 28, -52, 11, 19, 81, 67, 63, 15, 36, 24, 84, 80, -34, 74, -64, -80, 19, -77, 80, -60, -69, -50, -78, -17, -64, 55, 27, 78, 47, 2, 36, 86, 6, -18, -36, 9, -27, -21, 46, -68, -65, 48, -4, -44, -26, -94, 87, -73, -37, 88, 79, -53, -16, 81, -64, 72, -82, -46, 93, 20, -16, 4, -64, -86, -74, -39, 3, 10, -86, 74, 50, 53, -5, 0, 5, -78, 61}
, {23, 19, 61, -65, 87, 76, 93, 26, 8, 64, 64, 59, -34, -59, -10, 35, -40, 55, -76, -25, -56, 61, -71, 21, -41, -18, -22, -40, 11, -86, 37, -69, 78, 61, -53, -90, -66, -66, -96, 21, -33, 52, -59, -78, 81, -35, -47, 41, -12, -40, 38, -50, -26, -32, -32, -15, -85, 75, -49, 60, -75, 61, 9, 5, -10, -60, -13, -21, 3, -92, -81, -33, -85, 93, -81, 32, 36, 0, 74, 16, 74, 2, 74, -29, 73, -55, -25, 45, 101, 65, 78, 37, -25, 2, -61, -66, -30, 89, -35, 60, -40, 37, 42, 23, 77, -10, 75, 36, 1, -89, 69, -84, -90, 77, -54, 31, 41, -58, -92, -36, 76, 53, 32, -62, 12, 65, 96, 86}
, {78, -51, 34, 65, 56, -87, 67, 38, 46, -81, 104, -96, 12, -3, 22, -41, 81, -1, 17, 51, -16, -75, 78, -61, 94, 18, 4, -63, 31, -5, 83, 27, 82, 9, -30, 82, -9, 63, -2, -92, -37, -40, 87, -95, -68, 41, 50, -80, 8, -33, 84, 56, -61, -75, -96, -12, 47, 78, -38, -81, 22, 20, 9, -11, -85, -46, -52, 80, 11, 61, -7, -11, 46, 50, 24, 63, -37, 32, -67, 70, -17, 38, 68, -61, 72, -15, 66, 57, -47, -82, 47, 37, 81, 67, 67, 22, -16, 9, -54, 91, -10, -79, 7, 13, 93, 16, -5, 62, 94, -8, 83, -12, 82, 74, 67, 24, 67, 44, 0, -37, 30, -90, 86, 85, 67, 63, 36, 77}
, {5, 29, 86, 32, -42, -30, -56, -83, 35, 84, 72, -93, -52, 71, 93, -61, 86, -40, 55, 89, 39, 91, 97, -1, 93, 63, -40, 27, -43, -74, 85, -1, -64, 49, -4, 11, -77, 21, 0, -82, 51, 40, 12, 96, 84, -54, -76, 1, 65, -29, 48, 62, 88, -76, 37, -48, 81, 78, -40, -90, 24, 65, 4, -29, 60, 66, -13, -13, 78, 86, -43, 89, -36, -25, -64, -58, -31, 53, -26, 11, -92, 57, -60, 19, -72, 41, 62, 6, -3, -16, -49, 45, -35, -24, -24, -80, 42, -59, 29, -4, 68, 42, -67, -90, 79, 85, 56, 80, 22, 2, -69, -38, 45, 49, -79, 66, -40, 15, 81, -1, -14, -51, -19, 62, -87, 43, -11, -25}
, {-75, 95, 91, -20, -95, -23, 78, 28, -6, 91, 49, -51, -78, 9, 98, 39, 13, -55, 73, -27, -67, 29, 36, 3, 72, -15, -18, -82, 60, -75, -69, 94, 29, -48, 42, -86, -88, -65, 43, -88, -22, -14, -39, 32, 26, -95, -40, -82, 11, -29, 77, 34, -81, -16, -48, -68, 60, 49, -44, 6, 76, 96, 45, -69, 62, -61, -91, -85, -8, -8, 22, -2, 51, -18, -86, 67, -94, -97, 2, -92, -18, 75, 92, -30, -55, 19, 23, -78, 15, 78, 26, 67, -79, -31, 17, 40, 7, -81, 81, 71, 41, 64, 26, 88, 31, -55, -76, -16, 88, 50, 89, 87, -4, 61, -9, -45, 95, 75, 57, -97, -32, 28, 13, 49, -42, 40, -1, -63}
, {-37, -14, -89, 61, 93, 55, 26, 65, -77, 20, 32, 79, 41, 33, 86, 40, -106, -3, 78, -43, -75, -39, -96, -9, -33, -35, 47, 49, 14, 7, -44, -33, 13, 44, -44, 89, -24, 97, -62, -78, -97, 12, -89, 88, 32, -91, -68, -23, -16, 66, -69, -8, 1, -40, -9, -54, 44, 77, -37, 100, -107, 57, 17, 62, 23, 70, 30, 34, -89, -45, 1, 55, -49, 38, 60, 0, -84, 10, -23, 66, -19, -29, 83, 59, -19, 64, -42, 2, -60, -55, -4, 24, 39, 47, 6, -4, -88, -15, 3, -12, 50, 0, -48, -104, 10, -14, -94, 60, -31, 17, 86, 54, 51, 83, -5, -4, 55, 16, -80, 81, -15, -69, 27, 49, -86, 46, 59, -29}
, {105, 19, -77, 95, -41, 90, 73, -67, -15, -8, 100, -70, 82, -26, 68, 45, -28, 58, 32, -93, -75, 29, 57, -95, -60, -43, 94, -74, -58, -57, 114, -28, 40, -92, 14, 46, 43, 71, -54, -92, 49, -44, -44, 73, -73, 42, -63, -53, 45, 13, 98, -34, 15, 6, 8, 30, 24, 20, -41, 75, 66, 84, 60, -29, -88, 91, -33, -10, 70, -18, -68, 6, 88, -57, 1, 42, -32, 9, -73, -7, 27, 62, -74, 8, 104, -47, -18, -35, -54, -76, -58, 60, 45, 90, 70, -35, -15, 11, 61, -64, 75, -34, 69, -50, 99, 37, 34, -71, 60, -31, 92, 95, 90, 91, -49, -30, -23, -86, -70, -27, 42, -19, 30, 33, 83, -86, -30, -101}
, {-78, -57, -15, 63, -68, 14, -21, -3, 11, 30, 4, 37, 37, -2, 66, 66, -63, 30, -58, -25, 38, -42, -81, -30, 45, 43, -88, -90, -87, 41, 62, 43, 12, 25, 23, 28, 78, 68, 23, 49, 77, -68, -13, 90, 25, 61, 80, 50, 52, 48, -9, 43, -69, 20, -8, -11, -84, 75, 48, -90, -15, 76, 20, -28, 59, 70, 51, 57, 18, 3, -41, 36, 74, -61, -26, -67, 8, -25, -51, 27, -37, -94, -2, 49, -73, -85, 13, -27, 52, -84, 35, -39, -91, -77, -72, -14, 75, 3, 6, -33, 0, -79, -51, 29, -26, -50, -58, -79, -65, -5, -68, 93, 25, -6, 10, 82, -27, -71, 64, -7, 38, 10, 87, -81, 102, 13, 75, -102}
, {52, 80, -83, 6, -99, 57, 66, -15, 62, -74, -33, -37, -115, 24, -51, -77, -80, -66, 22, -29, -16, -10, -30, 43, -66, -47, -20, -58, -62, -5, 3, 23, 65, -37, -27, -24, -42, -35, -30, -65, 24, 22, -72, 16, 100, -32, -47, 91, 85, -49, -52, 26, 39, 51, -105, 28, -48, 43, 9, 15, -62, 48, -83, -78, 51, -41, 68, 84, 4, -35, -107, 69, 78, 80, -20, 1, -66, 18, 46, -50, -85, 48, 76, -76, -49, 0, 0, -70, 34, -58, -40, -88, -71, 80, -44, 6, -37, -18, 43, 73, -61, 2, -29, 90, -53, -83, 36, -102, 21, -45, -20, -68, -56, -73, 70, 76, 13, -76, 11, 35, -11, -44, -12, 1, 19, 34, 65, 45}
, {-61, -24, -52, -24, 103, 48, -55, -43, -61, 85, -31, 61, -31, -37, 26, 65, -98, 47, -84, -62, -53, 74, 8, 55, 22, 81, 75, -17, 91, 8, -29, 75, 74, 29, -1, -31, -92, -5, 56, 4, 2, -89, 52, 78, 8, 10, -51, -5, -38, 93, 23, -38, -66, 43, 9, -1, 18, -69, 39, 23, -10, -70, -8, -7, 0, 54, 45, -74, -25, 0, 79, -65, 59, 23, 23, -25, -21, -73, -53, -55, 55, -50, 46, -2, 66, -62, 0, 35, 3, -90, -66, 54, 79, 56, -84, -11, 34, 85, -45, 53, -46, 41, -46, -60, 65, -22, -71, 45, 52, 13, -48, 3, -43, 86, -71, -73, 32, -66, -19, 41, 28, 33, 53, 44, 61, 3, -77, 101}
, {79, -28, 66, -15, -106, 10, 13, 49, -50, 45, -22, -20, -35, 15, -1, -69, -39, -12, -15, 32, 37, 88, 0, -92, 72, 87, 76, -53, 58, -38, -70, 54, 55, 67, -59, -52, 47, 34, -62, 64, 92, 9, -51, -88, -86, 78, -83, 33, 81, -73, 63, 17, 70, -19, 86, 70, 66, 67, 23, 11, 20, -94, -67, -53, -65, -111, 92, 63, 67, 8, 9, -35, -22, -53, 99, -25, 16, 73, -23, 61, 70, -41, -67, -100, -34, 31, -79, -73, -80, 36, -61, 5, -61, 97, -14, 85, 14, -12, 56, 82, -72, 20, -17, -3, 56, -31, -82, 72, 11, 41, -72, 60, 97, -35, -58, 41, -85, 45, 0, -94, 60, 95, 66, -75, 6, -41, -69, 82}
, {0, 23, 64, -43, -62, -90, 30, 35, 33, 57, 44, -28, 41, -39, 91, 27, 48, 20, 66, 90, 21, 5, -20, -23, 9, 61, -64, 79, -77, 63, -14, -16, 47, -20, 54, 33, -29, 8, 0, 57, -13, 18, 52, -27, -65, -47, 89, 5, 11, -39, 13, -60, -89, -7, 25, 67, -80, -68, 38, -4, 10, 59, -34, -48, -89, -11, 10, 17, -41, 15, -25, 63, 76, 38, -69, -26, 24, 66, 86, -45, -24, 69, 65, 27, 39, -79, -56, -40, -29, -36, 60, 13, 35, -13, 79, 79, -72, -1, -84, -60, -56, -42, 75, -34, -11, 17, -76, -80, 83, -94, 100, -66, 2, -96, -66, -71, -55, -29, 10, 48, 50, -14, 50, -8, -2, 66, -81, -79}
, {19, 7, -67, -75, 39, -78, -39, 76, 16, -62, -60, 80, 6, 55, -34, 23, 21, 21, -31, -92, 92, 55, -23, 70, 25, -87, -11, 10, -54, 68, 22, -14, -88, 57, 33, -43, -76, 64, 72, 54, 71, 5, 35, -25, -91, 63, -20, -61, 87, -42, 20, 62, -64, 90, -106, 19, 48, -53, -46, -7, -87, -45, -2, -80, 82, 52, 23, 51, -13, 88, -89, -3, -59, -9, 22, -67, 59, -9, -13, -78, 22, -74, 52, -31, 56, -39, 28, -81, -33, 45, 77, -64, -25, 5, -72, 72, 69, 9, 32, 10, -41, -68, -26, 76, 58, 47, 29, -67, 4, -66, -82, 90, 53, 43, 81, -35, 59, 6, -47, -13, -68, 65, 86, -92, 85, -56, -41, 66}
, {-21, -37, -49, 23, 90, 77, 17, 45, 29, 64, -109, 94, -93, 35, -92, -82, -39, 15, -47, 60, -82, 76, -82, -35, 37, 61, 98, -51, -49, 0, 13, 91, 101, 49, -35, 71, -11, 87, -74, 20, 3, 37, 88, -8, -24, 31, -13, -56, -9, -49, -14, -73, -57, -41, -1, -86, 93, 28, -11, -15, 96, 55, -16, 79, 45, 113, -70, 57, -49, -26, -30, -59, -27, -25, -86, 13, -83, 41, 29, 22, 57, -10, 66, -37, 52, 49, 99, -68, 84, 60, 11, 6, -20, -13, -77, 42, -44, 0, -53, 61, -81, -15, -19, 70, 62, 84, 10, -82, -4, 46, -64, 59, -39, -14, -95, -2, -46, -21, 93, -28, -68, -21, -32, -26, -68, 89, 97, 33}
, {-55, 24, -74, -17, 25, -25, -48, 55, 44, 14, -70, -12, 38, -44, -22, -74, -43, -76, -97, 34, 81, -38, -32, -96, 47, 20, 59, -11, 82, 31, 64, 41, -1, -7, -62, 4, 43, -69, 13, -65, 26, -56, 49, -4, -45, 20, -59, 36, -74, -76, -68, 19, -59, 44, -52, 95, -44, 86, 10, 18, -55, 51, 34, 81, 22, 48, 10, 11, 90, 67, 3, 95, 11, 88, 5, 64, -61, 56, -80, -15, 12, 69, -54, 48, -57, -94, -69, -82, 56, 73, -13, 71, 11, 31, 61, 66, -72, 42, 84, -57, -18, 65, 30, -53, 36, 72, 59, 82, 61, 75, 10, 89, -16, -40, -85, 27, -54, 21, 48, -50, 56, 70, -77, 40, -28, -42, 104, 14}
, {-13, -88, 9, -80, 60, -25, 1, -20, 48, 96, 13, -12, -3, 60, -34, -40, -98, 5, -70, 49, -81, -42, 22, 76, 49, -45, -18, -17, 90, 85, -13, 53, 61, 76, -80, -83, -22, 75, 36, 3, -91, 18, 35, -3, 5, 59, -92, -67, -41, -4, 92, 12, 67, 95, 91, 66, -81, 48, -32, -70, -108, -90, -10, 70, 66, 48, 61, 9, -31, -36, -13, 73, 41, -26, 17, -81, 69, 69, 3, -42, 70, -39, -3, 15, 0, 20, 11, -8, -85, -45, -81, -2, -50, 69, 10, 27, 18, 44, -67, 24, -28, -58, -5, -79, -58, 38, 78, -57, 11, 0, 48, -73, -77, -84, -61, 73, 53, 20, 64, 15, -22, 81, 16, 5, 26, -23, 89, 45}
, {21, -75, 50, 59, 91, 33, -46, 76, 83, -77, -99, -83, 63, 60, -52, -76, -76, 51, -23, 5, -7, -4, -90, -59, 43, -92, 19, -37, 17, 74, -43, 52, 98, 14, -23, 94, -70, -32, -36, 91, -98, 64, -66, 1, 3, -31, 35, -75, -58, -56, -64, -46, 73, 14, -37, 42, 64, -71, 68, -75, 82, -42, 11, -76, -25, 96, 1, -30, -33, 23, -52, 83, 67, 37, 23, -82, -43, 49, -46, -95, 22, -45, 78, -76, 98, 0, 84, 87, 31, -74, 3, 70, -55, 88, -92, 47, -96, -9, -78, -1, 76, 35, -20, -41, 63, 52, 25, 91, 46, -3, 0, 50, -91, -15, 58, 25, 35, -41, 26, 0, 17, 15, 1, -57, 42, -59, -65, 60}
}
;

#undef INPUT_SAMPLES
#undef FC_UNITS