/**
  ******************************************************************************
  * @file    weights/fc.cc
  * @author  Pierre-Emmanuel Novac <penovac@unice.fr>, LEAT, CNRS, Université Côte d'Azur, France
  * @version 1.0.0
  * @date    24 march 2020
  * @brief   Template generating plain C code for the implementation of Convolutional Neural Networks on MCU
  */

#define INPUT_SAMPLES 128
#define FC_UNITS 40


const int16_t dense_58_bias[FC_UNITS] = {-8, 10, 14, 4, 4, 11, 13, 0, -2, -9, -4, 2, -9, -4, 0, 9, -8, 4, 9, 2, -5, 14, 7, 14, 4, -3, -1, 11, -6, 0, -10, 1, 14, 0, 0, -8, -8, -3, 1, -8}
;

const int16_t dense_58_kernel[FC_UNITS][INPUT_SAMPLES] = {{49, 31, -50, 62, -23, 4, 48, -8, -75, -13, 91, -10, -50, 40, -7, -85, -45, -61, 44, 15, 38, -9, 127, -59, -102, -57, 68, 86, -71, -95, 6, 17, -54, 65, 31, -65, -25, 45, -84, 64, 35, -95, 21, 86, -14, -84, 116, 80, -46, 87, 87, -58, -21, -34, -74, 57, -9, -47, -70, 0, 115, -33, 56, 16, 14, -2, -50, 83, 75, -89, -94, 9, -29, 7, -43, 38, 64, -32, -79, -5, 66, -58, -70, 110, -28, 33, -25, -12, 96, -7, 44, -58, -77, -96, 40, 17, -44, -25, 4, -65, 38, 20, 18, 24, -48, 82, -53, 14, -29, 23, 14, 62, -56, 55, -83, -53, -36, 51, 36, 27, 36, 84, 2, -94, 44, -74, -50, 72}
, {-71, 81, 60, -27, 87, -34, 18, -69, -8, 48, -50, 15, 58, 80, -49, 22, 0, 80, -44, -16, -3, 11, 89, 80, -61, -1, -60, 55, -44, 30, 91, -41, -46, 32, 9, 92, -5, 42, 42, -16, -87, -3, 5, 76, 16, -60, -23, -25, -27, -71, -36, 33, 74, 22, -86, -6, 68, -29, 17, -30, 66, -26, -67, 67, 19, -20, 72, 30, -23, -70, 73, 8, 58, 22, 49, 33, 68, 16, 21, 16, 11, -40, -77, 57, -86, 21, 93, 53, 80, -41, 46, -27, 106, -42, 77, -53, 15, -60, 56, -34, -20, 74, -2, 93, 34, -6, 81, -5, -75, -66, -13, 110, -64, -76, 47, 31, 36, -96, 19, -22, -29, -83, 50, 42, -46, 17, 77, 90}
, {-60, 13, 111, 71, 66, 25, -80, 74, -47, 70, 58, -12, -82, -11, -25, 95, -57, -25, 59, 46, 82, -5, 83, -63, -68, -102, -76, 76, 7, 90, 34, -100, -15, -49, -2, -21, 24, 82, 60, -55, 76, 59, -3, 69, -82, 65, 20, -21, -36, -51, -73, -34, 40, -33, -20, -56, 19, 44, -94, 108, -74, 17, -33, -13, -43, -11, 63, -57, 20, 2, 47, -52, -44, -37, -77, -28, 40, -65, 39, 78, 34, 12, 21, 14, -80, -11, 27, -54, -13, -85, 21, -45, -74, 38, 12, 57, -62, -64, -41, 63, -4, -15, -46, 22, -74, -77, 48, 56, -18, 86, -54, -109, -2, 16, 48, 40, -20, -42, 64, 11, -70, 93, -31, 63, -56, 46, 94, -39}
, {-68, -8, 15, -40, 36, -48, -80, 29, 75, -75, -51, 48, -59, 24, 82, 90, 69, -32, -59, -3, 82, -1, 33, -77, -90, 85, -12, 43, 5, 22, -25, 92, -20, -21, -94, 67, 39, -73, 53, 52, 6, -96, -102, 85, -89, -75, 111, 55, 68, -2, -100, -4, 70, -49, -45, 71, 17, 52, 92, 65, -45, 74, 15, -29, -38, 21, 53, 20, -88, 12, 60, -102, -44, 32, -89, -21, -24, -40, 48, -35, -82, -14, 3, -66, -7, -19, 79, -32, -71, 6, 79, 14, 30, 7, -4, -4, 58, -95, -62, 41, 25, 93, 73, -78, 31, 49, -16, -85, 89, 35, -31, -36, 79, 62, -18, 38, 26, 56, 21, 24, 37, -32, -19, 84, 109, -94, -74, -33}
, {-27, -8, -57, -58, 61, -119, 19, -16, -71, -33, 75, 70, -50, -79, -77, -81, -65, 56, -53, 90, -72, -53, -15, -100, 42, -87, 29, -6, -27, -66, -43, 106, -81, 5, -86, 46, 71, -20, 27, 102, 41, -25, -48, 77, 52, 42, 106, -32, 42, 2, -83, 95, 51, 91, 59, -88, 17, 74, -41, 57, 7, 41, -49, 94, 73, 80, -71, 42, -42, -9, 60, -63, 4, 14, 9, 46, -50, 44, -42, -60, 42, -90, -68, 75, 55, 53, 29, -63, 8, -18, -98, -36, 9, 29, 37, -71, 10, -35, -28, 5, -86, 30, -9, -100, -15, 19, 62, -10, -70, 73, -34, 41, 69, 28, 11, -41, -83, 65, -48, 59, 48, 74, -44, -9, 15, -78, -47, -22}
, {-23, -58, -80, 60, -13, -66, -22, -10, 102, 35, 21, 83, -82, 84, -62, -72, -36, -6, 28, 71, 58, 53, -108, 66, 55, 105, 66, 17, -49, 62, -79, 54, 32, 89, 34, -3, 89, -79, 15, 12, -28, -74, -64, 74, -28, 37, -76, -66, -3, -35, -60, -25, -89, -63, -94, 8, 101, -85, 70, -57, 19, -101, 11, 20, 39, -56, -96, 50, -57, 31, -63, 78, 15, 101, -35, 68, 41, -41, -61, -55, -37, -56, 66, 42, 89, 74, -16, -11, -53, 63, 40, 60, 105, -20, 98, 22, 31, 17, -58, 47, -74, 63, -15, -42, 19, -52, 36, 58, 66, -18, 36, 37, 87, 2, 12, 48, -28, -75, -4, 4, 36, -75, 70, -34, 92, -53, -9, -5}
, {37, -64, -69, 76, -29, -32, -19, -26, 3, 18, -85, -79, -57, -72, 61, -53, 25, -81, 102, -102, 88, 2, -25, -77, 41, 32, -8, -31, -30, -12, 93, 42, 6, -90, 91, 12, 40, 42, 31, 35, 7, 14, -67, 66, -65, -83, -62, -92, 10, 50, -80, -41, 45, 76, 3, -50, 72, -33, -67, -50, 43, 62, -2, 54, -60, 76, -28, 85, -106, 44, 88, -75, 66, -71, -108, -26, -46, -9, 92, 55, 45, 28, 99, -59, -43, 52, 54, -41, -77, 69, 2, -65, 54, -48, 12, 66, -80, -41, 3, 81, 81, 5, 88, -94, 71, 17, 23, 69, -79, -75, 92, 56, 49, -46, -43, -33, -32, -64, -38, 59, 13, -36, 27, 89, -69, 12, -20, 19}
, {55, -7, 82, -39, 92, -21, 13, 75, -26, 67, 22, 88, -58, 58, -71, 75, 35, -33, -88, -70, 90, -44, -26, -23, 59, -25, -24, 10, 73, 69, 23, -8, 95, 59, 37, -71, -42, 17, 24, -37, -63, 64, -17, -96, -30, 9, 88, -8, 77, -48, 55, 87, -20, -46, -59, 13, 20, 79, 51, 23, -53, 32, -24, 54, 59, -52, -45, 70, 30, 15, -16, -52, 8, 60, -1, 0, 79, 12, -66, -33, -74, -100, -79, -77, 11, 1, 12, -43, -90, -78, -31, -10, -85, -92, 15, -54, 27, -56, -59, -93, -12, 23, -25, -3, -89, -24, -91, -27, -79, 73, -64, -69, -18, -10, 85, 24, -60, 69, -43, -59, -83, -19, 30, 69, -30, 53, 1, -2}
, {-1, 72, -107, 11, 88, -21, 36, -71, -107, 90, 43, 83, -17, 38, 27, 87, 53, -75, -5, 64, 21, -55, -26, -28, 34, 85, 80, -58, -55, -60, -56, 100, -66, -11, 53, -90, 92, -83, -54, 83, 62, -20, -22, 84, 37, 79, 65, -97, -31, -3, -47, 32, 42, -57, -76, 47, -14, 59, 6, -5, -92, -33, 2, 34, -23, -30, 61, -37, 98, -41, 107, 52, 17, 63, -82, 30, -73, -23, 61, -89, -61, -42, -21, -62, -81, -61, -37, 27, -39, -68, -38, -22, -53, 32, -38, -94, 32, 83, -24, 67, 44, -17, -33, 59, 74, 82, -23, 76, 83, 28, 5, -28, 60, 9, 70, -68, 84, 116, 17, -58, -12, -103, -68, 6, -80, -17, -8, -31}
, {-13, -16, -66, -14, -68, 91, 16, 21, 30, 59, 59, 32, 76, -21, 82, -43, -36, 67, 80, 42, -93, -12, 51, 23, -62, 77, 81, -15, 17, -90, -17, -17, 39, -85, -80, -62, 8, 67, 82, 9, 38, -80, 17, -40, -46, -43, 6, -44, 35, -68, 94, 4, -44, -79, -5, 92, 19, -19, -93, 60, -18, 71, 58, 70, 42, 67, -25, -17, 3, -9, -59, 16, 50, 1, -68, 69, 80, 88, -6, 62, -42, -38, -74, 2, 40, -8, 21, -11, -74, 86, -10, -13, -51, 7, -85, 28, -93, 72, -77, 83, -89, 3, 55, -87, -40, -41, 70, -14, -71, 18, 96, -57, -53, -30, 21, 52, 50, -103, 14, -34, 35, 56, 87, 58, 68, 45, 6, -20}
, {50, 62, -83, 27, 10, 100, 64, -76, 39, -13, 21, 21, -31, -10, -51, -95, -100, 27, -35, 0, 10, 93, -89, -50, 1, -70, -82, -103, 48, -30, 46, -59, -30, -36, -41, -35, -53, 87, 39, -28, -121, 90, -77, 87, 7, 87, 65, 78, -78, 3, 38, -82, -53, -62, 77, -31, -77, -43, -77, 17, -97, 64, 57, 54, 69, -88, -93, -17, 39, -6, -66, -34, 67, 85, -53, 38, 33, 16, -15, -57, 17, -99, 75, -35, 38, -41, 97, -11, 32, 91, -86, -76, 23, 100, -33, -73, 4, -1, -75, 0, -29, -81, 31, -45, 30, 28, -65, 69, 70, 14, -19, 15, 48, 35, 88, 84, 1, -1, 18, -78, 30, -88, -86, -75, 68, 47, 35, -35}
, {-78, -29, 74, 27, -69, -12, 61, 75, 4, -40, 36, -81, 68, -51, 15, 10, -20, 48, 4, 58, 95, -32, -29, -58, 12, 24, 68, -21, 10, 69, 33, 91, -73, -8, -45, -42, -70, 71, -2, -61, -8, 75, 87, -92, 11, 64, -99, 29, -28, 51, -95, -90, -85, 5, 88, -95, -33, -57, -53, 106, 99, 22, 90, -83, -38, -57, 12, -45, -88, 56, 11, 51, -108, -53, -71, 88, -28, -61, 30, -43, 37, -45, 98, 69, 89, -75, -57, -50, -11, -25, 89, 56, -95, 3, 8, 20, -46, -99, -39, -70, -20, -9, -78, 70, -53, 37, -19, -92, -49, 48, 12, 3, 5, 57, 6, -85, 20, 57, -48, 39, 0, -23, 30, -49, 0, 47, -72, -38}
, {-54, 78, 62, -24, 50, -41, 36, -53, -69, 26, -4, 21, 68, 35, 85, 72, 75, -4, 44, 49, 0, 79, 30, 69, 14, 40, 31, 28, -96, 44, 63, -107, -38, 9, -55, -95, -6, 54, -41, -51, 52, -33, 57, 93, 68, -76, 82, 110, -71, 15, -81, 27, 84, 72, 90, -57, -12, 50, -79, -79, 21, 90, 46, 18, 35, -32, 51, -91, 43, 36, 52, 60, -40, -47, -52, 18, -9, -48, 44, -1, -13, 29, 79, 14, -45, 28, -13, -96, 59, -20, 53, 43, 32, 64, 53, -101, -46, -37, -73, 18, 72, -2, 68, -82, -90, 25, -86, 64, -23, -40, -53, -106, -63, -72, 79, 33, -96, 29, 19, 40, -21, 74, 3, 24, 59, 68, 43, 27}
, {52, 63, -50, -6, -23, 57, 65, -2, -12, 91, -32, -17, -27, 37, -62, 21, -47, 49, -38, -20, 18, -60, 0, -26, 22, 106, -74, -101, 6, 0, 63, 107, 68, -41, -7, -52, 0, 18, -60, 86, 61, 27, -88, 29, -40, -5, -90, 47, -65, -15, -95, -59, -62, -97, -10, -76, -105, -94, -51, -39, -76, -74, 85, 72, 90, -26, 15, 67, -21, -57, 90, 17, -43, 115, 31, 57, -116, 23, 32, 21, -10, -90, 61, -82, 85, 83, 78, -86, -8, -84, -71, 82, -43, 79, 45, -88, -13, 35, 90, 68, -17, -70, -7, -3, -67, -25, -91, 80, -84, 10, 22, 90, -50, 97, 83, 58, -77, 25, -21, -89, 51, -43, -93, -16, -91, 1, -100, 22}
, {5, 10, 87, -70, -28, 28, 100, 47, 61, 2, 54, -36, 66, 94, 88, 15, -47, 55, 92, 8, -59, 50, 29, 47, -100, -63, -61, 64, -72, 30, 70, -65, 58, -53, -13, 81, 20, -76, 11, 45, -15, -72, 67, 33, -92, 12, 84, 46, 57, 58, 16, 35, -56, 14, 74, 12, -73, -2, -28, 0, -43, 84, 31, 45, -82, 44, 31, -58, -37, -71, -17, -7, -34, -12, -53, 29, -33, 0, 9, -39, -69, -31, 100, 3, 4, 63, -59, -27, -44, -34, 24, -65, 98, -75, -15, -43, -1, 28, 106, 39, -40, -97, -21, -26, -9, -42, -28, -48, -15, -3, -26, 29, 82, 7, -44, 60, 8, 81, -25, 80, 35, -22, 10, 24, -97, -1, 4, -69}
, {30, -35, -71, -68, 79, -10, -19, 29, 87, -76, 17, 100, 68, 12, 106, 65, -57, 38, 22, 49, 22, 67, -74, -70, 69, 30, 57, 24, -83, -72, 9, -24, 57, -83, -17, 74, 15, -82, -92, -81, 37, 17, -22, -17, 89, -101, -6, 1, -30, -49, -66, 66, 4, 43, -67, 66, -12, -14, 93, 34, -49, 56, 41, -28, 15, 106, -21, 83, 86, -15, 15, -80, 30, 29, 80, 26, 51, 48, -92, 89, -41, -55, 13, -61, 3, -83, 43, 94, -6, 58, -71, -93, 38, -36, -71, 101, 30, -68, -56, -79, 87, -67, 34, -25, -38, -54, 65, -107, 77, 53, 2, 10, -3, -12, -86, -26, -6, 81, 70, 51, -92, -37, -56, 87, 10, 27, -51, -35}
, {71, 43, 59, -68, -47, 60, 82, 61, 41, 27, -86, 70, -35, 37, 75, -26, -39, -63, -26, 27, -38, 36, 52, -96, -6, -20, 4, 5, -6, -27, 51, 53, 54, -40, 50, 95, 90, 46, -56, 5, 57, -95, 94, -51, -100, 80, 9, -83, -87, -98, 66, -53, 17, -79, -15, -49, -69, 27, -66, 24, -22, -30, 48, -96, -7, 54, 92, -48, 64, 89, -90, 43, 36, -95, 100, 3, -3, 0, 27, -32, 87, 27, 78, -32, 4, -69, -21, 49, -10, 83, -88, -3, -37, -68, -26, 94, -30, 60, -75, 49, 78, -106, 67, -37, -58, 77, 68, 45, -17, 74, -62, -53, 66, -72, 69, 82, 88, -52, 79, -67, 15, 43, 71, -49, -17, 17, 83, 77}
, {-79, 0, 58, -42, -80, -30, -25, -25, -55, -94, 92, -48, 13, -42, 31, -19, -53, -67, 58, -55, 91, -91, 48, -89, -45, -22, -41, -81, -30, -81, 88, 33, -97, -6, -76, 48, -101, -60, -22, 43, 32, -17, -59, 40, -81, -22, 69, 84, -45, 23, -60, 69, -62, -29, 9, -18, 93, 33, -79, -63, 83, 91, 2, 25, -47, -57, 66, 90, 9, 27, 68, 17, -65, -95, -4, 32, 22, 1, 90, 90, -2, -75, -48, 17, 76, 73, -78, -19, 4, 50, -82, 27, 36, 51, 68, -80, 81, -83, -44, 1, -24, -17, -92, 51, 53, 49, -17, -37, -68, 101, 102, -60, -27, -54, 91, -65, -14, 16, 90, 30, -85, 64, 39, -48, -62, -33, -11, -32}
, {-36, -109, 85, 72, -6, -30, -43, 103, 36, 35, 82, 85, -57, 56, -24, 13, 14, 18, -3, 13, 74, -17, -10, 66, 79, 90, 26, -22, -16, 110, 28, -11, -44, -7, -35, -50, 84, -68, -58, -54, -10, 26, -29, 27, 76, -21, 23, -98, -42, 50, -27, 94, 45, 20, 87, -3, 76, 45, -79, 14, -51, 96, -1, -7, 46, 84, 27, -10, 52, 73, 43, 35, -24, 15, 63, 42, 74, -61, -58, 60, -89, -49, -29, -71, -8, 4, 17, 76, 105, 47, 43, 26, 41, 50, -43, -50, 74, 65, 95, -86, 53, 66, 85, -77, 64, 24, -10, 57, -87, -48, -90, -25, -56, 64, 37, 65, 50, -30, -99, 87, 0, 98, 70, -93, 36, 13, 55, 43}
, {25, -84, -12, -68, -14, -35, -80, 137, 19, -28, 17, 49, 37, -60, -92, -67, 85, 36, 85, 42, -27, 78, -26, 22, -94, 30, -96, -24, -32, 87, 98, -73, 49, -72, -99, -59, 72, 80, -37, -63, -109, -84, 24, 4, 97, 75, 50, 0, 71, 39, 38, -90, 33, -52, -7, -31, 66, 45, -86, 99, 98, 105, -51, -41, 38, 81, -42, -8, -69, 43, -29, 16, -85, -14, -70, 38, -17, 77, 51, -64, -84, -86, 86, -73, -42, -7, 67, -55, 75, 65, 41, 89, -67, 83, 83, 65, -1, 83, -76, 13, 99, -16, -10, 20, 12, -95, -58, 12, -66, -95, 4, -44, 39, 14, -70, 73, -85, -40, 10, 17, -30, 90, 27, 90, 92, -24, -42, -27}
, {62, 19, -11, 81, 16, -17, -14, 19, -43, -4, -63, 77, -38, 33, -63, -40, -39, 67, -7, 99, 30, 111, 72, 1, -18, -53, -16, -2, -21, -19, -23, -22, 72, 96, 94, 21, 48, -24, -15, -7, 24, 69, 95, -55, -79, 64, 53, 38, 8, 45, 59, -38, -48, -50, -27, -78, -33, -12, 43, 96, -29, 81, 4, -49, -57, -18, 92, -15, -51, -88, -41, 59, 79, 92, 88, 88, 64, 6, 51, 43, 34, -27, 94, -24, -78, 82, 11, 20, -30, -39, -91, 64, -48, -35, 94, 25, -9, -40, -57, 15, -82, -31, 30, 18, -15, -41, -90, 22, 93, -1, -58, -38, -101, -71, 42, 14, -49, 94, 113, 41, 89, -40, 54, -14, 51, -2, 13, -85}
, {-24, -30, 34, 30, -55, 91, -41, 26, 44, -31, -22, -25, 3, 50, 4, -85, -59, -86, 6, -7, -52, -63, -29, 24, 6, 40, 17, -69, -27, -4, 10, -58, 26, 34, 97, 39, 4, 8, 52, 4, 61, 41, -55, -50, 39, 9, 21, 30, 61, 91, -5, 95, -101, -14, -65, -46, 86, 85, -88, 63, -77, -48, -37, 52, -15, 56, -51, -75, 3, 18, -14, -82, -8, -71, -82, 36, -47, -69, 77, 5, 56, -10, -44, -36, -88, -88, 53, 94, 2, -12, 46, 25, -18, -1, 33, -7, 47, -34, 74, -26, 88, 76, -82, -16, -91, 47, 5, 41, -13, -72, -3, 15, 9, 37, 62, 16, -4, 24, 39, 47, -59, 75, -68, -93, 10, 5, 74, -47}
, {-61, -21, -46, -91, 66, 95, -99, -55, -12, -2, -101, 31, 61, 8, 34, 52, -104, 71, -51, -27, -16, 67, 15, 0, -20, -72, -50, 55, 2, -33, 26, 35, -62, 66, 22, 3, 107, 82, 26, 2, 48, -59, -39, 92, -34, -25, 0, -111, 3, 14, 35, -51, -53, 55, -28, -38, -34, -71, 79, -83, -22, 7, -86, -72, -58, 37, 62, 47, -25, 11, 59, 95, 34, 65, -31, -6, -54, -68, 10, 11, 48, -6, 33, -111, -35, 36, -90, 58, -3, -89, 52, 56, -2, -46, -20, -7, 40, -1, 0, -26, 27, 11, 74, -24, -25, 76, -9, -55, 104, -104, 55, -26, 40, -3, 4, 66, -28, -24, -26, 5, 25, -90, -86, 70, 116, -82, -4, -99}
, {20, -63, -82, -85, 88, -105, 87, 85, -35, 78, 6, 26, -42, -26, 37, 91, 105, 34, -109, -66, -29, -74, 90, -14, 90, 46, -32, -3, -101, -64, 80, -53, 69, 63, 80, 54, -58, -66, 49, -88, -26, -47, -90, 65, 86, 60, 86, 19, 46, 17, -96, -56, 14, 54, -24, -16, 19, 8, 92, -84, -90, -54, 43, 26, -40, 48, -48, -60, 13, 14, -69, -81, -21, -74, -26, 74, 99, 22, 15, -69, 12, -100, -28, 38, 50, -71, 43, 14, 17, 25, -46, 86, -54, 80, 21, -34, 57, -60, 33, -99, -6, 103, 0, -58, 66, -95, 83, -89, 6, 78, -37, 68, -78, 58, -37, -56, 35, -40, 43, 50, 67, -65, 64, -22, -82, 93, -99, -54}
, {45, -28, 17, -27, 78, 23, -75, 74, -75, 87, -24, 4, 14, -97, -15, 10, 71, -50, -63, -50, -16, 74, 39, 93, -20, 45, -87, 38, 79, -72, 39, 72, -6, 74, 4, -82, 86, -82, 47, 100, 88, -64, -34, -64, -39, 55, -79, 0, -82, -60, 12, -54, 73, -71, 47, 49, -69, -71, -70, -65, 27, -6, -33, -22, -79, 47, 82, 91, 21, -51, 73, 20, -77, -4, -58, -6, 29, 10, 54, 32, 2, 19, 23, -87, -94, -67, 67, -83, -18, 36, -26, 37, 21, 69, 90, -104, 59, 5, 27, -39, -57, 26, 32, -36, 61, -16, -48, -9, -45, 35, 10, 20, -10, 72, 18, -30, -27, 98, 92, 85, -47, -23, -98, 82, -97, 72, -61, -66}
, {2, -51, -43, -95, -14, -75, 36, 77, 29, -6, 13, 53, 82, 56, 35, -39, -12, -53, -69, -41, 65, 70, 76, -74, -17, -37, -87, 103, 25, -75, -13, -111, 72, -26, 34, 21, -18, -26, 26, -95, -44, -36, -95, 37, 45, -45, -19, 69, 77, -82, -79, -87, -94, -15, 42, 80, 81, 8, 9, -82, 20, -3, -56, -64, -36, 3, 87, -98, -18, 35, -70, 61, -80, 38, 14, 59, 16, 18, -57, 49, -9, -82, -19, 81, 67, 62, 38, -83, -39, 62, -20, 11, 2, 54, -44, 49, -57, -7, 26, -69, -72, 48, -25, 74, -86, -72, -67, -24, 98, -62, -95, 60, 74, -53, -12, 13, 83, -27, 37, -35, -25, -7, 66, 60, 11, -77, 45, 47}
, {39, -1, 78, -51, 78, -15, -48, 65, -76, 22, 12, 26, -57, 0, -54, -51, 24, 32, 82, -44, 27, -16, 47, 14, -64, -72, 28, 3, 38, 94, -25, -43, 4, -11, -5, 20, -23, -40, -47, -26, -8, 75, -72, -86, -45, -104, 29, -1, 15, 44, 33, -66, -38, 67, 92, 35, 60, -69, -44, -81, -3, -32, 31, -69, 37, -70, 19, 70, 32, -42, -32, 67, 50, -6, -82, 2, 95, -100, -75, 4, -97, -8, -78, -13, 31, -90, -13, -68, -35, 111, 82, 63, -42, 59, -15, 27, -30, -83, -18, 9, 96, 82, 105, 90, -79, -4, 17, -22, 38, 19, -87, -40, -15, -8, -86, -43, -1, 93, -55, 35, 29, -12, 91, -75, 68, -16, 0, 98}
, {19, 0, 48, 6, 88, 54, 46, 9, -29, 72, 87, 37, -95, 70, 19, 69, 57, -62, 33, 82, -13, -42, 75, 48, -88, 74, -16, -56, 31, 40, -80, 3, -80, 37, -86, -32, -51, 53, -8, -100, 22, -14, -27, -34, -1, 21, 57, -67, -20, 27, -70, 6, 2, -84, 28, -98, 4, -56, -53, -18, 86, -18, 21, -5, 77, -63, -1, 90, -75, -79, 71, 69, 81, -53, -6, 87, 64, -22, 61, 87, 27, 22, -50, -88, -64, -93, 78, 78, 41, -36, 0, -89, -8, 40, 5, -62, -50, 31, 18, -90, 0, -49, 31, 33, -57, -5, -20, -19, -1, -90, -26, 54, 27, 39, -62, -44, -35, -31, 88, -18, 46, 41, -82, -19, -17, 70, 68, -45}
, {72, 21, -95, -62, 37, 40, -50, -67, -31, 24, 25, 37, 4, 40, -27, 30, 78, -29, -76, -52, -10, 48, 79, -59, 46, 63, -3, 96, 40, -20, 83, -86, 54, 60, -55, 25, -76, -58, -5, 99, -37, 75, 88, -45, -53, -40, -70, 10, 33, 4, -14, -5, 27, -38, 34, 94, -95, 43, -95, 27, 64, 42, -99, -44, 16, -76, -69, -64, 55, -74, -94, -88, 18, -14, 0, 89, 15, -29, 32, -97, 15, 16, -13, 71, -70, 90, -21, -84, -12, 30, -99, -8, -42, 55, 69, -23, 75, 24, -2, -58, -96, -88, 53, 48, -24, 78, 57, -20, -46, 6, -91, -102, -102, 69, -33, -37, 7, 28, 56, -19, 67, 46, -82, 20, -78, -39, -22, 86}
, {15, -34, 51, 73, -81, -63, 17, -55, 0, -44, -74, 33, 72, -29, -54, -68, 0, 35, 20, -45, -101, 55, -5, 33, 23, -53, 30, 21, -38, 66, 15, 56, -78, -29, -80, -18, 54, -19, 92, -27, -54, -39, 67, -20, 73, -34, -73, -15, -94, -55, 5, -23, -53, -99, 7, -52, -51, -41, 21, -32, -79, 85, -4, 41, 42, -67, 21, 8, 37, 26, 14, 100, -46, 27, -81, -44, 104, 3, -68, 91, 74, -68, -35, 73, -17, -87, -36, 87, 87, -37, 47, 42, -24, -81, -53, -2, -73, 101, 42, -69, 21, -6, -68, 28, 59, -21, 1, 49, 4, -56, 9, -55, 43, -91, 35, 49, 46, -13, 12, 84, 4, 84, 59, -97, 45, 34, 55, -27}
, {86, 42, -45, 87, -55, 75, -65, 79, 58, 25, 58, -106, -71, -53, -58, -34, -67, 6, 40, -48, -49, -6, 55, -78, 72, 22, 9, 54, 99, 11, 31, 82, -57, -13, 78, 46, 69, -75, -86, -54, 94, 59, 69, 31, 20, -90, -79, 26, -113, 59, 66, -112, 54, -91, 26, 56, -90, -8, 36, -15, 17, -90, 50, -33, -95, -3, -41, -107, 6, 64, -42, 92, -35, 88, -79, -47, 21, -24, 93, 41, 12, 34, -11, 13, 21, 74, 25, -41, -84, 53, 0, -43, -70, -84, 21, 69, -80, 0, -89, -49, 19, -82, -22, 100, 81, 31, -55, 67, 73, 24, -99, 93, -35, -78, -47, 47, 65, 4, -15, -67, -76, -47, -10, 72, -41, 11, 119, 96}
, {-5, -48, 122, 38, 64, 7, 2, 57, 39, -106, 58, 74, 31, 33, -55, 19, 79, -47, 12, -37, -47, -63, -31, 39, -27, 69, 51, -44, 12, 49, 22, -2, -56, 0, 45, -50, -73, 58, -113, -100, -97, 86, 25, -90, 25, 83, -13, 13, 36, 46, 53, 111, 97, -31, -88, -14, -31, 23, 0, -84, 52, -1, -30, -9, -11, 88, -40, 85, -59, 18, 60, 23, 11, -89, 0, -78, 34, -14, -29, 4, -15, -19, 78, 29, -71, 26, -61, 81, -33, 29, 97, 28, -87, -33, 50, -11, 8, 60, 113, -34, -3, 98, -84, 14, 52, -76, 37, -55, -86, -59, 62, -81, 17, -63, 29, 94, 0, 61, 9, 18, -46, 35, -75, -33, 54, -25, -54, 73}
, {55, -19, -44, 24, -20, -22, -26, -6, -13, -24, 82, -75, -70, -97, 51, 72, -33, -64, 102, -85, 64, -9, -33, 50, 41, 76, -20, 1, -67, -54, 83, -87, 8, -28, 9, 6, -66, -57, -11, -25, -70, -72, -29, -9, 31, 75, -69, 40, 48, 54, 37, -49, -91, 40, 85, -36, 5, 45, -18, -23, 34, 9, -22, -53, -30, 97, -64, 96, -14, -28, 33, -13, -93, -64, -117, 63, 31, 77, 52, -17, 89, -74, -27, -10, -51, 75, -14, 76, -31, -70, 2, -40, 98, 82, 92, 57, -65, -7, 17, 75, -33, -3, -3, -97, 93, -25, -24, -12, -62, -93, -20, 23, 50, -87, -72, 34, -21, -47, 80, -91, -6, 47, 55, -95, -70, 15, -67, 31}
, {-90, -37, -28, 95, 75, 43, 73, 12, -60, 12, -3, -1, -31, 92, 28, -32, -28, 5, 15, -74, -69, 54, 79, -71, 43, -61, 14, 84, 24, 53, -3, 54, 64, 81, -26, 35, -88, -74, 60, -18, -6, 2, -79, 32, -77, -56, -66, -13, 33, 58, 58, 71, 58, 100, -70, -46, -69, 82, 90, -3, -29, -6, 78, -50, -59, -69, 30, 31, -94, 24, -66, 41, -80, -81, 20, 10, -59, -49, 55, -95, -92, 82, -13, -5, 62, 37, -62, -56, -75, 60, 41, 29, 12, -56, -33, 83, -40, -17, -90, 109, 54, 113, -95, -36, -51, -48, -32, -90, -74, 72, 0, -7, 2, -44, 1, -56, -85, 90, -97, -86, -39, 86, 51, 23, 84, -63, -38, -16}
, {-29, 20, -71, -18, 32, 83, 23, -52, 62, 29, -28, 29, 23, 97, 74, -45, -19, 0, 76, -85, 91, 37, 32, -46, -28, -105, 90, -6, 30, -22, -57, 1, 25, -67, -55, -97, -14, -64, 18, 53, 8, -76, 72, -95, 62, 82, 65, 100, -70, 34, -50, -19, 66, -35, 83, 86, 40, -3, -47, 6, 79, 45, 31, -42, 51, 85, -89, 16, -86, 40, -59, -70, 58, 18, -55, 34, -77, -88, -3, 76, -72, 31, 73, 32, 68, 61, 0, -52, 57, 43, 55, 42, -89, 21, -73, -9, 45, 37, -46, 32, 8, 15, -10, 45, -105, 37, 89, 44, 0, -70, 87, -28, -72, 70, -32, -73, -102, -52, -18, 24, -56, 19, 10, -57, 30, -22, 14, 66}
, {-91, 40, 12, 3, 30, -27, 8, 1, 67, -24, -24, -58, -48, -54, -94, 37, -49, 38, 60, -92, -72, 106, -3, 76, -46, 20, 0, -50, -75, 74, -55, -74, 26, 29, 49, 15, -81, 67, -47, -42, -41, 79, -14, 50, 90, -23, 38, 59, 72, 16, 78, -17, -34, 72, -24, -30, -43, -43, -4, -52, -31, -88, 15, -70, 97, 4, 10, -17, -70, -83, 16, -119, -23, 104, 62, 23, -109, 94, 44, -62, 44, -69, 100, -82, -53, 99, 47, -90, 59, 53, 12, -38, 0, 38, 58, -41, 60, 66, -73, 0, -5, 44, 37, -36, 66, 41, -60, -55, -77, -17, -59, 51, 12, -34, -33, 55, -56, -2, 64, -75, -5, 61, 19, -51, -27, 55, -3, -39}
, {86, 35, 27, 81, -1, 19, -42, -12, -80, -72, 18, 74, 59, -24, -89, -93, 2, 78, 48, 75, 1, 103, 41, 37, -12, 20, 89, 43, -32, 96, -30, -63, -83, 80, 4, 10, 39, 84, -82, -77, 33, -64, -72, -101, -67, 26, -26, 17, 2, -45, 72, 10, 100, 65, 90, 62, -44, 24, -6, 85, 5, -51, -2, -9, 61, 26, 71, -80, 101, 7, 44, -12, -25, 5, 53, 18, 55, 7, 2, 84, 26, -59, 31, -53, -40, 57, -14, -7, 32, 37, -52, -32, -82, -77, 73, -39, -79, -33, 2, 55, 58, -45, -53, -73, -40, -5, 17, 1, -74, 94, 77, 24, 72, -10, -71, 31, 30, -65, -58, -91, 11, 84, 78, 69, 34, 2, -18, -76}
, {-33, -75, -38, -74, 42, -76, -71, -15, 37, -51, -6, 26, -75, -23, 29, -46, -101, 55, 91, 90, -22, -20, -3, -92, -20, 79, -72, -53, -34, -38, 70, -68, -49, -62, -59, 68, 37, 74, 82, 69, -57, 36, -15, 38, -96, 8, -13, 20, 41, -86, -62, 87, 63, -12, -74, 81, 13, 11, 95, -96, 76, -8, 75, -21, 59, 77, 0, -51, -40, 4, -59, 72, -46, -19, -21, 55, -58, 63, 55, 21, 69, 9, -7, -92, 32, 80, 36, -54, -44, 16, -90, -8, -82, 84, 2, -25, 19, -5, -45, 29, 47, -44, -66, 17, 2, 56, 12, -15, 37, -50, -12, 1, 54, -92, -62, -62, -59, -4, -111, -18, -97, 31, 23, -70, -3, -18, 80, 64}
, {-41, 7, 82, 59, -3, -48, -22, 33, -94, -76, -58, -69, -47, 82, 0, 47, 5, -11, 82, -75, -59, -58, 72, -11, 32, 29, -1, 8, -3, 68, -60, 70, 71, -28, 18, -9, -101, -89, 35, 26, 66, 59, 56, -86, -67, 74, 63, -40, 39, 29, 51, 29, 22, 2, -22, 20, -79, 75, 32, 27, 29, 40, -46, -36, -33, 1, 22, 42, -97, -85, 45, -96, -6, -12, -54, -67, 106, -97, -47, -61, 88, 7, -5, 70, 92, 83, -13, -2, 39, 49, -11, -35, 16, 5, 75, -86, 75, -36, -94, 20, -29, 83, -26, 40, -72, 51, -71, 18, 77, -35, 34, -86, 19, -10, 43, 67, 66, 6, -12, -3, 32, 0, -45, -62, 109, 2, 26, 9}
, {-62, -66, -44, -30, 1, 68, 48, 19, 50, 4, 43, 78, 36, -73, -47, -54, -87, 59, 38, -79, -56, -8, -36, -70, 52, -78, 52, -70, 72, 69, -89, -51, -69, -17, 5, -29, 84, 20, -52, -17, -71, 27, 24, -32, 65, -81, 47, -30, -100, -47, -4, -34, -21, -89, 28, 15, 90, 40, 89, 24, -92, 7, -78, 10, -6, -52, -98, -30, 11, 54, 47, -50, -13, 54, 35, 2, 74, -21, -98, -67, -39, -58, 28, 16, -49, -66, 66, -77, 94, -56, -44, 70, -54, 75, -51, 31, 70, 85, -55, -91, 22, 49, 72, 33, -21, -33, -50, -64, 32, 82, -56, 54, 97, 17, -29, 64, 68, 42, -2, 61, -11, -81, 58, -42, -44, 5, 33, 65}
}
;

#undef INPUT_SAMPLES
#undef FC_UNITS