/**
  ******************************************************************************
  * @file    weights/fc.cc
  * @author  Pierre-Emmanuel Novac <penovac@unice.fr>, LEAT, CNRS, Université Côte d'Azur, France
  * @version 1.0.0
  * @date    24 march 2020
  * @brief   Template generating plain C code for the implementation of Convolutional Neural Networks on MCU
  */

#define INPUT_SAMPLES 128
#define FC_UNITS 40


const int16_t dense_26_bias[FC_UNITS] = {2, -1, 8, 2, 0, -7, -16, -7, -1, -4, 3, 1, -14, 11, -21, 11, 14, -12, -21, -19, 8, -1, 7, 12, -15, -13, 4, -2, 19, 7, 0, -4, 0, 0, -3, -14, -7, -5, -2, -3}
;

const int16_t dense_26_kernel[FC_UNITS][INPUT_SAMPLES] = {{2, -4, -73, -21, 17, -65, 105, 15, -85, -90, -72, -81, -86, 7, -19, 50, 20, -12, -22, -21, -62, 90, -32, 35, -44, 48, -26, -92, 24, 3, 97, 26, 100, 103, -54, -45, 0, 59, 86, -83, 18, -33, -83, 26, -61, 56, 69, -26, -41, 68, -61, -4, 41, 89, 40, 57, 88, -67, 67, 85, -65, 51, -8, 67, 62, -62, -74, 85, 86, 94, 65, 79, 101, -53, 70, -60, -83, 26, 44, 91, 29, 6, -77, 50, 98, 61, 13, -72, -3, -37, 27, 52, 62, -88, -20, -97, -50, -26, -78, -52, -88, 40, 16, -8, -19, 16, -91, 85, 86, -44, -1, 9, 6, -48, 19, 27, 22, -81, -38, 28, 50, 51, -72, -1, -61, 64, 83, -24}
, {-85, -79, 90, -85, -39, -65, 82, 52, 76, -66, -102, 81, -39, -61, 11, 83, 30, -98, -64, -33, 17, 12, -14, 74, -40, -45, -83, -36, -6, -30, 44, -34, -75, 77, 99, 60, -21, 1, -12, 4, 82, 42, -6, -17, -71, 11, 62, -71, 59, -33, 62, 32, 4, -50, 72, -35, 35, -82, -69, -36, 77, 18, 1, 5, -17, 74, 48, 97, -21, -2, -82, 0, 1, -46, -41, 88, -22, 9, 60, -77, -38, -47, 91, -45, 54, 103, -59, 25, 5, -78, -90, 44, 33, -10, 23, -88, 1, 28, 29, 58, 70, 72, 24, 1, 74, 41, -24, 25, 37, -56, -80, -5, -20, -110, -51, -89, 65, 67, 60, 69, -40, -17, -52, -8, 32, 54, -65, 60}
, {40, 45, 15, 81, -20, -17, -102, -21, 90, 119, -25, -30, -69, 91, 56, 18, -35, -38, -74, 42, -21, 17, -19, 48, -92, 12, 37, 75, -90, -73, -74, -80, -49, -94, -79, -6, -76, 77, -17, 56, -25, 69, 3, -6, -93, 49, 51, 81, 23, 23, -20, -74, -72, 61, 5, 60, 21, -45, -50, -69, 3, -48, 19, -10, 81, -25, 86, 58, -67, 84, -45, 40, -90, 6, 45, -19, 90, -80, -51, 73, 6, 7, 48, -18, -51, -66, 0, -8, -70, 33, -4, -100, -23, 8, -81, 35, -99, -28, 68, -84, 13, -63, -93, 67, -29, 86, 76, -21, 60, -80, 60, -34, -9, -102, -19, 44, 95, -38, 33, 68, -8, -66, 65, 82, -44, 79, 70, 51}
, {107, -7, -62, 85, 37, -100, -22, 53, 20, 62, -15, 62, 75, 43, -72, 35, 92, -50, 62, -82, -54, -95, 79, 46, -86, 50, -75, 68, -24, 32, 59, 15, 39, 33, -74, 17, -49, 0, -28, -82, 26, 13, -112, 22, 1, -81, -79, -26, 4, 50, 40, -31, -58, 4, 54, 1, 7, -35, 17, -90, -77, 51, -50, 39, 75, 13, 57, -54, -59, -61, 69, -72, 67, -13, 11, 28, 35, -11, -91, -39, -1, -74, -6, -98, -41, -53, -54, -89, -91, 93, -59, 5, 82, 62, 2, 20, 32, -78, -14, 29, 56, 78, -30, -23, -81, 54, -38, -68, 67, -15, -85, 41, -7, 81, 3, 77, -45, 43, -5, -56, 44, 52, 38, 90, 55, -63, 69, 95}
, {45, -56, -23, -52, 100, 86, 75, -40, -22, 105, -18, 85, 50, 21, -99, 19, 88, -95, 80, 28, 35, -56, 29, -1, -56, 27, 21, 2, -8, 79, 11, -10, 47, 52, 42, 33, -77, -29, -53, -20, -45, 86, 60, 9, 6, 26, -84, 8, 22, 41, -30, -33, -59, -51, -20, 107, -18, -96, 72, -31, 127, 48, -38, 61, 83, 19, 48, 56, 75, -86, -62, -94, -106, 20, -7, 60, -8, 81, -41, 34, -28, -93, -90, 89, -67, 106, -50, 25, 44, -14, 6, -77, 41, 90, 18, -72, 44, -71, -10, 0, -14, -98, 74, -39, -8, 18, -23, -38, 8, 50, -44, -92, -9, -76, 63, -52, 27, 53, -90, 44, -43, -98, 47, -99, -74, -91, 43, 85}
, {-108, -103, -94, 13, 31, 8, 51, -40, -56, -11, 28, 99, -3, 0, -40, 83, -39, -67, -66, -43, 26, -43, -58, -35, -65, 53, 4, -90, 65, 85, -99, -42, -61, 81, 47, 87, -8, 8, -30, 47, -15, 89, -31, -57, 10, -88, -5, -46, -52, 33, 29, 83, 58, 65, -105, 90, 26, -5, 0, 28, 7, -22, 8, -95, 29, 94, -46, -11, -44, 66, -93, -23, 32, -82, -88, -95, -81, -78, 80, -11, 0, 8, -49, 15, -63, -75, -52, 49, 37, -86, 51, 7, 104, -79, 84, 68, 14, 5, -91, -1, -69, 85, -62, 7, 31, 71, -2, -93, -41, 98, 104, 62, -40, -76, -105, 45, 32, -6, -6, 55, -38, -20, 8, -74, 3, 84, -21, -5}
, {0, -15, -48, -57, 97, 8, 21, 6, -59, 37, -59, -22, 4, 5, 95, 55, 1, 33, -19, -27, -1, 98, -89, 59, 25, -52, -56, 64, -72, 11, 80, 96, -58, -80, -6, 83, 87, 92, 34, 9, 34, 15, 31, 53, 17, 34, 27, 42, -45, 2, 58, 76, 25, 17, -17, 53, -87, -28, 30, -90, 81, 49, -86, 82, 3, -90, -15, 9, -49, 7, -68, -20, 73, -8, -74, -42, 98, -14, -65, 65, -81, 50, 92, -23, -6, -4, -77, -68, 78, -20, 4, -31, 26, 39, -99, -60, 58, -29, 68, 75, 61, -39, -86, 49, -19, -56, -71, -4, -31, -19, 86, 84, -74, 8, -49, -58, -21, -32, 10, 79, 44, 77, 41, 93, -44, -44, -54, -5}
, {65, 73, -66, -28, -96, 91, 1, -113, 17, -42, -123, 83, 42, 41, 94, 70, -77, -83, 73, 78, -92, 93, -72, 4, 2, 87, -2, -36, -80, -69, -22, 68, -23, 80, 7, -70, -61, 35, -58, 0, -72, -25, 12, -48, 48, 84, -94, -96, -54, 9, 96, -73, -34, 46, 78, 62, -44, 43, -91, 54, 12, -11, 75, 66, -90, -15, -6, 15, -15, -24, 31, -14, 44, -24, 21, -87, 49, 47, 1, -62, 96, 83, -35, -87, -53, 99, 44, 55, -53, -73, 66, -14, -75, -62, 66, -84, 19, -95, -49, 62, 65, -1, 88, -52, -9, -8, -39, 41, 35, -105, -49, 28, 48, -27, -93, 24, -45, -34, -25, -58, -4, 32, -14, 92, 3, 54, -73, -62}
, {-41, -1, -42, 74, 57, -51, 0, -58, -89, 87, -14, 82, 69, -64, -46, -48, 63, 32, -25, -32, -95, -95, 21, -75, 77, -45, -19, 43, -48, -87, 8, 98, 42, -84, 27, -97, -14, -35, 47, -62, -52, 27, 7, -45, 41, 17, -12, 61, -29, -73, 34, 77, 52, -57, 9, 41, 80, -22, 79, -55, 0, -66, -51, 42, -19, 62, 63, -67, -69, -37, 77, -84, 71, 35, 49, -93, 99, -66, -64, -10, -22, 28, -36, 14, 74, 50, -60, -67, 44, -72, -11, -47, -97, -89, -34, 27, -28, 96, -62, -74, 24, 10, 60, -95, -83, -54, -100, -23, 64, -72, 28, -45, 92, -95, 17, -18, -47, 72, 73, -80, -51, -29, 43, 24, 62, -79, 85, -49}
, {-38, -89, 22, -11, -36, 68, -105, 90, -78, 104, 13, 75, -66, 95, 83, 1, -59, -33, -14, -53, 59, -18, -49, -34, -2, 8, -77, 33, -61, -39, 1, -26, -40, -61, 80, -59, 46, 70, 95, -78, 29, -5, 1, -72, -3, 66, 98, 48, -8, 40, -48, -78, -68, 88, 70, -58, -38, 12, 96, -2, -59, -3, -82, 81, -82, 92, 28, 80, 90, 33, -50, 20, 45, 56, 49, 35, 68, 66, -36, -10, 43, -78, 92, 0, 35, -77, 86, -85, 58, 19, 37, 6, 47, -63, -85, 33, -78, 66, -76, 51, 0, -72, 17, 92, 73, 11, 37, -40, 82, 45, 0, -41, -27, 75, -45, -94, -76, -49, 52, 27, -82, 65, -77, 70, -77, 8, 56, -41}
, {12, 56, -46, 17, 4, 47, -66, -100, -70, -30, 71, -58, -18, -39, 64, 2, 77, -2, -9, 32, -85, 73, 23, 59, 29, 101, 103, -73, -10, 84, 63, 10, -19, -92, 84, -62, -28, 88, 11, 58, -15, 55, -80, 53, 107, -56, 37, -66, 44, 21, 17, -96, 24, -50, 22, 59, 83, -83, -28, 60, -34, 30, -74, 62, 55, -82, -27, -50, 18, 39, 38, 78, 56, 43, -54, 44, 82, 88, -49, -1, 0, 39, 2, 2, -53, 5, -6, 10, 49, -38, -24, -46, -64, -68, 66, -31, -100, 25, 74, 45, -81, -30, -37, -17, 30, -25, 72, 91, 90, -96, -29, -23, 26, -46, -56, 79, 51, 32, -54, -82, -26, -22, -20, -69, 55, 5, 87, 9}
, {44, 38, 47, -49, 31, 84, 63, -94, 75, -65, -60, -35, 17, 100, 36, 44, -75, -37, 47, 77, -71, 11, -52, 14, -74, -81, -50, -45, -93, -58, 17, -104, 102, -4, 18, -37, 91, -81, 1, 68, 52, -2, 70, -67, 7, -92, -66, -20, 22, -46, 67, -27, 88, -76, -13, 84, 84, 74, -11, 10, -80, -58, 74, 80, -31, 108, -93, -94, -2, -7, 62, 58, 1, 100, -32, -92, -98, 40, -44, -95, -82, -37, -61, 38, 87, 78, -47, -60, -21, 99, -3, 44, -7, 7, 29, -40, 64, 61, -95, 57, 50, 54, -81, -2, 5, 5, -17, 8, -90, -33, 107, -24, -57, 89, -7, 36, -17, -89, -83, 14, 10, 0, 82, 60, -92, 100, 90, -72}
, {85, 34, 91, -48, 75, -73, 98, -6, -80, 34, -97, 81, 73, -54, 86, 16, 59, -33, -17, -34, 53, -24, 57, 47, -92, -77, -85, -56, 84, -80, 48, -37, 56, 97, 2, -71, 73, 10, 28, 76, 96, 9, -5, 17, -39, 7, 54, -81, 39, 4, 5, 38, 28, -28, 93, -12, -17, -53, -10, 82, -114, -50, 87, -81, -87, 104, 5, -56, -35, 31, 68, -35, 33, 90, -69, -25, -83, 20, 20, 34, -33, -19, -21, -37, 4, 84, -65, 12, 41, -75, -74, -16, 60, -68, -82, -9, -60, -25, -7, -37, 22, -36, 66, 84, -96, -77, 40, 93, 58, -80, 67, 101, -91, -87, -44, 18, -26, -62, 91, -76, 16, 59, -96, -52, -48, -51, -71, -73}
, {71, 47, 40, -64, -95, -83, 76, 2, 84, 31, 22, -95, -36, 30, 53, 44, 52, -61, -2, -19, -80, -26, -27, -37, 79, 1, 16, -16, -83, 85, 83, -8, -53, 16, 24, -1, 77, -107, 75, 51, 17, 69, -42, -83, -96, -1, 68, -55, 43, 20, 91, -30, -85, -52, 74, 61, -22, 93, 35, -10, -66, -51, 24, 53, -75, -9, 80, 5, 47, -75, -28, -82, -56, -70, 55, -55, -52, -65, -11, 20, 28, 75, 110, -44, 80, -92, -8, 37, -42, 77, 30, -37, -92, -7, -40, 88, 52, -66, -6, 84, 99, 18, 0, 73, -78, 87, 43, 31, 24, 80, 80, -36, 53, -72, -8, -55, -78, -25, 15, -31, 68, -63, 10, -7, -71, -76, -71, -95}
, {77, -89, -80, 73, -81, -15, -35, -19, -24, 29, -11, -72, 36, -56, -56, 20, 105, -6, -52, -37, 0, 7, 34, -5, -62, -86, -77, 67, -74, 2, -119, 38, -105, 75, 83, -92, 23, 107, 50, -86, 76, 66, -44, 23, -102, -74, -61, -55, -77, 50, 34, -60, 98, 40, -54, 54, -61, -42, 50, 82, 63, -92, 16, -30, -24, -102, -11, -53, 73, 74, -9, 45, -42, -36, 85, -80, -10, 85, -59, -74, 11, 75, -3, 1, -79, 93, 23, 8, -86, -33, 42, 65, -107, 42, 68, 18, 78, 1, 2, 98, -98, -73, -31, 72, 28, -6, -57, -28, 78, -89, -8, 3, -57, 86, -87, 12, 84, 96, 72, -80, 46, 89, 18, 66, -49, -52, -121, -52}
, {86, -103, 35, 29, 53, 57, 44, 116, 10, -46, 71, 28, 111, -19, 68, 100, 72, 71, 5, -89, -89, 49, 54, -105, -51, 5, 96, -70, -94, 48, -108, -77, 43, -20, 85, -2, 63, 15, 68, -100, 38, 26, -97, 94, -5, -60, -66, 105, 21, 58, -20, 30, 86, -57, 103, 24, -69, -9, 101, -57, 40, -98, 17, 72, 66, -100, 26, 8, 23, 74, -4, 77, -91, 15, 95, -5, 31, 5, -84, 57, 42, -5, -20, 7, -93, -13, -49, -68, -40, -56, 9, -62, -8, 68, -94, -12, -37, 87, 18, 79, -67, 83, 64, -13, -58, -41, 49, 12, 16, -21, 34, 40, 67, 54, 22, 66, 28, 100, -42, -80, 2, 0, -71, -73, 88, -57, 25, -80}
, {-8, -65, 0, 24, -86, 48, 47, -34, -79, -45, -81, -65, -27, 54, 42, -35, 27, 73, -80, 69, -73, -94, 6, 31, 32, -77, -28, 33, 69, 32, -58, 7, 61, -88, 95, 11, -70, 82, 41, 88, -18, 100, 62, 19, -85, -19, 95, -55, -61, 68, -75, -11, 0, 21, 42, -24, 92, 30, 32, 32, -88, -71, 75, 29, -7, -23, -36, 64, 34, -53, 74, -16, -80, -29, 92, -21, 39, 0, 97, 21, 69, -67, 59, 1, -19, -26, 54, 41, -82, -84, -58, 58, -19, -35, -60, -57, 76, -65, -39, -84, 85, 10, -70, 49, 67, -47, 33, 61, -81, 102, 57, -31, 80, 32, -52, 8, 56, 78, -24, 2, 74, -62, -48, -91, -57, 71, 49, -42}
, {-71, 44, -89, 78, 12, 34, -47, 51, -31, -23, -4, 57, -9, 103, 34, 79, -28, -41, 102, 37, 74, 10, -53, 80, 72, -66, 51, -54, 108, -70, -76, 107, 40, 16, -41, -1, 90, 79, -23, 32, -41, 59, -58, 65, -62, -7, -19, 76, -74, 6, 69, 23, -75, 7, -30, 86, 9, 81, -52, 72, -14, -37, -99, -56, 53, 9, 28, -27, -77, 66, 44, 66, 74, -36, 13, 80, -23, -8, -62, -44, 95, -89, -73, -78, 13, 39, -78, -10, 5, 65, -86, 60, -19, -75, -46, -11, 12, -64, 61, 39, -83, 30, 50, 30, 33, -84, 39, 11, -77, 44, 64, 77, 19, 76, -61, -15, -8, -60, -95, -30, 14, 43, -73, 55, 10, 42, 25, 9}
, {85, 5, 36, -30, 94, 43, -17, -43, 43, 85, -11, -33, 54, 7, -1, -53, 40, -13, -36, -89, 94, -90, 83, -68, -23, -49, -10, -6, -8, 64, 11, 88, -87, 45, -79, 39, -89, 80, 46, -56, -43, 39, 6, 70, 25, -97, -71, -13, 77, 41, 91, 64, 29, 85, 17, 69, 45, 74, -48, -32, 52, 82, -52, -61, 59, 48, 12, -56, 53, 60, 24, -69, 18, -86, 19, 84, -14, 24, 74, -41, -50, -40, 17, 68, 57, 5, 52, 65, -86, -41, -31, -7, -24, 31, -9, -66, 41, 25, -35, 52, -12, -16, -125, -45, -22, -29, 87, 28, 52, -74, -30, -42, 64, 119, -26, -9, -69, -27, -54, -10, 42, 80, 19, -39, -83, 83, 7, 60}
, {38, 41, 26, -81, -10, 51, -32, -30, -80, 48, -39, 0, -105, -44, -29, -94, -97, -67, -42, 56, 23, 8, -77, 25, 85, 2, -98, -61, -98, -81, 13, 46, 3, 78, -93, 11, 98, 81, -19, 41, 27, 89, 95, 85, 47, -5, 84, 26, -7, 10, -37, -29, -49, -82, 60, 55, 91, 43, 36, 51, 53, -80, 91, 30, 39, -62, -75, 78, -91, -52, 18, 11, 33, 0, 26, -87, -31, -17, -45, 31, 25, 48, 40, 18, -19, -64, -10, -10, 34, 48, -24, -56, -92, 44, 49, -68, 97, -92, -5, 76, -8, 7, -102, 39, 27, 39, -70, -85, -40, -4, 37, -81, 62, 91, -29, 0, 24, 82, -61, -6, 44, 97, -71, -76, -1, 111, -51, 47}
, {75, 21, 93, 63, -51, -19, -42, 26, -102, 26, 90, 0, -15, 18, -14, -22, -26, 53, -105, 35, -55, -61, -66, 76, 86, 43, -47, -16, -59, 66, -37, -107, -20, 40, -27, 13, -27, -3, -3, 26, -50, -43, 42, -36, 28, 75, 46, -65, -76, 80, 75, 35, -105, -31, -45, 76, -94, 34, 23, -96, 115, 36, -18, -41, 40, -41, -27, 20, -36, 56, 59, -93, 21, -23, 14, 61, -59, 74, -94, -95, -110, 11, 13, -17, -18, 22, 22, -98, -4, 112, 91, -69, 71, -10, 56, -73, 70, 103, 66, -28, 52, 90, -21, -71, -37, 12, 92, -29, 91, -103, 61, 13, -32, 24, 72, -42, 12, -73, 77, -79, -99, -18, 84, -106, -14, 77, 7, 28}
, {-9, -40, -28, 54, -36, -55, -21, -43, 20, -47, 77, 79, -98, -34, -75, -22, -45, 82, -49, 101, 12, 34, 86, -63, 20, 68, 105, -65, 72, 15, 99, -19, 63, -42, -100, -43, -101, 44, -4, -70, -70, -55, -75, 73, -59, -15, -24, 46, 73, 78, 74, -79, -21, -68, -34, 15, -95, -34, -48, -99, 77, 12, -66, 40, -47, -34, -4, 0, 27, 80, -31, -6, -88, 56, 0, 87, -69, 67, 63, 86, -76, 61, 97, 75, 7, -105, -91, 0, 61, 75, 46, -7, 18, -69, 84, -58, -14, 84, 52, 80, -56, 64, -104, -83, -73, 82, -77, -28, 51, -94, -55, 6, 24, 81, -46, 18, 77, -43, -77, 53, -38, 8, -88, -9, -29, -4, -23, 36}
, {12, -18, -38, 55, 56, 65, -42, 99, 49, 26, -101, 11, 58, -101, 65, 22, -48, -79, -53, -55, -91, -54, -39, 30, -67, 5, 18, 0, -100, -78, -12, -1, 50, -13, -83, 80, -39, 85, 57, 28, 5, 24, -22, -7, -51, -107, -39, -62, 18, -53, 56, -97, 85, -58, 23, 73, -45, -69, 60, -42, -109, 90, -6, -80, -18, 14, 6, 37, -79, 76, -73, 33, 17, 23, 86, 16, 92, 30, 10, 105, 51, -19, 78, -76, -3, -70, 27, -70, 96, -63, 46, -62, -51, -105, -108, -74, -77, -90, 10, -34, 16, 28, -51, -69, -17, 25, -22, -48, -33, 35, -62, -47, 98, 32, -9, 32, 28, -2, -16, 50, -71, -67, -71, 34, 14, -38, -74, -48}
, {79, -45, 0, 2, 22, -40, -27, -6, -62, -91, -26, -22, -36, -36, -60, -4, -77, 1, -12, -50, 10, -27, -71, 87, -61, 17, -16, -30, 83, -50, -65, 10, 51, -42, 18, -71, -33, -54, -9, -59, -68, -19, 34, 89, -41, 57, -65, -53, 86, -46, 110, -31, -30, 45, 67, -26, 86, 41, -13, -88, 80, 33, 68, -47, -34, 24, 21, -17, -43, -68, -19, 55, 73, -71, -98, 75, 69, 90, 92, 20, -7, -47, -96, 72, -39, 80, 45, -59, -59, 87, 85, 84, -55, -17, -6, -39, 80, 0, 87, -42, 11, 90, -40, 7, 23, -56, -42, 85, -92, 3, 32, 2, 74, 93, -73, 43, 55, 88, 92, -16, 71, 65, -78, -82, 86, -88, -27, 51}
, {77, -31, -23, 26, -40, 84, 10, -54, 18, -103, 31, 76, 109, -44, -48, 90, 87, 91, 49, -39, -42, -21, -62, 84, 36, 73, -59, -82, 60, -81, 75, -55, 87, -55, 88, 69, 65, 77, 84, -11, 55, 8, -29, -42, 53, -47, -30, -98, 32, 95, 86, 71, 6, -74, -54, 100, -90, -15, -60, -36, 67, 96, -50, -65, 30, -92, -24, -16, -10, -56, -22, 4, -52, -16, 52, -94, -54, 15, 13, 7, -96, -16, -12, -20, -80, -17, 78, -32, -68, 2, 44, 46, 59, -95, 48, 23, 80, -53, -47, 66, -90, 87, 81, -66, 20, 6, 93, 39, -94, -24, 24, 10, 18, 89, 23, -20, 26, -46, 5, -71, 73, 72, -50, 14, 82, -76, -9, 77}
, {8, 34, -67, -80, 64, 64, 117, -73, -11, 76, -52, -41, 17, 36, -54, 46, 49, -90, 86, 47, -60, 62, 95, 25, -55, -27, 13, -88, -92, -63, -67, 105, -106, -66, -8, 20, -29, 54, -33, 14, -6, -48, 87, 38, 8, 22, -79, -11, 37, 47, 60, 80, -2, 45, 69, -50, 35, 90, -62, 4, -12, 88, -96, -22, -60, 39, 32, -60, -10, -68, 38, 4, 7, 14, -69, -24, 99, -51, -82, -32, -34, 14, 9, 66, -92, 4, -69, -106, 77, -61, -56, 61, -85, 42, -99, -81, 18, -84, 64, -3, 20, 34, 71, 1, -64, 84, -76, -32, 7, 16, -6, 91, 94, 37, -22, -65, -74, -94, 57, 88, -80, 10, 37, 88, 64, 41, 64, 4}
, {-61, 96, -38, 32, 13, 1, 9, -74, 0, -20, 64, -45, -3, -91, -46, 80, 67, -38, 97, -54, 17, 24, -81, 104, -2, -18, 72, 5, 17, 42, 86, -68, 86, 36, -20, 90, 79, 33, 95, -68, 27, -78, -96, -71, 64, 92, -15, 84, -9, 93, 72, 8, -68, 19, 14, -33, 60, 2, 40, 75, 19, 40, 22, 72, 7, -15, 43, 63, -45, -66, -92, 63, -84, 21, 83, -3, -77, 44, -62, 90, 37, 99, -3, -28, -53, 25, 38, 26, 48, -63, -6, 83, 6, -28, -46, 4, 102, -59, -45, -42, -20, 70, -19, -24, -37, -92, -23, 43, 35, 42, 29, 11, 84, 50, -5, 68, 43, -36, -60, -20, -25, 45, 33, -63, 23, -58, 85, -63}
, {67, 0, 97, -53, 69, 66, -105, 30, 96, -75, -35, 71, -24, 16, 59, 61, -23, -88, -31, -10, -58, 63, -78, 74, -49, -6, -25, 15, -88, -81, -101, -30, -53, 70, -67, 54, -18, -41, -93, -52, 21, -28, 67, 9, -2, -96, -87, -71, -37, -12, -70, 30, 86, 94, -106, -7, 89, -56, -44, -62, 4, -41, 55, 52, -94, 8, 44, 19, -53, 37, -47, 21, 73, 61, 5, -28, 76, -46, 91, 9, 102, 73, 75, -97, 53, 25, 35, 16, -78, -86, -24, -44, -10, -95, 77, 45, -105, -7, 31, -90, -79, 38, 12, 6, 95, 26, 5, -28, -44, -44, 87, 98, -85, -54, -27, 31, -21, -29, 84, -12, 2, 79, -87, 39, 45, 30, 83, -78}
, {23, -33, -85, -50, -69, -7, -12, 88, -30, 62, -58, -8, -2, -29, 40, -85, 67, 45, -35, 49, -27, -25, -91, -25, -78, -18, -7, 48, -52, -60, 51, 39, 13, 37, -65, 7, 13, -110, -32, 74, -47, 79, -33, 8, -1, 33, 38, -87, 76, 0, 26, -21, 77, -24, 36, -99, -50, -63, 76, -51, -99, -30, -84, -8, -6, -58, 66, -87, -96, 50, 12, 15, 55, 25, 18, -69, -85, -29, -82, -21, -10, 95, 6, 2, -28, -87, -29, 81, -61, -29, 78, 63, 57, -29, -13, -9, -40, -75, -24, -19, -27, 10, -39, 40, 9, -38, 8, 94, 62, 67, -3, -19, -18, -76, 12, 15, -46, 68, 4, -12, 54, 20, 5, 14, 81, 24, 114, -79}
, {-39, -50, -21, -12, 84, -76, -70, -8, -9, 56, 22, 65, -85, -64, 43, 66, 0, -64, -37, 109, 96, 31, 52, 92, 53, 43, -81, -71, -56, 25, 56, -107, -50, -48, -91, 51, 54, -25, -12, 112, 24, 5, 101, 75, -31, 115, -51, -97, -26, -43, 87, 48, 94, -10, -95, 18, 15, 51, -18, -2, -32, 4, -11, -46, 73, 109, 6, -78, 39, -102, -80, -79, 102, -18, -23, -3, -10, -89, 46, -58, -71, 0, 50, -14, -45, 21, 78, 117, -76, 92, 19, 72, 104, 8, 54, -34, 98, -6, -86, -29, 29, -5, -78, 43, 53, 54, -77, 85, -1, 102, 22, -102, 73, -2, 49, -68, -45, -83, 60, 24, -19, -88, 55, 46, -63, 26, 89, 13}
, {100, 89, 79, 39, 21, -63, 99, 72, -97, 94, -42, -39, -18, 89, 31, -10, -53, 58, -94, 25, -25, -4, 62, 90, -26, -78, 102, 79, -104, 21, 102, 27, 70, -39, -60, 89, -39, 28, 10, 31, 7, 35, 107, -88, -7, -85, -70, -31, 61, 18, 46, 4, -93, -23, 5, -16, 44, 41, 49, 32, -42, -39, 32, 89, 23, -31, 41, -63, -46, -61, 14, -65, 16, -4, -94, -30, 83, -43, -73, 102, -89, 96, -62, 16, -27, -101, -51, -55, -43, 81, 14, -27, -14, -56, -48, -64, 15, -38, 63, 8, 113, 5, -87, -86, -71, -22, -50, -35, 3, -81, 18, 47, 8, 59, 21, 24, 49, -20, -94, -92, 80, 105, 45, 23, 1, 28, -26, -8}
, {-20, -59, -86, -59, -100, 6, 75, 8, 42, 10, -111, -84, 31, -77, -9, 40, 30, -40, -1, -75, -67, 65, -46, -107, 42, 85, 19, 0, -13, 74, -93, -26, -5, -50, 89, -11, 78, -7, 66, -95, -68, 90, -22, 23, -45, -92, -26, -3, 54, 88, -12, -29, 40, 13, 67, 31, -66, 80, -8, 70, 17, 64, -11, -55, -88, -30, 51, 104, 29, 92, 58, 91, -68, -20, 50, -38, -69, 0, -46, 57, 19, 50, 27, -69, 40, 30, -53, -42, 18, 65, 61, 50, 25, -12, -85, 15, 73, -97, -47, 14, -95, 37, 48, 88, -26, 82, 99, 82, -43, -79, -16, 26, 98, -89, -43, -50, 0, -2, 68, -37, 47, -73, 54, 34, -77, -50, -93, 9}
, {66, 77, 61, 80, -35, -54, -33, -116, 14, 75, 63, -90, -24, -49, -4, 35, -88, 71, 65, -48, 74, 44, 63, -1, 52, -54, -77, 58, 27, 41, -12, 57, -94, -91, 72, -81, -11, 66, -49, -1, -41, -29, -18, 107, 81, 42, -11, -17, -39, -66, -49, -52, 49, -61, -79, 18, 30, -81, -82, 64, -27, 84, 82, 90, 63, 63, 36, -49, -66, -56, 46, 8, 84, -49, 86, -72, -65, 10, 62, -15, -22, 26, 26, 58, -88, -26, -21, 27, -96, -7, 10, -11, 4, 21, -28, 9, 10, -28, 48, 54, -78, 60, 74, -12, 53, -26, 32, 30, 43, -109, 51, -39, -50, 80, 38, 74, 1, -5, -22, 89, -64, 67, -24, -64, -48, -34, 62, -39}
, {-96, 14, -47, -12, -75, 22, -54, 98, 8, -87, 3, 17, -33, -7, -48, -23, 71, -53, 99, -57, 4, 32, 71, -37, -22, -32, -96, 84, 81, -6, -59, 59, 32, -55, -28, 62, 99, -12, -38, 93, 91, -39, 47, -18, 24, -42, 29, -16, -95, -50, -5, -78, 89, -3, 8, -59, 47, -69, -58, 41, 69, 91, -51, -47, 1, 69, 93, 13, -87, -38, 9, -39, 83, -9, 38, 31, -66, 46, -75, -56, 17, 44, -26, 65, -2, -14, -36, -40, 44, -10, 45, 26, -52, -53, 100, 78, 52, 49, 62, 72, -71, 57, 66, 92, -27, 67, -62, 18, -31, -58, -48, -23, -28, 17, -32, -39, -64, 59, 46, -27, 1, 35, -55, 36, 78, -24, -58, -49}
, {-4, -86, 93, 69, -59, -85, -15, -63, -46, -63, 6, -23, -78, 31, -4, -16, 21, -70, 86, 77, -12, -70, -71, 18, 44, 5, 81, -10, -58, 65, 99, -68, -57, 21, -61, -64, -17, 88, 30, 17, 9, -91, 7, -53, 64, 19, -22, -31, -78, -78, 91, 81, -38, -95, 4, -97, 55, -41, 43, -83, 55, -55, -74, 64, -48, -33, 4, 7, 4, -41, -83, -25, 91, 80, -58, 3, 90, 26, -38, -40, 8, 51, -11, -81, 41, -74, -93, -43, -27, -5, -56, 81, 42, 85, 37, -73, -10, -40, 44, 55, 64, -75, -43, 59, 68, 24, -54, 77, -7, 87, 87, -78, 48, 26, 41, 41, 72, 45, -78, 63, 50, 20, 24, 20, -71, 86, 59, -84}
, {-44, -85, 66, -19, 5, 6, 57, 101, 41, -54, 76, 61, 24, 31, 58, 36, 27, 40, 3, -121, -56, 55, -39, 8, -46, 50, 55, 56, 6, 92, 2, 27, 22, 26, -90, 9, -80, 91, 56, 19, 24, 64, 64, -76, -17, 16, 30, 58, 5, -32, 36, -4, 50, 5, -53, -38, 44, 92, 43, -51, 42, 94, 89, 0, -51, -73, 91, 97, -34, 95, -82, 58, -37, -85, 26, 19, 18, 33, -24, -62, -72, 8, -24, 57, 7, 32, -11, 68, 6, -106, -38, 92, -70, -93, 85, -1, -34, 83, -100, 59, -4, -18, 57, -53, -91, 7, -12, 9, 8, -92, -71, 81, 47, -71, -76, -5, -94, -31, 83, 23, 47, -83, -32, -44, -28, -38, -108, -60}
, {-63, -94, -7, 88, 12, -75, -34, -22, -16, -15, -44, -20, 84, 62, -90, -21, -20, 94, 92, 60, -71, 29, 82, -83, -50, -60, 44, -49, 20, -88, -25, 15, -54, 10, -27, -49, 77, 9, 0, 64, 10, -4, -15, 8, 102, -28, -47, 3, 56, -30, 15, -81, 18, -50, -76, -36, -3, 17, 58, 68, -26, 10, 19, -31, 54, -45, -7, -86, 12, 12, -94, 60, -74, -5, 70, -59, 9, -53, 91, 73, -94, 23, -11, -92, -80, 39, -3, -10, 64, 76, -58, 96, -9, 66, 1, -97, -38, -52, 73, -79, 43, 52, -62, -33, -27, 39, -40, -95, -88, 35, -42, -61, -35, 55, -74, -12, -60, 23, -34, -85, -51, 68, -5, 90, 89, -58, -89, -77}
, {58, -69, -62, 91, 29, -107, 62, 100, -95, 82, 20, 62, -9, 37, -9, -52, 94, -31, -31, -83, -30, 22, 68, -79, -69, 39, 44, -74, 31, -22, -63, -20, 93, 81, -6, -86, 65, 30, -77, -39, 81, 87, -84, -21, -33, -18, -98, -34, -57, 52, -9, -15, 13, -54, 50, -98, 38, -17, 25, 42, 14, -89, 34, 86, -37, 58, 15, 27, -76, 14, -44, -19, 71, 77, -21, -69, 77, -29, 27, -55, 49, 70, -107, -6, 51, -78, 39, 67, 74, 46, -65, -68, -23, -44, 78, 33, 68, 88, -41, -45, -69, 36, -73, -80, 75, 14, 68, 56, 89, -59, -29, -71, -74, -12, -26, 19, -33, -57, 23, -3, -15, -63, -72, 73, -7, -5, -75, -79}
, {-75, -69, -89, 7, 94, 58, 21, 18, 92, -94, 75, 1, 2, 61, -57, 94, -78, 81, -62, 28, -11, 20, -65, 30, 83, -19, -79, -23, 65, -44, -10, -89, -83, 90, 59, 68, 77, -69, -81, 41, -64, -41, -53, 80, -47, 56, 81, -61, -8, -28, 21, -40, 97, 76, -26, -59, 67, 14, 40, -4, 61, -96, 67, -89, 19, 11, -85, -35, 50, -82, -39, -53, 18, -77, 88, 57, -81, -26, -54, -102, 41, 64, -42, -64, -33, 25, -37, 37, 5, -79, 19, -29, -51, 19, 4, 31, 8, -37, -97, -74, 15, -67, 53, 67, 63, -42, 17, 53, 7, -61, 70, 69, -59, -29, -56, 8, 100, -91, -20, 54, -100, -85, 87, -27, -101, -86, -57, -81}
, {81, -105, -66, 80, 58, -90, 13, -5, -66, 94, -84, 11, -9, 41, -93, -73, -57, -67, -16, -28, 67, -93, -18, 72, 59, 60, -78, -68, -34, 72, 33, 18, 82, -66, -33, -62, -13, 19, 82, -37, 106, 71, -68, -31, 62, 65, 54, -81, -8, 19, -55, -70, -27, 2, -41, -43, -4, -69, -76, 6, -112, 48, -86, 21, -36, 5, -52, 87, -40, 27, -64, 97, -46, 111, -3, 83, -59, 6, 106, 94, 71, -88, -75, -97, 6, 43, 4, -69, 15, 45, -77, -67, 48, -74, -33, 24, -10, 3, -85, -90, 71, 97, 92, 46, -30, -14, 30, -56, -22, 112, 109, -2, 34, -71, 19, 0, 54, 53, -77, 63, 109, -34, 8, 87, -17, 54, 30, -13}
}
;

#undef INPUT_SAMPLES
#undef FC_UNITS