/**
  ******************************************************************************
  * @file    weights/fc.cc
  * @author  Pierre-Emmanuel Novac <penovac@unice.fr>, LEAT, CNRS, Université Côte d'Azur, France
  * @version 1.0.0
  * @date    24 march 2020
  * @brief   Template generating plain C code for the implementation of Convolutional Neural Networks on MCU
  */

#define INPUT_SAMPLES 128
#define FC_UNITS 40


const int16_t dense_36_bias[FC_UNITS] = {-14, 17, -10, -11, -7, 4, 15, -6, -14, 9, -1, -1, -16, -8, 10, 20, 25, 18, -8, -4, 1, -11, -7, 11, 11, -3, 7, 0, 6, -3, -10, -7, 24, 8, 12, -4, 15, 3, -28, 4}
;

const int16_t dense_36_kernel[FC_UNITS][INPUT_SAMPLES] = {{-38, -56, 86, 2, 3, -34, 100, -67, 38, 62, -45, 34, -26, 1, 52, 9, -75, 27, 32, 88, -92, -32, 105, 26, 19, 87, 7, 24, 26, 7, 48, -2, -28, 70, 22, 38, 7, 63, 61, 0, -78, -15, 38, -18, -54, 75, -33, -87, -85, -11, -13, -50, -9, -44, -41, 19, 33, -89, -17, 86, 70, 58, -49, -65, -98, 82, -57, 88, -91, 27, 29, 84, -20, 65, -49, 86, 43, -35, -29, -74, 76, 72, 17, -86, -83, 101, 75, 86, 88, 34, 52, -67, 49, 35, -112, -42, 54, 12, 36, -51, 32, 54, -32, -21, -39, 42, 60, -36, -78, -106, 88, 80, 91, 32, 98, 23, 74, 1, -55, 71, -56, -32, 74, 67, -12, -88, -97, -72}
, {-80, 45, 22, 19, 28, 87, 53, 95, 43, -71, 94, 19, -74, 89, 16, -62, -15, 16, 37, -60, -81, 83, -81, -3, 106, 7, 92, 103, -81, 32, -58, 94, -63, 94, 17, 95, -17, -29, -47, 59, 79, 105, 50, -2, -101, -48, 20, 2, -81, 36, -49, -32, 73, 72, -33, -16, 4, -72, -34, -37, -44, -70, 85, -51, 1, 120, 67, -6, 46, 56, 54, 32, -7, 38, -52, 20, -56, 80, 70, -10, -88, -30, 1, -63, 81, -89, 74, 26, 37, 77, -85, -76, -90, -10, -69, -89, -63, 32, -101, -45, 61, -49, -68, 5, -2, 68, -22, -57, 79, -42, 24, 16, 12, 57, 59, -45, 33, 82, -20, 105, 14, 88, -68, -6, 16, -85, -38, 50}
, {110, 36, -16, 101, -88, -38, -83, -55, -67, -85, -35, -3, 19, -45, -89, -4, 11, -5, 23, 74, 106, -45, -8, -43, -54, 37, -75, 62, -46, 87, -74, 40, 81, -58, 31, 55, 84, -38, -9, 20, -76, 35, -41, -34, -23, 64, -16, -96, -64, 90, -54, 59, 35, -10, -11, 60, -61, 17, -13, 27, -41, -81, 69, -96, 66, 49, -69, 101, 17, -64, 48, -11, -80, -55, -5, 32, -24, 16, 24, 20, -84, -34, -50, -46, 21, 27, 95, -53, 56, 64, -27, 99, 93, 19, -35, 72, 69, -3, -31, -43, -62, 108, 87, 10, -25, -54, 85, 72, 63, -22, 23, -62, -63, -66, -59, -67, 0, 67, 3, -70, 95, 69, -72, 73, -73, 36, -26, 56}
, {42, -96, 20, 41, 0, 60, 82, 88, -1, -71, 45, 47, -1, -52, 41, -47, 61, 34, -25, -71, -82, -75, 91, 37, -30, -34, -69, 32, -77, 10, -6, 92, 0, -9, -48, -18, -8, 20, 11, 89, 97, -99, 94, -55, -72, -72, 18, -75, -76, -61, -84, 82, 68, -47, 55, 57, 35, 42, 105, 87, 98, 58, 49, 102, -60, -71, -38, -104, 14, -22, -60, -8, -51, -50, 14, -55, 77, 31, 94, -14, -23, 7, -79, -65, 53, 82, 12, -11, -70, -75, 88, 9, 94, -77, 5, -84, -23, -77, 67, 63, 65, 9, -11, 55, -37, 0, -86, -30, -18, 0, -53, -78, -90, -46, 55, 102, -41, 24, -79, 14, -17, 50, 54, -31, -20, 48, -6, 41}
, {-88, -17, 37, -33, -22, -83, -39, -63, -5, -6, -1, -99, 35, -13, 55, -20, 73, -14, 40, -84, 6, -95, -39, 31, -69, 92, -8, -37, 37, -46, 68, -36, -62, -50, -1, -78, -49, 18, -59, 99, -71, 100, 51, 64, -80, -56, 106, 47, 97, 59, -43, -99, -115, 63, 70, -80, -87, 81, 50, -47, 17, 35, -61, -61, -35, 41, 95, 37, 53, 18, -24, 64, -75, 9, -90, 88, -3, -28, 65, -89, 8, 49, -68, -78, 99, -26, -55, 53, 37, 78, 26, -34, -55, 39, -107, 43, 63, 54, 85, -81, -49, -52, -20, 98, -25, -91, -83, -15, -25, 83, -63, 68, -23, 2, -38, 94, 70, -40, -26, 101, 68, 12, 86, 5, -20, 40, -40, -103}
, {57, 114, -86, 0, 61, 65, -66, -106, 50, 1, -72, -67, 3, -111, -48, 65, -47, -29, -93, 90, 21, 85, 70, -89, 101, -80, -81, 65, 67, -18, 62, 72, 81, 50, 35, -7, 69, -112, -96, -85, 79, 8, 57, -63, 24, -37, 57, -6, 41, -45, -96, 82, 46, 55, 11, 132, -11, -16, 80, -83, 71, -31, -49, 21, 1, 9, -23, -24, 22, -85, -100, -74, 1, 58, 18, 23, 70, -19, 87, 68, -66, 45, -8, 21, 9, 75, -29, 79, 93, 54, -93, -45, 48, 7, -30, 55, 40, 63, -70, -64, -41, 27, -48, -9, 10, -70, 18, -21, 25, -54, -99, -58, 18, 91, -55, 83, 12, 29, 21, 30, 33, 34, 69, 78, 1, 38, -73, 81}
, {65, -13, 40, -17, 104, 10, 4, 22, 50, 34, -44, -42, -43, -71, 65, 4, -23, 47, -1, 86, 50, -27, -11, 54, -26, 74, 36, 30, 87, -22, 58, -63, 94, 83, 1, 16, -42, 15, -103, -68, -12, 75, -1, -25, -77, 48, -42, -92, -91, -14, 58, 60, 12, 94, 5, 1, 94, 23, -38, 17, 85, -36, 56, 0, -18, -27, 23, 26, 84, -63, 6, 69, 41, -80, -8, -84, 92, 82, 44, 86, 39, 72, 91, -65, 79, -21, 25, 25, -72, 33, 10, 5, -90, 17, -52, 13, -55, 47, 58, 23, 104, -42, -22, -63, 88, -82, 5, 49, 71, -45, 23, -15, 26, 99, -96, 5, 24, 54, 97, 64, -55, 53, -54, -25, -15, 8, 53, -83}
, {-64, -39, -52, -9, 4, 81, -87, 68, 38, -55, -55, -54, -33, 79, -87, -32, -20, 103, 16, -94, -16, 1, 30, 14, -67, -88, 48, 28, -8, -14, -58, -61, 6, -101, -22, 82, 100, 52, -7, -13, -85, -60, 59, -52, 68, 3, -56, 57, 34, -19, -31, -60, -69, -53, -31, -15, -23, -23, -8, -72, 53, -65, -63, -111, 79, -71, 5, 58, -74, 30, 15, -70, -37, -13, -21, -25, -15, -63, -50, -33, -32, -85, 39, 43, 8, 43, 59, 76, -77, 8, -78, -17, -4, 9, -54, 42, -17, 68, -4, 40, 22, 49, -47, 106, -22, -56, -47, -71, 40, -34, -4, -42, 13, -120, -68, -77, 93, 10, -22, 86, 65, 50, 80, -15, -82, 89, 27, 28}
, {42, 14, -90, 54, 16, 86, -87, 38, -6, -10, 49, -85, -104, 74, 63, 55, -86, -77, -16, -76, -46, 83, 94, 12, -35, 87, 26, -51, 28, 19, -64, -78, -39, -80, -17, -38, 69, 137, 76, 36, -98, 62, -45, 76, 8, 30, 24, 6, 75, -76, -79, 35, 43, 31, -31, -119, 57, -41, -30, 74, 67, -74, 111, 61, -106, 69, 53, -7, 85, -23, 3, -63, -44, -116, 91, -16, -58, -30, 12, -3, -57, -2, -19, 64, -18, -33, 28, -64, 96, 102, 39, 61, 63, 55, -44, -120, -57, 95, -51, 90, -8, 17, -72, -84, 54, 24, -80, -24, 5, -67, 53, -56, 43, -14, -11, 73, 70, -72, 118, 60, -54, 20, 109, 86, 82, 38, 86, 73}
, {-31, 25, -64, 60, 114, -54, 50, -89, 79, 44, -57, -50, -23, 86, 78, -1, -43, 98, -67, 45, -86, 74, -53, 23, -28, 44, 80, -76, 79, -102, -83, 94, 24, -95, 44, -2, -11, -48, 78, 70, 102, -35, 94, 13, 42, 15, -99, 17, -31, 20, 89, 71, -111, -8, 47, -4, 16, -62, 100, 15, -13, -80, -30, -14, -17, 38, 70, -81, -46, -69, 53, 27, -90, 63, -62, 41, 6, 32, 57, 48, 71, 36, -65, -85, 16, -65, 69, -91, -99, 42, 6, -27, 42, -85, 87, 4, -19, -41, 65, 3, -71, 6, -94, 44, -80, -37, -34, 3, -10, -23, 56, 94, 5, -105, -59, -4, 75, 27, -102, 91, -38, -56, 54, 48, -15, -9, 67, 63}
, {61, 102, 25, 80, 11, 35, 42, -53, -88, 5, 53, 79, 69, 3, -91, -21, -74, -94, -91, 45, -45, 3, 97, 40, -27, 7, 24, -18, -67, -14, 76, -17, 53, -68, -82, -56, -3, -18, 67, -59, 69, 9, 27, 95, -28, -79, 9, -88, -29, -37, -92, 84, -6, -45, 24, 3, 81, -63, 46, -35, -58, -35, 97, -82, 38, -94, 81, 8, -60, 31, -66, -8, 1, -90, -5, 56, 89, 26, -62, -75, -54, 48, -17, 58, -56, 51, 61, -6, 25, 81, -99, -18, 89, 35, -84, 60, -63, 96, -77, -9, -71, -69, -16, -62, -96, -76, -52, 54, -61, -17, 34, -5, 0, -3, -65, 61, -15, 3, 29, -37, 83, -28, -91, -76, 33, -10, 72, -52}
, {51, -30, 93, 44, -62, -61, 10, -29, -19, 93, -73, -107, -62, -96, 95, 91, -88, -60, 4, -80, -14, -45, 52, 21, -31, 66, -25, 72, -47, -73, -14, -71, 61, 59, -33, -52, -25, 25, -16, 46, -66, 64, -51, -60, -86, 84, 70, -76, 79, 8, -69, 14, -27, -57, 65, -2, 53, 90, -87, 27, -44, -60, -95, -59, -42, 67, 21, 36, 31, 39, -57, 0, 20, -52, 57, 60, 29, -37, 66, -54, 53, 28, -9, -47, -18, 87, -43, -1, -94, -22, 12, -104, 35, 20, -28, -41, -48, 21, -37, 15, -18, 0, 101, 77, 33, -50, -29, 81, 31, 1, 60, 84, 84, 24, -82, -12, 38, -5, 34, 89, 4, -59, 63, 70, -93, -64, 13, 9}
, {-16, -11, -60, -56, -30, 81, -56, -63, -14, -21, 65, -20, -69, -38, 33, 32, 77, 60, 48, -1, 104, 4, 20, -41, 87, -70, 88, -53, 58, 60, -102, 64, -16, -3, -63, -59, 72, -19, -8, 22, 38, -105, -3, 87, -29, -80, -50, -53, 63, 63, -106, -20, -94, -12, -17, -68, -71, 15, -46, 83, 49, -88, -9, -14, -26, -59, -82, -21, 23, -4, 91, -56, -88, 75, 64, -68, -54, -25, 11, -5, 30, -100, 14, 56, -97, -46, 35, 5, -15, 42, 24, 58, 19, -48, 87, -7, -24, -39, -51, -7, 3, -62, 55, -41, -73, -98, 68, 94, -71, -13, -82, -42, 43, -53, -33, 94, 51, 12, -25, 55, 59, -83, -40, 105, -55, -36, -65, -27}
, {20, -109, -44, -8, 50, 84, 91, 30, -34, 8, 32, -63, -41, -2, -71, 33, 11, -29, 49, -60, -4, 22, -27, -70, -93, -91, -34, 41, -37, -102, -35, -70, 75, -10, 19, 108, 90, 57, 64, 98, -91, -19, 89, 31, -45, -80, 81, -9, -18, -87, -79, -79, -60, 49, -16, 27, -26, 74, 54, 57, -63, 38, -15, -64, -80, 24, 11, 3, 95, 0, 42, 89, -75, 17, -32, 59, -92, -83, -43, 61, 32, 35, 81, -83, -69, -100, -60, -62, 64, 17, 55, 99, -26, -5, 34, 20, 79, -23, -74, 89, -13, 8, -66, 14, -86, 52, 89, -91, -62, 12, 52, 9, -78, 31, 52, 35, 97, 54, -1, -27, 26, -11, 49, 33, 76, 40, -13, 74}
, {-13, -41, 88, 18, 28, -43, -99, -70, -45, 5, 2, 93, 45, -102, 28, -4, 62, 81, 86, 49, -58, -95, 61, -20, -10, -80, 49, 59, 4, 34, 5, -36, 58, 45, -46, -65, 74, -106, 12, 35, -18, -40, 76, -17, 87, 81, -66, 95, 49, 24, 12, 65, -93, 47, 18, -60, 28, 0, -3, -54, 27, 38, 72, -71, 50, -38, -22, 66, 88, 51, -79, -96, 36, -19, 76, 78, 0, -32, 38, -46, -1, 27, 98, 83, 0, -127, 60, 77, 101, 25, -20, -41, -83, -73, 32, 50, -81, 2, 79, 75, 40, -24, -90, 34, 83, -6, 107, 0, -56, 0, -64, -84, 4, 14, -85, 6, -97, -42, -72, -22, -120, -98, 12, 34, 85, -38, -89, 73}
, {-70, -39, 59, -36, 75, 57, -15, -56, 91, -11, -53, -22, 103, 13, -35, -59, -8, 0, -26, 31, -69, 91, -106, -29, -39, -55, -96, -77, -16, 75, 80, 7, 56, -30, -39, 61, 28, -34, 61, 44, -65, 56, 9, 44, 36, -48, -83, 106, 40, -86, -54, -76, 11, -58, 89, -77, 77, -82, 44, -92, -92, 57, 54, -4, 53, -115, 52, -11, -93, 43, -84, -9, 32, -4, -57, 56, 30, -25, -54, 53, -86, 74, 62, -34, -10, -44, 84, -75, 5, 29, -39, 86, 71, -17, 79, -75, -120, -86, -61, 31, -61, -60, 32, -29, 78, -74, -20, 24, 83, -16, 29, -26, -11, -2, -39, -73, -11, 73, 71, -27, 8, -13, -35, -63, -83, 9, -54, -82}
, {-97, -51, 58, 77, 53, 81, 35, -57, -10, -30, -28, -21, -18, -2, 0, -63, 95, 23, -64, 59, 50, 33, 14, -12, 98, -83, -49, 17, -80, 56, 23, 72, -28, -31, 63, 22, 50, 67, -88, 76, 70, -50, -25, 17, -86, -27, 52, 77, 75, -2, -31, -21, -76, -27, 30, 55, -90, 70, 5, -100, -81, 17, 76, 9, -83, 60, 92, 6, -54, -58, -13, 10, 57, 37, -42, 46, -7, 112, 75, 97, 94, 51, -1, 71, -50, -93, -35, -12, -71, 77, -68, 10, 77, -89, 100, -20, 21, -46, -41, -47, -2, 52, -69, 7, -14, -45, -26, 88, -21, -72, 52, -49, -72, 42, 11, -71, -43, 25, 2, -76, 22, 3, -69, 20, 57, 74, 92, -64}
, {-21, 58, -79, 3, 83, 80, 26, 2, 80, -4, -7, 4, -61, 30, 68, 83, 18, 78, -57, -71, 9, 7, -77, 93, 64, -23, -1, -19, -36, 17, 34, 46, 47, -63, -34, -21, -87, 72, -43, 71, -23, 55, -58, -85, 88, -72, -84, 68, 15, 97, 95, -72, 50, 62, 27, -69, -54, -36, -8, -19, -83, -23, 58, 0, 54, -49, -25, 59, -23, 38, 40, 25, 44, 4, -62, 40, 58, 107, 0, 93, 17, -63, 12, -69, 35, 20, 65, 68, 69, 28, 6, -5, -17, -81, 45, 30, -67, -2, 34, 37, -60, -13, 66, -14, 37, 12, -11, 33, 9, 83, 40, 24, 51, 116, -93, -76, -29, 15, 81, 21, -8, 67, -30, -44, -51, 42, -62, -101}
, {56, 38, 10, 67, -17, 56, 62, 49, 9, 60, 21, -43, -5, 48, -65, -1, -39, 64, -33, -5, -18, -78, -106, -64, 28, 86, 58, -33, 67, -41, -24, 76, 24, 50, 80, -6, 45, 41, -82, 100, 4, 76, 9, 58, -85, 69, 12, -76, -37, -36, 67, -51, -62, 22, -41, 107, -27, 36, -62, 5, 91, 39, -101, 76, -13, 25, 64, -66, 18, -75, -27, -12, -77, 74, 37, 14, -64, -95, -52, -6, 22, -58, -96, -58, -58, 66, 54, 91, 22, 10, 24, -15, 15, 8, 18, 88, 10, -17, 3, 89, -96, 25, 53, -16, -80, -85, 67, -37, -79, -101, -8, -60, 64, -53, -71, -29, 64, -57, 20, -61, -33, -52, -20, -66, -73, -43, -42, -46}
, {82, 7, 27, 62, -65, -20, 17, -44, -64, -69, 40, -77, 89, -86, -74, -60, 64, 67, 22, 39, 105, 0, -8, 41, 62, 87, -20, 49, 15, 21, -62, 44, 1, -10, -6, 75, -51, 63, -43, 93, 47, 19, 36, -3, 95, 54, 7, 26, 13, -18, 0, -58, -57, -41, -90, -64, 54, 92, 68, 83, 24, 79, 43, -43, -52, 115, 77, 59, -52, 25, 58, 89, 79, -49, -32, -18, -49, -87, -81, -50, -44, 25, 98, -75, -30, -47, 20, -44, -17, -90, -52, 105, -65, -51, -43, 66, 78, -81, -25, -9, -40, 65, 53, 35, 28, 13, 42, -52, 75, -39, -42, -64, 34, -118, 34, 30, 91, 89, -75, 109, 77, 6, -57, 85, 35, -5, -29, -20}
, {-58, 52, 15, 89, -52, 49, 8, -115, 21, -65, 19, -105, 8, 3, -27, 0, 56, -69, -25, 0, 32, -91, 29, -56, 65, 24, -10, 86, -77, -25, -79, -58, -39, -14, 19, 6, -3, -51, 24, 8, -31, -48, -94, 3, 2, 92, -62, -43, -6, 23, 72, 91, 68, -70, -54, 84, -77, 65, 31, -15, -93, -61, 77, 30, 16, 60, -54, 30, -74, -2, 68, -10, -53, -42, 83, -57, 99, 30, 81, 23, 22, -92, -7, -80, 82, 105, -5, -42, -40, -105, 20, -42, -88, 55, 95, -62, 44, -2, 70, 53, 15, -106, -84, -79, -47, 76, -5, 25, -24, 41, -51, 12, 24, 91, 61, -87, -25, -80, -4, 49, -2, -83, 56, -37, -64, 97, 20, 90}
, {64, 46, 37, 51, 66, 77, -61, 51, 93, -54, 28, -72, 69, 47, -4, 62, -54, -10, -13, -14, -13, 64, -81, 0, 33, -1, -36, -59, 92, -20, -59, -63, -27, 63, -18, -80, -65, -54, 22, -47, 59, 11, -54, 64, -37, 11, 55, 3, 98, 5, 27, -7, 41, -81, 90, -117, 38, 22, -45, 88, 42, 37, -75, -10, -80, 60, 33, 66, 26, -90, 0, -68, -18, 0, 36, -23, -99, -28, -3, -57, -69, -28, 89, -73, -74, -44, -82, 94, -24, -75, -41, -57, -5, 89, 96, 81, 93, 14, -84, 25, -10, 40, -45, -45, 11, -16, -46, 77, -82, 11, -14, -84, 89, -71, -28, 59, -32, 52, 68, 112, 90, 48, 88, -53, -68, -98, 40, -48}
, {-24, -65, 3, 8, 71, 21, -43, 77, -49, 10, -88, -113, -44, -37, 44, -28, 57, -22, -29, -41, -29, -32, -74, 0, -14, 15, -9, -77, -59, 44, -9, -98, 22, 72, -16, -53, -74, 54, -74, -58, -61, -80, -46, -56, -75, 43, -84, -56, 4, -76, -15, -73, -50, -5, 81, 104, -66, 44, -95, 78, -89, 84, 5, -61, 82, -11, 33, -55, -62, 64, 41, -82, 62, -40, -92, -77, 43, 40, -18, -74, 91, 16, 12, 81, 15, 61, 87, 21, 19, -67, -40, -59, 65, -46, -85, -20, 26, -5, -16, 65, 92, 2, 96, 18, -25, 7, -77, -5, -86, 4, -121, -80, 23, -50, -23, -37, 5, 68, 6, -75, -7, -1, -33, -38, -117, 90, 68, 82}
, {47, 63, 12, -3, -110, -8, -77, 77, 85, -52, 30, 66, -39, -41, -89, 17, 67, 30, 66, -83, 46, -38, 43, 7, -61, 1, 67, -13, -29, 58, 33, 48, -76, -7, 5, -92, 55, -58, 33, 84, 14, 22, -28, 51, 18, -18, 47, -13, -51, 81, -60, 57, 14, 6, 61, 23, 59, 56, -80, -51, -83, -5, 77, -35, 44, 106, 99, -61, -34, 3, -47, -55, 77, 73, -53, -19, -72, 102, -45, -47, 9, 2, 0, 59, -18, -65, 83, -51, -26, 68, 39, 84, -15, -39, 52, -49, -17, 31, 34, 55, -33, -27, -31, -44, 44, -20, 22, 48, -83, -8, -68, -51, -24, -86, 62, -84, 17, 20, -80, -48, -110, -46, 87, -30, -6, 16, 16, 65}
, {-68, 88, -24, -80, 28, 5, 35, 25, -20, 17, 88, 21, -86, 33, 19, 90, 44, 38, 45, 37, 36, -27, -52, 60, 105, -11, 22, -3, 58, 2, -21, 74, -48, 72, 2, 2, 33, -96, -35, -25, 30, 52, 5, 42, 64, 28, -10, -56, -100, -70, -38, 82, 24, 26, -35, 9, 34, 71, 47, -61, -71, -2, -27, 94, 78, -24, -65, 46, -5, 77, 51, -61, 60, 16, -88, 12, -57, 39, 45, 67, 72, 1, -78, 54, -29, -57, 27, -51, -29, -32, 34, 43, -68, 94, 14, 76, -13, 0, -9, 56, 74, 74, 68, 27, 0, 13, 47, -86, -87, -35, -107, 92, 74, -10, -84, -12, -21, -44, 59, -61, 53, 74, -17, 39, -89, 91, -74, -24}
, {58, -7, -60, 90, 47, -56, 75, -73, -44, -5, 96, -59, 30, -31, -63, -70, -62, 55, 10, -71, -21, 52, -75, -27, 1, -5, 38, 101, 15, 95, -49, 71, -14, -25, 67, -55, -80, 40, -3, 95, 41, 9, -27, -92, 9, 14, 101, -45, 102, -2, 12, 53, 14, -22, -92, -93, 12, 6, -69, -42, 77, -53, -36, -9, 25, -37, 76, -21, -44, -1, 66, 77, -19, -36, 94, -86, -7, 113, 81, 73, 60, 62, 42, 99, -27, -37, 60, 12, -44, 15, -7, -60, 14, 54, -91, 69, 97, -64, -5, -87, -88, 80, 81, 86, 63, -91, -107, -29, 57, -24, 60, -60, -79, 40, -44, 95, 94, -34, 26, 71, 39, -6, -72, -36, 47, -72, 69, 2}
, {-80, -131, 105, 40, 25, 0, -28, 62, 12, 45, 33, -39, 76, -82, 85, 42, -80, 44, 25, -13, 57, -82, 5, -63, -37, -3, 91, -76, -18, -112, -80, 56, -22, 54, -103, 12, -59, 52, 28, 11, 46, -26, -78, 44, -12, 35, -47, 61, -66, -91, 4, -132, -9, 89, -70, -37, -20, 99, 33, -17, 45, -48, 14, 24, -68, -108, 7, 72, -34, -18, -26, -81, 63, -4, 6, -48, -53, 23, 95, -91, 20, 29, -36, -92, -46, 68, -42, 2, 72, -102, -37, -41, -39, -61, -94, 17, 18, -37, -53, -10, 89, -17, 56, -55, 18, -3, -31, -75, -6, -102, -88, -11, 58, -108, -36, -15, -33, 87, -37, -3, 47, 7, 101, 12, -1, 95, 73, 91}
, {-56, 27, -64, -40, 21, -25, 15, 37, -15, -47, -39, 58, -45, -66, -69, 57, -18, 70, -70, 31, 44, 98, -33, -17, 50, -84, -99, 100, -73, 39, 2, 19, -79, 56, 55, -49, 43, -51, 68, 69, -96, 31, -27, -12, -57, -5, -66, 59, 89, -3, -90, 119, 98, 69, -43, -21, 8, -24, 21, -55, 83, -2, 30, -88, 10, -24, -10, 86, 59, -42, 80, 59, 0, -61, -51, -46, 38, -57, -56, -33, -73, -107, -14, 48, -41, -100, 59, -32, 55, 0, -78, 36, -100, 79, -59, 13, 24, -7, 57, -16, 68, 16, -81, -79, 88, 22, 102, -7, 66, 16, 12, -102, -79, -41, 20, 58, -50, 29, 7, -100, -22, 24, -84, 61, 91, 52, -16, 47}
, {-22, 46, -24, -68, -24, -21, 71, 23, -20, 41, -70, 47, 38, 20, 4, 0, 86, -36, -81, 58, -36, -7, 52, 25, -104, -83, 47, -8, 13, -88, 74, 41, -44, 60, 55, 37, 1, -113, 11, -37, 5, 18, 44, -69, -31, 49, 0, 14, -95, -23, -62, -41, 99, 45, -21, 6, -77, -91, -77, 78, -78, 9, -36, -31, -77, -83, 20, 15, 65, -34, 30, -43, 15, 17, 64, -51, 60, 8, 57, 85, -27, 18, -23, -32, -19, -38, -84, 6, -32, -72, -7, -60, -68, 25, -81, -17, -76, -38, 48, -35, 58, 41, 22, -12, 90, -56, 57, -35, -59, -67, -76, -104, -31, -8, -28, -52, -94, 3, 21, -116, -42, 68, -11, -35, -23, -59, -85, 35}
, {-36, 3, -98, 84, -10, -42, 105, -28, 25, 53, 20, 44, -10, -56, -59, 102, 82, -96, 2, 41, 89, 59, -54, 23, -17, -85, -6, 35, -19, 85, 97, 63, 88, 36, 73, -96, -43, -101, -66, -52, -85, 33, -94, -30, 53, 77, 17, 47, -115, 11, -50, 95, 105, -2, -4, 92, -95, -18, 34, 61, -46, 29, 33, 64, -67, -26, 51, -104, -69, -22, 0, 33, -30, -69, -40, 13, 59, -39, -43, -89, 67, 19, -79, -11, 90, 77, 65, -33, -46, -18, -67, -14, -12, 29, -15, -29, -55, 29, 45, 10, 69, -92, 69, -14, 50, -34, 16, -67, -2, -67, -67, -29, -74, 70, -7, -86, -46, -4, -90, -71, 94, 41, -55, 83, 16, 57, 58, 22}
, {41, -108, -64, 5, -22, -58, -114, 55, 48, 19, 43, 9, 16, 64, -79, 72, -20, 92, 90, -96, -12, -50, 27, -46, -22, -12, -67, -73, -54, 70, 44, 56, -81, -69, 32, -50, 12, -12, 17, -51, 15, 74, -48, -4, -23, -13, -82, 69, -1, -103, -7, 0, -91, -47, 56, 28, -86, 18, -111, 59, 46, 71, -84, -97, -22, -131, -86, 72, 13, 49, -95, 22, 92, -5, 7, -84, -52, 21, 20, 87, -35, -27, 103, 68, 99, 8, -83, 5, 69, 26, -42, -21, -72, 51, 46, 98, -38, -99, 21, -96, 0, 45, -25, 29, -65, 14, -31, -33, 50, 30, -70, -9, -50, 4, -112, 38, -62, 94, 12, 48, -110, -26, 16, 95, -50, -10, -4, 50}
, {115, 121, -54, 28, 42, -34, -77, -46, -53, 17, -75, 111, 28, 20, -98, 32, 59, -30, -69, 93, 41, 18, 108, 79, -19, -94, 74, 104, 46, 72, 2, 65, 23, -18, 77, -98, -82, 40, 83, 65, 15, -64, -80, 79, 98, -26, -89, -33, -99, -65, -65, -38, 69, -34, 2, 30, 18, -71, -102, -40, 39, -33, 50, 61, 91, 114, 28, 53, -99, -48, 62, 58, 79, 21, 85, 83, 83, -31, 4, 98, -14, 79, -101, 4, 20, 43, 77, -1, 96, 98, -20, 86, 20, 2, 55, 71, 69, -81, 27, -22, -53, 92, -94, -26, 57, -25, -72, -38, -3, 20, -71, -98, 59, 103, -34, 66, 62, 5, -68, 76, -98, 43, 67, 64, 43, 17, 1, 20}
, {-48, 16, 88, -92, 91, -31, 34, -18, 77, 33, -91, 26, -20, 37, 30, 85, -95, -81, -67, 26, 58, 16, 17, -47, -53, -16, -1, 52, -47, 39, -27, 12, -20, 89, -98, 69, -87, 36, -101, -26, -65, 55, -90, 90, -21, 31, -36, 58, -100, -22, -30, -79, -45, -51, -60, 55, -64, -85, 90, -17, 86, 25, 63, 38, 39, -52, 38, -87, -70, -38, -36, -90, -11, 69, -73, -10, 51, -37, -74, 2, -45, 68, 74, -84, -64, 73, 74, -76, -6, 21, 24, -17, 62, 31, 46, 62, -74, 67, 58, 75, -31, -52, -74, 33, 59, 88, -29, -47, 19, 11, -87, -18, 0, 62, -106, -84, -22, -40, -74, -87, -7, -83, 48, -58, -4, -76, 51, 28}
, {-91, -22, 49, -60, 119, -71, -39, -44, -26, 50, 31, 40, -65, 92, -57, -60, 9, 77, -93, -1, -109, -37, -45, -64, 46, -90, 66, -74, -53, -122, -17, 22, 23, -88, -16, 114, -64, -68, -74, -93, 54, 19, -53, -7, -109, -47, 2, 90, 103, -14, 53, 39, -149, -77, 46, 103, -37, 112, 4, 21, -26, 106, -114, -93, -60, -98, -54, -99, 40, -91, 34, 76, 81, -23, -78, 82, 6, 73, 99, -54, -74, -21, 72, 84, 100, -90, -96, 37, -43, -22, -35, -10, 78, -53, -83, -80, 6, -57, -35, 69, 43, -111, 12, -18, -83, 84, -64, 72, 22, -107, -40, 41, -86, -7, 50, -10, 44, 104, 49, 87, -56, -22, -62, -25, -58, 79, 83, -87}
, {86, -35, -62, -20, 23, 60, -6, 67, -1, -99, -13, 56, 63, -56, -10, 26, -30, -23, -21, -92, -73, 104, -42, -55, 50, 16, 47, 61, -68, -61, -61, -14, 67, -7, -34, -87, 94, -1, 80, -35, -58, -87, 82, 87, 78, 42, -7, -42, -72, 68, 64, 102, 67, 41, 25, -106, -5, -54, -5, 3, 60, 39, -18, -24, -63, 70, -101, 45, -55, 33, 131, 50, -3, -85, -81, -88, 7, 16, -67, -41, 61, -8, -53, -56, 39, -98, -20, -38, 0, -11, -95, 91, -6, -77, 59, 65, 92, 58, -6, 69, -31, -67, 72, 67, 31, -57, 40, -17, -22, -14, 86, 24, 84, -8, 72, -58, -29, -48, 12, 15, 65, 75, -17, 46, 89, -53, 39, -88}
, {-42, 27, 29, 13, 56, 2, 1, -56, -95, -63, 70, -109, -89, -96, 78, -50, 48, -8, 38, -9, 35, 53, 96, -91, 137, -36, -25, 48, -54, 26, 48, 73, -17, 94, 69, -81, 64, 103, -40, 18, 84, 28, 12, -91, 29, 2, 68, -38, 65, 71, -49, 23, -28, 41, 0, 32, 79, -22, -6, 44, -73, -86, 10, 34, -9, 130, -101, 69, -42, 46, -33, -16, 24, -31, -62, -96, -85, 66, 67, -79, 82, -57, 86, -51, -2, 73, -40, -7, -71, -69, 88, -81, 47, 75, -88, -67, -1, -41, 42, 64, 97, 26, 91, -45, -46, -34, 73, -46, -37, -94, -58, 8, -57, -7, 123, 12, -9, -68, -34, -26, 109, 100, 17, -86, 77, -28, 12, 97}
, {-22, -41, -42, -99, -48, -22, 65, 96, -34, -23, -6, 72, 17, 18, -85, -66, -34, 27, 93, -74, -16, -10, 44, 68, -93, 85, -16, 46, -38, 53, 50, 57, -76, 47, 82, 53, 27, -85, 35, -74, 28, -15, 66, 73, 1, 88, 69, 52, -88, -41, 101, -42, 25, -46, 77, -26, -22, 25, 96, -11, 33, -36, 35, -51, 10, 21, -89, -72, -45, 73, 69, -88, -46, -54, -42, -68, -39, -85, -83, -66, -37, -55, -77, -59, -24, -3, -10, -83, 86, 35, -7, -2, -88, -71, 107, 17, 92, -53, -47, -7, -38, 35, -59, -32, -30, -68, 7, 53, -37, -76, 101, 71, -6, -82, 56, 64, 46, 42, -6, -74, -34, -76, 4, -82, -66, -79, 69, 1}
, {-40, 94, 60, 33, -73, -50, -112, -73, -71, -71, -61, 81, -22, -50, 3, -36, -17, 105, -13, 5, -22, -103, -54, -33, 26, 26, 85, -32, -63, -80, -41, -20, 54, -25, -92, 7, -34, 69, 31, 43, 0, -19, 73, 0, 92, -4, -100, 31, 0, 99, -62, -97, 19, 27, -67, -25, 92, -68, -3, 43, -72, -36, 48, 4, 100, 60, -12, -25, 37, 36, -69, -31, 19, 16, 92, 7, 101, 56, 90, -59, 9, -85, -89, -7, -38, -10, -81, 93, 72, 16, 9, 47, 90, 20, -68, 115, -105, -4, 87, -69, 83, -9, -87, -9, 19, 72, 103, 14, -91, -24, 2, -34, 79, 73, -63, 16, 28, 38, -65, -96, 62, 17, -66, 60, -51, -3, -31, 4}
, {-25, -3, 31, -18, 53, -90, -71, -13, 36, -22, -82, -72, -25, 61, -41, 47, -32, -78, -81, -6, -19, 79, 39, 0, -17, 10, -22, 18, 73, -29, -39, 66, 58, -69, -14, -39, 70, -7, 43, -89, 88, 6, 33, -73, 48, -6, -65, -82, 2, -5, 23, 11, 28, 63, 44, 55, 95, -42, 96, -68, 8, 48, 64, -41, -34, -26, 31, -77, -72, -70, -69, 66, 23, -34, -63, 41, 13, 18, -75, 19, -30, 34, 76, 96, 31, -3, 56, -3, -21, 44, -22, -13, -25, -51, -11, -37, 4, 91, -80, 44, 70, 12, 86, -26, 31, 75, -43, 43, 42, -62, -33, -68, 55, -102, -65, 3, -53, -86, -44, 80, 106, 60, -69, -70, 92, -30, 16, -1}
, {-5, -92, 18, -42, -3, 29, -39, -70, -38, -87, 8, -43, -12, 81, -89, 28, 109, 55, 35, 55, -59, -52, -53, -85, -85, 70, -18, 20, -93, 5, 0, 43, 83, -75, 66, -11, -53, 29, -18, 111, 59, -24, -16, 81, -92, -83, -74, 100, 91, -96, 3, 65, 34, 76, 91, -92, -63, 10, -13, 16, -6, -14, -5, 68, -52, -33, -54, -99, -51, 21, -24, -18, -42, -21, 32, 33, 61, -97, -52, 52, -98, -14, -69, -90, -36, -28, 76, 103, 69, -11, -62, -84, -81, 87, 100, 97, -77, -33, 34, 16, -56, 32, -34, 81, -8, 100, -30, -57, -111, -99, 77, 72, 69, 71, 14, -28, -4, 58, -107, -71, 63, -68, -31, -66, -86, -16, -68, -79}
}
;

#undef INPUT_SAMPLES
#undef FC_UNITS