/**
  ******************************************************************************
  * @file    weights/fc.cc
  * @author  Pierre-Emmanuel Novac <penovac@unice.fr>, LEAT, CNRS, Université Côte d'Azur, France
  * @version 1.0.0
  * @date    24 march 2020
  * @brief   Template generating plain C code for the implementation of Convolutional Neural Networks on MCU
  */

#define INPUT_SAMPLES 128
#define FC_UNITS 40


const int16_t dense_bias[FC_UNITS] = {7, -1, -3, -7, 7, 9, 7, -1, 1, 8, 2, 6, 7, -8, -6, 6, -8, 6, 7, -10, 8, 0, 9, -2, -4, -1, -8, -10, 9, 1, -7, -7, 4, 6, 8, 1, -4, -2, -6, -8}
;

const int16_t dense_kernel[FC_UNITS][INPUT_SAMPLES] = {{-39, -21, 73, 37, 73, 40, 87, -63, -82, 93, -14, 31, -27, 62, 0, 74, 16, -74, -4, 9, -72, 104, -37, -6, -31, 30, -52, 18, 59, -22, 22, 35, -63, 96, -102, -77, 1, -34, 45, 71, 59, 62, -18, -36, 27, 16, 60, -25, -83, -97, -87, 65, -94, 6, -63, 2, -64, 10, 48, -35, -57, 66, -17, 30, -41, -44, 99, -46, 56, 92, -70, -10, 13, 71, 24, -69, -38, 84, -60, -12, 78, -72, 37, 66, -56, 81, -62, 62, 78, -25, 6, 53, -16, 88, -80, 28, -55, 45, -43, 41, 35, 25, -64, -40, -84, -50, 8, 89, -75, -83, 95, 13, 85, -32, 90, 0, -24, -70, -62, -45, -62, 49, -16, -58, -72, 0, -47, -95}
, {22, -37, -72, 55, 39, 103, -28, 51, 4, 30, 15, -87, -86, 35, -43, 91, -29, -89, 42, -5, -50, 25, 62, 54, -51, 73, 14, -41, -60, 51, 37, 19, 47, 10, 26, 42, 6, 34, 81, 77, 80, 7, -83, -39, -22, -21, 16, -11, 24, 38, -40, 59, -82, 28, -3, 10, 25, 55, 28, 83, 72, -34, -49, 83, 70, 22, -63, -68, -29, 57, -75, 99, 64, 65, -29, -81, -15, 73, -59, 7, -59, 8, -22, -63, 44, 55, 57, -13, -48, -44, 42, 4, -1, -61, 49, 65, -49, 68, -80, 81, 30, -96, 10, 100, -35, -13, 22, 22, 93, -95, -74, -18, -43, -64, 30, -76, -30, 39, 14, -55, 9, -16, -71, 80, 24, -11, 25, -21}
, {75, -31, -13, -6, 38, -13, 57, -14, -68, 90, 43, 52, -69, -28, 99, -49, 78, -76, 13, -72, -41, 6, 67, -49, -23, -21, 97, -45, 56, -9, 13, 69, -4, -19, -32, -38, -100, -31, -59, 6, 11, -68, 57, -80, -98, -48, 25, -92, -52, 32, -49, -101, -8, 46, 38, 42, 47, 12, 39, -73, -33, -50, -89, 76, -85, -67, -32, 67, -86, -31, -25, -32, -98, 95, -49, -51, -96, 11, -70, 71, 68, 58, 81, 35, -15, 96, -38, -59, 105, 9, -79, 68, -73, 26, -33, -53, -59, -29, -69, 31, 97, -29, 51, 0, 28, -12, -84, -42, 16, 54, -75, -39, 79, -49, 75, 43, 48, 42, -71, 6, 75, 2, 58, 9, -96, -36, -24, 15}
, {1, 92, 27, 11, 46, -99, -47, 56, 19, 95, -5, 83, -25, 11, -90, 87, -91, 100, -55, -48, -7, 59, -44, -12, 39, -80, 26, 52, 63, 54, -20, 10, -22, -78, 1, -56, 85, -58, 86, -95, -17, 49, -23, -96, 47, -1, 35, 17, -67, 62, 78, 8, -57, 25, -54, 8, 53, 22, -78, 84, -25, 29, 81, 30, 0, -96, 12, -36, -18, 58, 10, 20, 88, -72, -65, 25, 20, -34, -48, 39, 2, -46, 83, -23, 12, -105, 91, 39, 30, 61, 83, -62, 61, 27, -56, -68, 24, -12, -59, -83, 81, -44, 74, -27, 63, 41, 53, -95, -1, 66, -17, 46, -49, -59, -62, -25, -87, -27, -71, 35, 65, -98, -87, -23, -47, 13, 92, 92}
, {-47, -24, 5, -16, 83, 41, 42, -83, -38, 58, -69, 23, -89, 70, -35, -90, 18, 24, 69, -79, 30, -2, -82, -43, 58, 22, -68, -32, -75, -54, -68, -81, -63, 58, -3, -25, 3, -45, 22, -5, -8, 59, 28, -66, -35, -39, -60, 87, -33, -74, 36, -64, -65, -91, -7, 70, 14, 73, -87, -90, 74, 93, -4, -84, -12, -44, -41, 47, 22, -7, -2, 57, -48, 64, -70, -69, 86, 36, -78, -8, 16, -4, -56, -77, 33, 2, -12, 92, -17, 49, 86, -61, 62, 29, 5, 50, 50, -90, -81, 76, 79, 95, -19, 8, 8, -69, -7, -23, -96, 62, 86, 0, -48, -23, -32, -23, -46, 64, 65, 5, -27, -27, 13, 81, -26, 47, 6, -96}
, {28, 54, -84, 89, -42, -80, -77, 55, -19, 43, -41, -48, 50, 93, -17, 78, 49, -46, -68, 77, 7, 64, 83, -50, 76, -49, -53, 67, 113, 41, 36, -31, -8, -31, 39, 82, -83, -51, -95, 35, -46, -2, 44, 10, 5, -77, -17, -77, -68, -17, 67, -89, 0, 8, 94, -36, 73, -48, 18, -51, 8, -26, -17, 55, -31, 44, 84, 9, 4, 1, 98, -10, -38, 22, -57, 68, -7, -26, 66, 86, 10, 92, -76, 97, 33, -24, -18, 24, 9, -56, 10, -27, 82, -41, -51, -74, 38, 89, -88, -6, -83, 39, 70, 45, 56, -71, 19, -63, 23, 6, 83, -19, -61, -31, 23, -100, 8, 61, -73, 79, 25, -11, -93, 51, -103, 61, 80, -74}
, {5, -84, 47, 39, -108, 66, -93, -50, -43, 96, 12, 3, 8, -46, -37, -53, 88, -32, 4, -24, -33, -28, 21, 7, 60, -52, -1, -9, 74, 64, 27, 81, 75, -62, 23, -34, 28, 41, -81, 47, 12, 52, -56, 32, -27, 77, 40, -60, -62, 76, -78, -4, 46, -64, 64, -87, -21, -31, -39, 72, -62, -52, 101, -81, -19, -12, 59, -46, -66, 21, 45, -45, -86, -28, 33, -16, 95, -52, 13, 57, 44, -63, 50, 23, 12, -56, 65, -54, -17, -64, 61, -40, 70, 91, -14, 0, 13, -53, -64, 41, 57, -59, 82, 11, 2, -73, 25, -18, -91, 76, 32, 50, 4, 12, -81, -30, 31, -5, 96, 43, 21, 66, -74, -25, -20, 39, -81, -30}
, {89, -47, -27, -44, 26, 67, -91, -50, 73, 96, -13, -92, -79, -20, -83, -85, -55, 89, -7, 55, 69, -51, -11, 17, -8, -13, 44, 75, 18, -81, -73, 74, 50, -57, -82, -48, -93, 62, 16, -91, 63, -38, 70, -80, 89, 57, 1, 39, -49, -50, -12, 0, 75, -77, 51, -92, -55, -59, 22, 74, -29, -80, -35, -87, -52, 52, -14, 70, -68, 50, 21, 24, -62, 78, 25, 94, -46, 59, -34, -27, 34, 43, -44, -50, -18, -5, 7, 72, 14, -41, -64, -64, -31, 33, -6, -5, -76, -73, 58, -5, 64, 95, -51, -73, 26, -21, 94, -56, -66, 97, 27, -68, -94, 40, 5, 25, -83, -88, -54, -12, -15, -70, 11, -76, -50, -31, -59, -19}
, {66, 7, -83, -51, 0, -20, -25, 56, -57, 76, 47, -61, -11, 113, -68, -99, -99, -52, 98, 112, 20, -20, 24, 7, 13, 79, 0, 35, -20, -57, 42, -94, -33, -94, 83, -13, -87, 58, 57, 86, 36, -79, -47, -15, -39, 81, 94, 15, 44, -49, -48, -88, -81, -58, -38, 78, 49, -5, -89, -57, -75, 75, -10, -35, -67, 28, -17, 67, -32, -3, 75, -23, -45, 11, -60, 80, 60, 36, -52, -29, -34, -101, 45, 49, 13, -75, -61, 25, 50, -19, -72, 71, 36, 17, -51, 3, -11, 2, -86, -42, -68, -41, -10, 10, 10, 63, 15, 35, 34, 4, -52, -20, 72, -68, -2, 61, 4, 67, 77, -23, -6, -73, -40, -41, 10, -82, 69, 82}
, {-48, 28, -85, -29, -56, 77, 0, 3, 73, 17, 20, 5, -83, 69, -35, -58, 33, -9, 91, 19, 71, -16, 72, -31, 89, 79, -70, 18, 64, 27, -11, -88, 76, -28, 68, 28, 46, -14, 66, -87, 0, 89, 40, 34, -33, 84, -55, -38, -81, -54, -49, 73, 67, -41, 93, 20, 45, -84, 22, 86, 35, -35, -71, -67, -49, 47, -78, 1, -54, 91, 35, -57, 42, 81, -79, 31, -19, -48, 88, -18, 78, -41, -36, 72, -14, -35, 19, -15, 53, 27, 82, 86, 86, -32, 39, -69, 33, 49, 71, 95, -45, -25, 37, -21, 61, -12, -27, 97, 27, 17, 81, 24, 77, -50, 81, -57, -85, -90, 58, 31, -39, 39, -30, -47, -4, 90, -60, -106}
, {-61, -28, 66, 54, 13, -13, 60, -34, -50, -30, 23, -54, 85, 81, -45, 73, 4, -34, -84, 57, -96, 13, -44, 59, -41, -50, 70, -96, 7, -11, -14, -79, 95, 73, -47, -42, 76, 45, -48, 85, -8, -41, -43, -56, 40, 50, -49, -93, 85, -84, -23, -19, -78, 67, 51, -4, -68, -43, -10, 53, 100, 23, 7, 82, -6, -65, 66, -53, 103, 81, 81, 10, 63, 76, -69, -99, -40, 16, 0, -17, -38, 89, 34, -41, 107, 72, 86, 52, -51, -23, -71, -34, -44, -70, -87, -90, -22, 7, -92, 24, -82, 89, 49, -61, -28, 73, -90, 7, 77, -80, -70, 28, -80, 72, -88, -10, -21, 61, -77, 88, 0, 51, 100, 50, -5, -10, 23, 47}
, {-87, 28, -83, 9, -10, -30, 48, 84, 40, -58, 5, 12, -6, -21, 19, 23, 5, 2, -94, 48, -30, -26, 44, 59, 92, -2, -95, -43, 7, 13, -66, 66, 64, -51, -2, -67, 28, -75, -91, 93, -56, -48, 35, 64, -55, -18, 37, 67, -23, 10, 55, -54, -36, 9, -94, 71, 38, -15, -21, 0, -69, -16, 22, -82, -94, 96, -22, 58, 7, -30, -63, 73, -2, 33, -67, -86, -1, -94, -79, -23, -5, -43, -19, 39, -34, 51, -28, -14, -41, 100, -94, 64, 26, 24, 94, -1, 47, 103, -77, -14, 62, 104, 79, 17, -40, -37, -96, 38, -58, -85, 54, 25, -60, 66, 68, 44, 40, 96, 13, 54, 10, 43, -39, 59, 45, 57, 81, -72}
, {79, 48, -41, -41, -66, -63, -108, -98, 92, 17, -52, -91, -73, 115, -68, -38, 29, -68, -3, 107, 43, -77, -93, 4, -30, -55, 58, 44, 26, -59, -63, 72, 24, -65, -65, -7, 7, 17, 38, 20, -67, 4, -49, 26, 85, 90, 50, -57, 23, -31, -41, -57, 68, 10, 28, -13, 55, 40, 9, -10, -56, -11, -7, -9, -18, 46, -81, -27, 63, 41, -57, 19, -27, 17, 75, 64, -6, -65, 93, 11, -10, 84, -21, 84, 59, 8, 83, -16, -84, 91, 35, -49, -37, 29, 14, 74, -3, 25, -12, -12, -98, -40, -14, -44, 12, -45, -56, 37, -105, -52, 34, 14, -88, -5, -70, 65, -2, -40, 12, 66, -55, 66, -60, -80, 12, 83, -10, 66}
, {-48, -64, -56, -97, 87, -42, 5, -62, 7, 11, 38, -22, -20, 66, 38, -6, -97, 45, 64, -52, -83, -33, -90, -60, 51, 96, 38, -35, 24, -17, -62, 92, -45, -23, -50, 58, -57, 2, 28, 48, -97, -87, -59, -64, -43, 56, -46, -87, -18, 24, 85, -67, 23, -51, 71, 83, 6, 90, 22, 18, 46, -24, -6, -41, 61, -24, -21, -77, -98, 66, 60, -80, 102, -85, -10, -41, 37, 82, -1, 60, 50, 17, 10, 11, -60, -35, 81, 0, -8, 18, 32, -52, 31, 52, -8, 46, -90, -47, 51, 58, -66, -65, 83, 74, -51, -80, 83, -7, 25, -1, 48, -49, 30, -93, -52, 22, -79, -103, 61, -13, 81, 67, 31, -92, -85, 72, 46, 17}
, {11, 71, 14, -78, 84, 15, 92, -65, 20, -19, -77, 7, -10, 5, -33, 49, 11, -33, 29, -75, 27, 56, -44, 0, -7, -33, -77, -107, -60, -47, -61, -20, 0, -51, 57, 17, 83, -73, -3, -26, 35, -84, -79, 49, -72, -44, 5, -42, -83, 48, -75, -80, 50, 59, 61, 93, -46, -31, 19, -53, -1, -29, 98, -69, -83, -17, 28, -74, -86, -77, -64, -4, 63, -68, -33, -54, 93, 26, 58, -59, 62, -89, 18, 32, -37, -96, -74, 85, 42, -30, -21, -91, 83, 42, 72, -78, 7, -3, -23, -6, -20, -83, -10, -79, 76, -20, -33, 69, 81, 60, 19, 51, 58, 41, 36, 15, -2, -57, 33, 17, 53, 23, -61, 1, -28, -57, -60, -14}
, {-89, -14, -33, -68, -3, -72, -83, -77, 55, -25, 53, 73, -26, -78, 91, -76, 49, 18, 65, 12, -53, -28, 23, -43, -88, -52, 72, 35, -71, -77, 42, 86, 77, -19, -33, 73, 55, 18, 16, 10, -43, -38, 74, -94, 49, -87, 40, -41, -65, 35, -69, 90, -96, -59, 1, 62, 81, -87, 29, 69, -12, -20, -59, -10, 24, 1, 74, -2, -47, 92, -87, -18, 34, -57, -60, -19, 46, 82, 4, -87, -41, 42, 95, -64, -83, 101, -11, 64, -44, 4, 66, 19, 27, -53, 20, -49, 20, 42, -44, 96, -64, 93, 80, 87, -27, 61, 48, 48, -34, -7, -59, 41, 31, 36, -52, 80, -79, -40, -58, 79, 73, -24, 65, -2, 86, -74, 22, 22}
, {53, -42, 77, 11, -2, -62, 41, 26, -91, -37, -61, 91, -56, -45, -29, 43, -111, 57, -12, -50, 10, -54, -52, -90, 13, -68, 4, -40, -65, 29, 60, 51, -60, 53, -35, -92, -94, 55, -23, 69, 61, -58, 33, 53, 109, -71, 29, -52, 75, -75, 65, -58, 45, -41, -99, 73, 30, -29, -74, -29, -94, -61, 5, -93, 21, 67, -39, 96, -9, 41, 33, -4, 51, -27, -74, -82, -49, 30, -41, -33, 38, -46, 90, 39, 78, -54, -37, 30, -96, -81, -11, -35, 13, 0, 5, 35, -3, 12, 39, -30, 90, -94, 92, 68, 79, -49, 85, 76, -46, -84, -15, 0, -68, 30, -26, -96, 5, -14, -93, -26, -49, 64, -85, 36, 70, -67, -19, 27}
, {29, -17, 99, 102, 19, 12, -29, -3, -34, -6, 54, -78, -76, -33, 14, -3, 50, 12, -35, -11, 41, 0, 94, 34, 31, -21, 16, 98, 26, 96, 8, 91, 61, -33, 5, 0, 39, -81, 35, -61, -28, 5, -81, 65, -73, 101, 3, -31, 23, 57, 7, 39, -12, -75, -75, 69, -43, 86, -74, -71, 58, -63, -96, -26, -43, -86, 9, 22, 48, -86, -33, 93, 89, -8, -18, -59, -20, 30, 16, -32, -80, 24, 30, 68, -73, 64, 68, 43, 16, -65, -40, -45, 2, 34, -24, 28, 52, -49, 59, 42, -92, -10, -98, 7, -13, -11, -62, 1, -90, -5, -85, 70, -88, 38, 90, -67, -88, -3, -75, -53, -15, 33, 95, 1, -76, -19, -58, 85}
, {15, -78, 4, 15, -28, -50, 41, -61, 50, 85, -73, -85, -60, 64, 54, 90, 27, -19, -37, -59, -33, 113, -35, 34, -68, -3, -12, -66, -67, 60, -66, 8, 6, 51, -51, 63, 36, 53, -24, -27, 34, 78, 0, -35, 10, 13, -26, 19, -19, -6, 59, 25, 8, 57, 47, -79, -75, -14, -68, -18, 14, -97, 101, -77, -29, -19, -97, 70, 7, -5, -45, -43, -18, -67, -79, 92, 62, -35, 77, 17, -21, 30, 96, 36, -55, 13, -85, 105, -4, -38, 80, 46, 78, 29, -30, -98, 37, 101, 52, -89, 80, 76, -99, -76, -66, -47, -49, 58, 0, -85, -24, -72, -26, 30, 59, 72, -76, 66, -19, 10, -63, 107, 38, 39, 95, -50, -95, 25}
, {-15, 31, 41, 54, 31, 95, 66, -10, -48, -40, -18, -92, -46, -48, 81, 52, -37, -55, 43, -39, 28, -67, 84, -31, 72, -35, -49, 26, -73, 42, 5, -16, -48, 64, 2, -59, -15, -79, 45, -63, -47, 94, -82, 17, 28, -41, -78, -71, -14, 16, 80, 12, -17, 72, -90, -4, 70, 91, -24, -56, -44, 49, -111, 6, -60, -53, 76, 62, 64, 95, 35, -42, 67, -64, -45, -38, 12, 13, -5, -85, 9, -97, 36, -107, -28, -46, -36, 52, 49, -63, -29, 26, 69, -24, -45, -51, 65, 7, 0, 86, 11, -66, -7, -40, -51, 23, 24, -63, 93, 0, 71, 0, 94, 59, -57, -45, -18, 39, -12, 48, -10, -30, 33, -28, 62, 19, -41, 11}
, {90, -4, -43, -5, 74, -31, -26, -44, 28, -49, 61, 13, 86, -49, 6, 57, -77, 72, -11, -4, -3, 76, 41, -85, -67, -36, -15, 5, -49, 60, -34, 38, -69, -96, -12, -31, 54, -30, -77, -89, -10, -41, 19, 108, 69, 4, 18, -55, 102, 38, -32, 34, 95, -69, -71, 55, -89, 47, 89, 91, -40, -44, -8, -22, -60, -67, 11, -95, -81, -7, 49, 48, -87, -3, 81, 48, -5, 75, 98, -93, -9, -66, 62, 87, 73, -16, -12, 89, -36, 0, 2, -61, -63, -56, -50, -70, 80, -18, -17, -63, -64, 73, 60, -2, 22, 63, -18, 37, 23, 21, 63, 77, -62, 18, 53, 34, -41, -33, 91, -47, -45, 4, -28, -70, -61, 49, 55, 106}
, {92, -7, 19, 45, -51, -19, 76, -49, 10, 75, 27, -63, -54, 19, 60, 21, 40, 91, 75, -6, -72, 91, -69, 24, 77, 77, -9, 94, 85, 98, 34, 37, -9, 26, -80, 102, -21, 27, -73, -77, 8, -30, -44, 1, 88, -73, -12, 14, 17, -35, -5, -87, 21, -24, -82, 20, -30, 65, -99, 79, 26, 93, 41, 40, -36, -79, 24, -23, -99, 25, -62, -53, -23, 92, -1, 46, 78, 7, 97, 85, 78, -96, 29, 92, -94, 26, -64, 43, 87, -33, 5, 78, 87, 55, -19, -37, -53, 44, 89, -25, 81, -24, 22, 56, -53, 89, -20, -50, 11, -8, 59, 45, 53, 92, 73, -14, 51, -95, -84, -55, 38, 90, -54, -84, -66, 102, 29, 59}
, {38, -17, -91, -5, 8, -15, -89, 76, -43, -65, 55, -72, 68, -33, -42, -84, -44, -55, -66, 16, 98, 78, 87, -97, 36, 17, -2, 91, 42, -37, -49, 87, 66, 29, -23, -16, -77, -6, 18, 63, -11, -8, 13, 87, 7, 40, -11, 8, -67, 25, 8, -81, -56, 20, -57, 61, -86, -89, 88, -55, 73, -22, 60, 86, 75, 91, 81, 31, -73, 58, -13, -107, -65, -41, 65, 25, -66, -101, 31, 25, -24, 72, 53, 96, -35, 70, -72, 100, -95, -54, -72, -81, 20, -91, 21, 42, 54, -67, 4, 20, -39, 94, 8, 43, 57, 76, 39, 76, -104, 93, 84, 57, -37, 88, -24, 46, -52, 95, 64, 8, 25, 86, -30, 24, 11, 60, 85, 86}
, {21, -2, -102, -72, -23, -62, 73, -91, 25, -60, -24, -86, 71, 10, -38, -76, 89, -18, -49, 9, -71, 93, -84, -58, -12, -33, -60, 64, -11, -2, 17, 14, 6, 77, -70, -8, 53, 27, -6, -50, 13, -63, 69, 23, 34, -14, 81, 80, -52, -53, 31, 16, -18, 41, -11, -81, 4, -94, -8, 61, -35, -80, -94, -32, -38, 4, 26, 27, 59, -83, 58, 17, -75, -36, 88, 71, -25, 68, 63, 60, -26, -23, 69, 0, -34, 78, -89, 12, 4, 27, -81, -30, 25, -16, 65, 92, -25, 70, 51, -34, 14, -78, 19, 38, -34, -37, -69, 84, -64, -33, -86, 62, 24, 4, -24, -30, 22, -2, 1, -51, 48, -87, -73, -67, -59, -10, 57, -20}
, {23, 86, -77, -106, -107, -73, 37, -69, 0, -71, 56, -38, 81, -9, -60, -92, -75, -52, -59, 31, 33, -86, -95, 20, -46, -21, 21, 30, -14, 67, -69, 2, -6, -28, -93, 84, -56, -75, -99, -45, 24, -94, 65, 84, 8, 2, 71, 1, 27, -65, 81, 0, 67, 82, -32, -61, -49, -21, -65, -51, -37, -23, -80, -17, 72, 31, -70, -46, 42, 13, 76, -80, 55, -100, -53, -67, -91, -86, -78, 76, -34, 47, 80, -6, 60, 47, -98, -93, 31, 24, -49, 68, 29, 89, -22, 95, -79, -49, -2, -82, 63, -51, -53, -39, 33, 7, -89, -92, 12, -87, -68, 10, 78, 48, -69, 63, -46, -52, 70, 48, 60, 71, 44, 88, -19, 77, -40, 87}
, {35, -84, 37, 48, 86, 45, -48, -63, -63, 56, 56, 70, 41, 75, 68, 15, -63, -20, 18, 22, -9, -3, 4, -11, -13, 87, -66, -14, -72, -70, 34, -31, 71, 95, 45, 55, -59, -74, 84, 79, 6, -71, 76, -25, 49, 71, 43, -5, 3, 0, 56, 46, -64, -89, -30, -69, 62, -75, -78, 53, 73, -95, -50, -61, 57, -35, -12, -90, 25, -25, -95, 26, -8, 59, 88, -2, 76, 48, 90, 91, -82, 47, 54, -78, -16, -60, 89, 81, 13, 86, 72, -8, 27, 56, 2, -73, 84, 0, -60, 30, -22, 79, 10, 101, -87, 59, -40, -10, -59, -103, 17, 13, 1, 13, -47, 35, 72, 1, -83, 42, -14, 20, 69, 55, -61, 58, -49, -13}
, {85, -19, 66, -24, -80, -5, 43, -43, 66, -22, 91, -32, 40, -97, -69, -93, -104, -15, -57, 33, 94, 48, -28, 64, 67, 92, -92, -12, 19, -6, -32, 52, 50, 54, -81, 61, 52, -76, -80, 60, -47, 40, -52, -14, 18, 55, 58, -7, -32, 32, -59, 10, 56, -18, 19, -5, -21, 37, -41, 13, 50, -10, -71, 32, -75, -27, -91, 0, 58, 75, -14, 41, -28, -40, -92, -58, 76, 34, -26, -16, 4, 76, -17, -16, 41, 59, -1, 4, -74, -81, -89, 69, 39, -11, 4, 99, 10, -69, 79, 51, 83, -62, 85, -23, -17, 26, 39, 80, 19, 66, -19, -27, -91, -52, 0, -62, 61, -21, -46, -45, 45, 47, 50, -87, 40, -43, -68, -44}
, {-99, -28, 89, -52, 83, -42, 83, -97, -5, -41, -85, -43, -102, -51, 101, 6, 36, 66, 90, -67, -58, -55, -26, -38, -49, 38, -58, 47, -59, -95, 40, 11, -66, -80, -90, -53, 6, 48, 24, -22, 36, -8, 84, -14, -17, -109, 38, 86, 30, -32, 91, -97, 31, -74, -87, -5, -67, 0, -40, -10, 24, -42, 55, -57, 0, -96, 33, 15, -40, 36, -78, 88, 25, 66, -83, -28, 12, 24, -55, 66, 15, -92, 23, -45, 6, 80, -98, 89, 91, 24, -27, -84, -78, 82, -29, -36, -28, -56, 33, -81, -6, 16, -76, 69, -71, -47, 53, 62, 92, -80, 88, -105, -10, 78, -54, 81, 71, -32, -108, -83, -72, 0, 5, 19, 85, -82, 26, -70}
, {23, -36, -26, 73, 37, -30, 87, 76, 37, -73, 45, 3, -34, 8, 69, 12, -58, 71, 86, -49, -58, -53, -68, -69, -51, -16, 29, 95, 13, -67, -56, 59, -8, 27, 28, 11, -88, -59, 46, 22, -41, 20, -37, 32, -16, -45, -40, -6, -28, -23, 31, 44, 69, 50, -72, 39, -67, -21, -14, 38, 43, -39, 36, -86, -39, -4, -23, 43, -53, 65, 1, 40, 9, 8, -51, 64, 0, -96, -42, -88, 93, -64, -42, -68, -37, -53, 36, 30, 32, 49, 62, -76, -32, 60, -23, 63, -58, -4, 15, 46, -95, 32, -50, -87, 98, -45, 7, 50, -34, 89, -27, -24, -92, 92, -12, 1, -73, 85, 69, 1, -51, 56, 73, 5, 58, -44, 28, 46}
, {-44, 18, -37, 17, -41, -31, 6, 75, 19, 7, -48, 44, 22, 95, -57, -79, 73, 11, 13, -26, 88, 0, 0, 83, -66, 92, -28, -34, -21, 56, 29, 75, -30, 29, -94, 82, -26, 87, -14, -31, -57, -70, 46, -65, 99, -14, -44, 83, -88, -7, -21, 16, -51, -10, 33, 5, -54, -72, 41, 8, 75, 45, 98, -37, -19, 55, -57, -41, -100, -60, -46, -55, -61, 36, -97, 80, -85, 4, -40, 89, -74, 37, -78, 0, -13, -81, 35, -58, 64, -91, 22, -20, -86, -84, 90, -85, -27, -2, -58, -27, -63, 20, 8, 0, -50, 4, -68, -61, -2, -8, -2, 2, 44, -54, 46, 18, 16, 57, 88, -2, -3, 28, -50, -36, -95, -9, -24, -87}
, {87, -21, 72, -77, -2, 24, -54, -30, 63, 93, -102, 15, -13, 12, 78, 94, 32, -60, -93, 102, -46, -7, -12, 7, -58, -37, -17, -106, -94, 75, 7, 24, 48, 37, 80, -67, -23, 53, 69, 82, 83, -19, -6, 91, 52, 5, -90, 67, -51, -80, 73, 43, 68, 64, 0, -39, 0, -49, 47, 46, -30, 0, -51, -100, 79, 35, 71, 0, 40, 39, -7, 91, -36, 62, -47, 62, 14, -30, 68, 79, -37, -1, -19, 39, 21, -10, 91, -10, -68, 50, 95, 8, 50, -19, -95, 19, 93, -13, 57, -60, 63, -75, 52, -91, -6, -34, -51, -44, 62, -45, 4, -99, -49, -70, -25, 24, -67, -53, -47, -44, -93, -49, -57, 5, 92, 77, -51, 37}
, {87, 97, -79, 52, 1, -101, 101, -24, -21, 73, -32, 44, 107, -88, 32, -53, -84, 88, -58, -26, -19, -29, 90, -11, 41, -54, 13, -80, -98, 25, 88, -92, -60, -92, 55, -65, 73, 22, -26, -49, 4, 76, -34, 84, 88, -87, 86, -13, 50, -25, -46, 66, 99, 79, -75, -33, 9, -43, 20, -9, -87, -79, -1, -36, -57, 81, -101, 83, -55, 76, 51, -65, -71, -84, -48, -107, 24, 9, 80, 80, 39, 45, 60, -36, 6, -89, -70, -98, -56, -4, 95, -60, -34, 20, -55, 61, 21, 79, 7, -15, -92, 84, 53, 87, 30, 87, 69, 79, 89, 72, -75, -2, -93, -39, -88, -2, -19, -2, 49, -59, 0, -44, 12, -43, 24, -88, 29, -14}
, {54, -22, -35, 63, 49, 59, 86, -50, 58, -6, 45, -9, -75, -29, -95, -40, -71, 87, 51, -74, 12, -83, 43, 82, -33, -46, -74, 50, 26, 13, 73, -49, 61, 2, 68, -48, 27, 81, 27, 48, -30, 72, 57, -73, 19, 73, -96, -37, 74, 66, -59, 28, 8, 0, 37, -19, 54, -1, -83, -15, -35, -30, 74, -48, -48, -29, -61, -46, 101, 84, 0, -2, 28, -69, 82, -35, -23, 59, 73, 34, -46, 23, -84, 97, -77, -23, -46, 20, -62, -50, -39, 70, -12, 17, -2, -16, -62, 44, -59, 85, 67, -5, -81, 43, -3, 24, 79, 84, 91, 85, 1, -72, -33, -68, -43, 34, -22, 58, 77, -59, 47, 58, -15, 42, -88, -87, 64, 17}
, {-36, 89, 3, 40, -9, -81, 73, 46, 28, 0, -27, -75, -55, -22, 52, 59, 53, 88, 18, 82, 37, -2, 12, 0, -45, 74, 16, -18, 52, -30, 43, 41, 79, -89, 18, -11, -29, 37, 18, 80, -19, 54, -28, 0, -90, 98, 56, -70, -26, 72, 39, 5, -55, 99, -37, -57, 34, 41, -8, 32, 90, 64, -62, 65, -34, 69, 33, 60, 0, 51, 43, -48, -8, 38, 55, -91, -90, -40, 82, 85, -37, -77, 91, -39, 5, 22, -89, -19, -60, 38, -51, -2, -53, 76, -71, -6, 10, -50, 89, 35, -103, 60, 14, 88, -73, 81, 1, 68, -8, 17, 11, 56, -29, -76, 83, -79, -79, 89, 38, 72, 47, -1, 88, 62, 25, -54, 46, 72}
, {-81, 45, -8, 19, -37, 44, -81, -49, -8, -18, 97, -67, -90, -21, 24, 63, -30, -29, 28, 86, -75, 86, 92, 50, 81, 9, -77, 18, -36, 36, 47, -35, -5, -72, 94, -34, -70, -14, 20, -81, 87, -59, 83, -30, -90, -9, -59, -36, -43, 27, -78, 76, 21, -92, 7, 13, -39, -52, 20, -8, -11, -66, 36, -8, 89, -66, -83, -6, -68, 52, -22, 3, -90, 73, -21, 57, 74, 18, 83, 68, -11, -79, 76, 83, 25, 14, -75, 12, -35, -28, 82, -13, 54, 7, -73, -57, -15, 72, 28, 68, 12, -18, -52, -26, -42, 39, -96, -27, 84, 44, -78, 0, 50, -16, -77, -50, 44, 48, 89, 94, -75, 77, 49, -50, 39, 70, 73, 79}
, {-69, 32, -91, -100, -9, -53, 5, 5, 7, 82, -27, 93, 53, -59, 85, -80, 45, 44, 52, -32, -57, 105, 40, -88, 68, -96, -69, 66, -62, 71, -47, 0, 6, 41, 65, -24, 51, -70, -30, 79, 63, -63, 35, -16, 7, -83, 78, 28, -37, -69, 3, -20, -59, 88, 59, 25, -30, -41, 88, -81, -93, -60, -49, 45, 47, -40, -58, 92, 75, 77, -45, 65, -33, 9, -18, 72, -51, 51, 0, 36, -66, -20, -39, -29, -88, 85, -44, -67, 95, -8, -68, 23, -57, 52, 36, 38, 11, -54, 16, -55, 53, 8, -67, -88, 67, -70, -63, 40, -67, 81, 32, -53, 47, -94, -75, -14, -73, 22, 66, 26, -38, -19, -44, 51, -57, 22, 82, 75}
, {-9, -30, -37, 62, -23, -6, -36, -60, 55, 2, -52, -84, -30, 84, -54, -31, 10, 98, 82, -11, 0, 16, -87, -2, 11, 66, -30, 72, -41, 75, 75, -49, -80, 88, 49, 40, -34, 79, 61, -7, 83, -22, 82, 7, 13, -47, 17, -53, -49, 79, 66, 58, 89, -55, -19, -55, -35, 25, -52, 41, -56, 91, 27, 54, 19, 87, 94, -6, 33, 56, -81, -66, -64, -92, -58, -63, 2, 51, 76, -45, -98, -7, -4, 51, 1, 20, 93, 86, 28, -43, 32, 18, 33, 68, -90, -42, -89, 33, 2, -10, -63, -87, 98, -8, 78, 39, 14, -22, -13, -10, -50, -92, -68, 58, 55, 41, 12, 7, -70, 64, -5, -36, -4, 61, -86, 9, 80, -32}
, {15, 0, 71, -96, 23, -4, -57, -68, -84, -74, -10, 7, 60, 76, 74, 82, -3, -18, 60, 68, -75, -42, 53, -18, 42, -6, -22, 35, -79, 1, -44, 58, -2, 91, 60, 73, -6, 29, -81, 18, -90, -38, -22, 35, -11, -41, 76, 62, -37, 55, 83, 33, -69, 86, -29, 26, 85, 13, 86, -76, 29, -62, 37, 33, 25, 34, 64, -85, -25, -52, -89, -50, 65, 32, -38, 72, 95, 48, 42, -58, -70, -88, -77, 36, -102, -23, -18, -27, -25, -74, -72, -42, 95, 40, -34, -87, 19, -5, -17, -32, -90, 16, 3, -19, 38, 69, 86, 23, 20, 33, 89, -79, -8, 87, -57, -74, 33, 73, 22, -37, 32, -80, 63, -16, -65, -15, 16, -84}
, {28, -56, 84, -22, -7, -63, 9, 37, 50, -76, 56, -56, 26, -66, 41, -24, -60, 96, 96, 29, -53, 84, -102, 43, -28, 38, -92, 40, -83, 30, 42, 87, -66, 70, 50, 40, -60, 85, -26, 63, 68, -12, 72, -22, -46, -108, 53, 46, -51, -16, 26, -77, 59, -8, 99, 25, 87, -98, 10, -19, 71, -83, 10, -56, 74, 61, -14, -18, -63, 49, 39, 50, 5, -48, 76, -49, 78, -44, 53, 29, -5, 66, -65, 39, -53, 11, 81, 60, 29, 100, 87, 53, 82, 13, 80, 79, 28, -100, -3, 27, -37, -18, 76, -14, -72, -25, -84, 27, -13, -44, -62, 44, -84, -45, 46, 72, 86, 41, 20, 23, -86, 40, 31, -2, 61, 99, -63, 5}
, {74, 79, 88, -105, -73, -20, 49, -76, 11, -16, 40, -74, 50, -16, -47, -70, -29, -13, -65, 37, -72, -91, -97, -8, -28, 56, -74, -73, 35, 38, -43, -70, 74, 81, -61, -95, -63, -69, -92, 16, 21, 43, -71, 33, 67, 9, 72, -84, 81, -95, -7, -24, 99, 65, -65, 17, -69, -3, 26, 75, -67, 71, -105, -81, -7, 39, 2, -40, -35, 40, -87, -44, 48, 33, 65, 90, -60, 91, -52, -37, -43, -8, 96, -36, -64, -47, 27, 66, 61, 39, 35, 44, -31, -69, 80, -13, 63, 93, 39, 24, -83, 18, -51, 5, -59, 6, 20, -30, 9, 39, -76, -25, 59, 5, 74, 5, 81, 69, 70, 66, 36, 8, 90, -100, -29, 21, 26, 15}
}
;

#undef INPUT_SAMPLES
#undef FC_UNITS