/**
  ******************************************************************************
  * @file    weights/fc.cc
  * @author  Pierre-Emmanuel Novac <penovac@unice.fr>, LEAT, CNRS, Université Côte d'Azur, France
  * @version 1.0.0
  * @date    24 march 2020
  * @brief   Template generating plain C code for the implementation of Convolutional Neural Networks on MCU
  */

#define INPUT_SAMPLES 128
#define FC_UNITS 40


const int16_t dense_16_bias[FC_UNITS] = {-7, -21, -7, -9, 23, 7, 18, -18, -19, 10, 5, -11, -5, -4, -10, -1, -10, -3, 6, 6, -16, 19, 1, -17, -6, 20, -17, -5, -14, -13, -16, -15, 4, 19, 11, -3, 14, 5, -17, 1}
;

const int16_t dense_16_kernel[FC_UNITS][INPUT_SAMPLES] = {{91, 42, 13, -8, -94, -79, -68, 26, -108, -105, 18, 68, -27, -113, -92, -66, -4, -11, 31, -118, -78, -34, -24, -33, 79, -4, -74, 7, -60, -19, -93, -33, 73, -24, -46, -29, -34, 45, -2, -5, 20, -59, 78, 55, 17, -68, 90, 1, 11, 42, -90, -27, -57, 21, -94, -68, -66, 26, 59, 37, 107, -42, 97, -59, 77, -35, 1, -48, -33, -41, -78, -70, 2, -2, -34, -81, -25, 25, -95, 86, -6, 64, -5, -38, -71, 42, 25, -43, -2, 73, -84, 29, 62, 102, -54, 96, 57, -1, -83, -73, 68, -30, -15, -76, -44, -51, 51, 9, -15, -91, 74, -90, -41, -66, -81, 71, 19, 82, 71, 0, 33, 27, -83, -93, -98, 47, -55, 26}
, {-83, -27, 50, 51, 2, 77, 17, -14, -54, 69, -74, 24, 52, -18, -45, 56, -93, -40, -96, -48, 88, 71, 104, 5, -26, 76, -104, 64, -59, -94, 86, -62, 27, 33, -75, -73, 67, -11, -94, -80, 57, 70, 99, -46, -43, -25, 92, -5, 65, 88, 28, -110, 4, 53, -15, -70, 37, 80, 1, -50, -11, -56, -3, -58, 59, -86, 79, -11, -47, -12, -87, 53, 79, -87, 51, -32, -16, 75, 86, 70, 47, -59, -98, -83, 11, 57, -37, 50, -56, -41, -23, 71, -70, 50, -36, -47, 20, 52, -67, 20, 64, -25, -37, 77, 93, 23, 59, 28, 48, -93, 92, -10, 70, -26, -93, -39, 76, 10, -23, 12, -3, 52, -82, 0, -15, -76, 0, 94}
, {68, 79, -26, 74, 47, 62, -90, 49, 113, -4, -60, 0, -27, 35, 62, 8, -86, 35, 25, 34, 50, -44, 48, 109, -76, -81, -47, 27, 89, -77, -37, 53, 101, -24, 49, 12, -43, -44, 70, 74, 34, 83, 66, -83, -29, 75, 90, 51, -65, -60, 92, 62, -84, -93, -56, -36, 96, -22, -128, -88, -119, -52, -29, -58, 104, -2, -42, 60, 104, 50, -89, -108, -86, -2, 64, -24, 0, 53, 23, 8, -2, 32, -90, -2, 77, 94, -46, 35, -51, 87, 15, 79, -61, -105, -6, 38, -63, 92, 64, 38, 63, 18, 12, 133, -60, -78, 48, -19, 35, 1, -57, 33, -71, -79, 77, -95, 38, 4, -30, 27, -91, -77, -29, 28, 44, 104, 79, 84}
, {-33, 77, -119, -3, 69, 81, 52, -2, 3, -40, -86, 30, -30, 77, -41, -12, 23, 50, 106, -86, 96, 35, -94, 64, -57, -1, -61, 61, -31, 52, -106, -23, -46, -3, 82, -84, -35, 18, 53, 3, 97, 21, -2, 5, 59, 96, -15, 102, -36, -11, 43, 56, 91, -44, -53, -40, 6, 30, -42, 14, -103, -12, 69, 78, 64, -58, -40, -33, -55, 66, 70, -79, 28, -41, 5, -18, 7, 43, -74, 40, 44, 83, 61, -14, 13, -55, -101, 71, 26, -86, -24, -19, -98, -69, -19, 11, 54, -43, 20, 46, -58, 110, 11, 129, -90, 27, -91, -91, -58, -50, 71, -50, 87, 51, 61, -79, 6, 74, -40, 55, 52, -93, 112, 51, 71, 37, 52, -1}
, {48, -20, -81, -79, 96, 25, 54, -83, 119, -39, -48, -59, -13, -9, 50, -56, 32, 60, 94, 31, -90, -100, -59, -28, 54, 9, 15, -122, -15, -22, -49, 27, 48, 4, 34, -51, -14, -16, 60, 86, 8, -69, 12, 51, 31, 80, -89, -24, 24, -77, -45, 112, 75, -87, 40, 48, 56, -28, -31, 76, -102, -44, 28, 95, 35, 18, 22, -4, 63, 140, 57, -11, 56, 144, 2, 80, -58, -16, -44, -29, -14, -17, -82, 58, -76, 83, 107, 29, 112, -6, -56, 19, 56, 106, 32, 69, -67, 26, -37, -16, -1, 18, -23, -84, -30, -88, -60, 21, -36, 78, 96, 110, 32, 52, -40, -50, -20, -51, -38, -3, 46, -8, -81, -98, -96, -60, 53, -31}
, {4, 60, 100, -11, 96, -62, -27, 37, 7, -19, -61, -64, -58, 68, 14, 84, -11, 27, 0, 91, 11, 3, 85, 29, 5, 59, -27, -122, 51, -49, -42, -30, -26, -94, -10, 32, -29, -16, -90, 92, 5, -54, -63, -52, 66, 6, 37, 8, 105, -94, 51, 35, -36, 83, -83, -79, 51, -79, 56, -55, -7, 33, 33, -45, 38, 60, 7, -80, -3, 72, 49, -49, -16, 77, -37, 31, -78, 85, -41, -31, -53, 45, 61, -62, 15, 3, -84, -7, 82, -38, -92, -16, -89, -22, 86, -50, -38, 3, -16, -3, 74, -56, 17, -98, -67, -38, -76, 16, -47, -36, -18, -23, 91, 78, 105, -68, -88, -84, -91, -10, -25, 106, -35, -5, -41, 76, -65, -64}
, {-43, 23, 94, -44, -72, 18, -56, -69, 38, 71, 82, 49, -36, 34, 4, -103, 28, 27, -85, 53, 22, 56, 65, -28, 30, -90, 41, -136, -82, -21, -48, -64, 9, -29, -39, -30, 52, -46, 59, 83, 14, 104, 24, -64, 72, -59, -71, 67, 28, -35, -83, -25, 19, -3, -18, -88, -9, 58, -41, -21, 85, -49, 80, 32, -4, -66, 30, 75, 95, 28, -15, 67, 45, 122, -51, -1, -66, -45, -1, 50, -57, -52, -42, -37, 60, -91, 46, 6, 119, -83, 21, 90, 35, -42, -55, -90, -30, -77, 88, 81, -30, -8, -80, 12, -86, 37, -97, 69, -32, 96, -68, 51, 58, -49, 37, 24, -76, 10, 72, 63, -13, -32, 3, 62, -75, -42, 68, -6}
, {73, -4, -58, 0, -54, -31, -77, -92, -137, -47, 82, 75, -61, 61, 42, 80, 13, 7, -92, -72, 61, 103, -29, -17, -54, 88, -2, 102, 58, -2, 19, 21, -42, 13, -79, -38, 43, 35, -96, 40, 16, -4, -61, 51, 4, 57, -40, 61, -75, 52, -10, -68, 9, -51, 28, 53, -75, -76, -33, 90, 20, 0, -20, -37, 51, -8, 52, 11, -100, -50, -77, 77, -4, 33, -3, 12, -73, -19, 78, 86, -80, 77, 37, 7, 2, 53, 24, -41, -102, 18, 50, 77, -96, -65, -4, 59, -5, 58, -40, 64, -5, -80, -51, 23, -3, -47, -9, -23, 14, -67, -72, -119, -2, -89, -102, 88, 69, -79, -86, 65, 39, -8, 44, 116, -54, -35, 32, -27}
, {20, -20, -51, -88, -67, -92, -38, -30, 36, 66, 34, -58, 86, 0, -49, 9, 26, -65, -9, 25, 38, -12, 26, -41, 86, -47, -31, 87, -15, 37, -71, 30, 73, -18, -7, 80, -87, -18, -25, -68, 48, -72, 35, -71, 38, 75, 19, -2, -33, 69, 81, -76, 69, -8, -61, 23, -33, -70, -15, -62, 89, -50, 94, 70, 34, -85, -62, -17, -102, -124, -42, -69, -11, 23, -11, 51, -87, -6, 24, 69, 33, 26, -30, 24, 59, 22, 87, 7, 52, -77, -35, -86, -74, -32, 72, -77, 7, -57, 69, -49, 57, 76, 17, 29, -52, -89, 35, 65, 44, -55, -63, 30, -87, 41, 80, 92, 33, -93, 12, -19, -12, 19, -89, 89, 95, -76, 43, 53}
, {90, 102, 77, 15, -24, -91, 3, 90, -8, -81, 46, 96, 70, -29, 59, -74, -37, 51, -59, -60, 22, 62, -34, -77, -24, -90, 44, 54, 114, 126, 104, 56, -1, 39, -91, 83, -73, 37, 61, -60, -97, -37, -3, -70, 66, 0, -19, 1, -64, 68, 33, 77, 83, 78, -66, 19, -89, -80, -24, 45, 37, 66, 59, -39, 15, -87, 80, -84, -106, -64, 67, 100, -42, -30, -61, 57, 65, 8, -9, 30, -77, 43, -7, 76, 41, -14, 84, 63, 1, 64, -11, 22, 10, -16, -4, 100, 46, 3, 2, -42, -66, -114, -87, -81, 95, -80, 111, 79, 48, 13, 50, -80, -20, 15, -7, 31, 13, -28, 10, -54, 39, 55, 1, -38, -70, -34, -83, 47}
, {50, -13, -3, -4, -18, 9, -33, 26, 35, -21, 92, 38, -3, -61, -68, 10, -53, -81, -7, 113, 104, 35, -84, -26, -72, -60, 69, -40, 58, -96, -84, 46, -59, -31, -52, -31, -40, 21, -48, 55, -86, -44, -58, 92, 1, -22, 40, 84, -9, -28, 89, 5, 26, 40, -48, 15, 36, 79, -112, -22, -77, -67, 17, 19, 114, -4, 35, 59, -80, 68, 43, -67, -45, 102, -4, -37, 31, 49, 67, 64, -17, 16, 25, -20, -26, -7, 90, -85, -32, 8, 91, 61, -20, -19, -23, 29, -69, -59, 84, 87, 46, 90, 77, 117, 15, -42, -36, 72, 59, 73, -11, -17, 59, -49, 58, 33, -19, 0, -75, 44, -46, 8, -48, -92, 57, 13, 20, -65}
, {51, -52, -49, -70, -67, -66, -24, -57, 15, -46, 96, 5, 82, -61, -44, 17, -20, 55, -69, -70, 97, 56, 64, 84, 90, 15, -40, 139, 9, -76, 3, 12, 77, 71, 56, 41, -45, 91, 69, 56, -29, -29, 0, 4, 43, -72, -68, 27, -82, 85, -67, 5, -61, 54, 94, -62, -96, 94, 53, -3, 94, 53, -21, 40, 98, 6, -94, -83, -69, -3, 64, -9, 15, 26, 80, -65, -22, -44, -36, 42, -27, -13, 54, 103, -82, 28, 84, -63, -48, 62, 78, -7, 62, 84, 12, -56, -92, 62, 16, 66, 46, -45, 88, -73, -60, -109, 85, -4, 34, -93, 85, -49, 81, 4, 3, 15, 121, 40, -31, -52, 81, -28, 26, 78, 6, -64, 89, 1}
, {-17, -73, -27, 85, 38, 10, -10, -17, 8, 81, -43, 89, -9, -45, 11, -23, -5, 65, -52, 38, -33, -86, 10, 16, -13, -14, -14, 65, 31, 53, -43, 10, 49, 31, -13, -13, 27, -28, 41, 39, -5, 28, -69, -94, -104, -40, -71, 54, -49, -75, 47, -83, 74, 48, -44, -2, -41, 77, 82, 29, 117, -94, -69, 81, -81, 61, -8, 18, -65, -74, 38, 1, 56, 28, 75, 32, 81, 28, 29, 18, 48, -89, 90, -48, -23, 70, -6, 85, -99, -79, -56, -3, 61, 43, 2, 34, 16, 6, 35, 33, -17, -5, 72, -122, -50, -17, -66, 61, 36, -26, 38, -82, 78, -66, -58, -32, -99, -34, -47, 89, -82, 43, 89, -68, 42, -28, -19, -56}
, {82, -62, -60, -50, 27, -51, -49, 8, 61, 87, 16, 33, -35, -63, -55, 69, -64, -51, -25, 45, -9, 42, 39, 98, -33, -40, 63, 7, -7, 35, 11, -86, 59, -91, -31, -16, -25, 69, 77, -80, -57, 4, -25, -65, 5, -41, -40, 82, 64, 104, 52, 39, 37, -103, 52, 18, 78, -62, 26, 39, -85, 67, -69, -5, 26, 66, -43, 11, 85, -18, -98, 30, -6, 0, 59, -7, -77, -18, 104, 27, -43, 50, 74, 60, -90, -56, -55, -36, -50, -65, 84, 46, 30, -21, 52, -49, 62, 55, -84, -68, 44, -17, 1, 122, -48, 39, -37, 42, -100, 36, -85, -61, -38, -94, 32, -29, -69, -4, 1, 48, -19, 14, 83, 23, 61, -25, -22, -18}
, {-55, -39, 20, -15, 80, 20, -7, -5, -66, -59, 33, 83, 80, -18, -93, 57, 1, 84, 63, -6, -12, 33, -82, -41, 65, -33, -45, 111, 33, -8, 53, -61, 74, -78, 85, -41, -64, -74, 60, -74, 29, -27, -32, 75, 16, 17, 4, -97, 23, -12, 11, -7, 66, -92, 51, 9, -85, -58, -70, -42, 9, 53, -5, -26, 90, -62, -68, -71, -23, 32, 44, -17, -65, 1, -70, 65, 0, 67, -45, -90, 35, -2, 9, 5, 27, -32, 60, 21, 53, 19, -63, -85, 89, 37, -46, 100, -102, -82, 13, -19, 28, -34, -58, -32, -83, -24, 90, 18, 55, -30, 93, 60, -77, -91, -83, 51, 135, 13, 12, 27, 60, -67, -29, 18, -65, 3, 38, 0}
, {-19, 23, 30, -20, 40, 84, -30, -30, 42, -50, 64, -86, 11, -71, 39, -81, -41, 59, 60, -27, -65, -16, -5, 64, 55, 10, -94, -39, -2, 50, -78, 98, 42, 11, 16, -47, 63, 70, -36, -50, -11, -89, 72, -28, -69, -21, 79, -49, -1, 55, 79, 44, 58, -88, 31, -89, 29, 15, -52, 54, 12, 43, 48, 88, 90, 22, -88, -10, 5, 91, -11, -94, -42, 9, 44, -92, -99, -36, -10, -74, 67, -72, -77, 10, -58, 90, 75, -87, 56, 61, 17, -29, -18, 43, 86, 94, -97, -39, -32, -55, 64, -36, -80, 95, -44, 56, -50, 76, -43, 51, 62, 99, -102, -28, -31, 0, 88, 71, 70, -18, 18, 22, 75, -36, -75, 36, 48, 80}
, {102, -84, -30, 43, -11, 62, 67, -66, -51, -19, 53, 91, 40, 36, 72, -46, -61, 93, -47, -11, -5, -80, 73, -20, 41, 50, 13, 47, -23, 102, 28, -69, 90, 37, 33, 46, 54, 52, -16, -68, 52, -70, -11, 1, 35, -42, 15, -77, 32, 6, 84, -104, 58, -21, -57, 14, 11, 55, -34, 92, -23, -20, 64, 68, -6, -41, 73, -18, 27, -12, -47, -69, 72, -48, 8, 54, 25, -61, -18, -62, -90, -48, -20, 79, -52, -13, 58, 89, -34, -5, 2, 97, -19, 83, 75, -11, -38, 73, 39, -60, 0, -38, -22, -63, -62, 26, 80, -44, 101, -99, 24, -51, -62, -21, 44, -46, 115, -86, -88, -57, 44, 7, -93, 17, 29, -1, -19, 8}
, {11, 28, -62, -37, -82, -30, 6, 12, 97, 96, -33, -39, 7, 57, -27, 77, -23, 72, -15, 86, -70, 90, -17, 94, 33, 70, 24, -10, -57, -11, 12, 87, 73, 1, 44, 37, -23, 47, -60, -27, 99, 11, 0, -96, 55, 15, -93, -42, -29, -57, -67, -38, 60, 89, -7, -66, 11, 46, -53, -1, -121, -47, 40, -33, 37, 65, 37, 33, 97, 72, -99, -72, -88, -33, 81, 9, 92, 77, 105, -79, -26, 53, -29, -25, 22, -20, -9, -56, 55, -97, -22, -78, -22, -27, 92, -91, -14, 52, 73, -85, -96, 58, 44, 95, 71, -55, -1, 52, -24, -6, 39, -13, -50, -74, 84, 34, -92, -44, -24, 68, -44, -46, -62, 1, -1, 41, -12, -19}
, {111, 4, 78, -46, -60, -72, 5, 112, 5, -66, -86, -18, -42, -61, -21, -92, -50, 52, -69, -69, 75, -62, 44, -32, 22, 62, -38, 114, -23, 3, -11, 13, 99, -47, -41, 42, -38, 51, 70, -35, 71, 55, 83, 3, -44, 20, 34, 15, 84, 12, 8, -82, 80, -87, -78, 88, 11, -50, 3, 33, 28, 69, -62, 73, 40, -21, 87, 45, -23, -81, -42, -38, -1, -54, -5, 55, 45, -19, -47, -67, 87, 11, -47, -53, 94, -21, 73, -56, -60, 48, 42, 0, 26, 33, 57, 78, -44, -74, -28, -48, -74, -58, 26, -92, -82, 13, 112, -4, 84, 7, -75, -109, 16, 37, -25, 31, 82, 29, -28, -54, 73, -32, -21, -92, 37, 36, 2, 61}
, {-40, 30, -107, -78, 25, 69, 51, 3, 68, -17, -72, -71, -78, 51, 11, -15, 52, -86, 95, 88, 68, 83, -67, -11, 14, 61, 13, -77, -88, 24, 20, -39, 85, 3, 27, -63, 7, 92, 80, -37, 35, -93, 33, -56, 54, 54, -1, -81, 33, 19, 72, 68, 14, 20, -4, -46, 52, 27, 32, 47, -114, 3, -101, -3, 115, -14, 79, 26, 85, 64, -47, 29, 23, 136, -28, 16, -41, 74, 47, -75, -10, -23, 77, -67, -64, 24, -70, 44, 34, -40, -13, -70, 21, -27, -39, -27, 1, 21, -75, 76, -13, 23, 84, -7, -41, -60, 23, -93, -90, 102, -64, 87, -85, 41, -18, -12, 83, -2, 69, -31, -34, -81, 25, 15, -72, 106, 5, 71}
, {80, -13, -23, -60, 46, -96, -10, 84, 19, -101, 41, 95, 52, -38, -51, -60, 90, -9, 21, -30, -43, 75, 63, -19, 2, -25, 54, 19, -1, -18, 83, 19, 17, 79, 53, 0, -61, 70, 89, -11, -83, -1, -32, -77, 47, 17, 95, 46, 70, 88, 67, 61, -20, 31, -20, 76, -19, 90, 70, 73, -37, 89, -4, -98, 39, -28, -21, 1, -45, -129, -23, -65, -11, -111, 74, -36, 64, 80, 9, -72, 20, 99, 31, -57, 28, 86, 50, -53, -7, -72, -83, 89, -95, 4, -57, -58, -22, -5, -79, 8, -30, -30, 100, 95, -42, -79, 23, 95, 63, 53, 7, -10, 74, -21, 61, 7, -11, -43, 52, 16, 85, 1, 39, 90, -50, 14, -67, 15}
, {1, -53, -28, 69, -62, 98, -6, -61, -4, 59, 47, -35, 88, 71, 115, -28, 57, 60, -85, 47, 8, -88, -99, -8, -85, -72, 90, -117, 53, -39, 58, 95, -98, -63, -60, -35, 85, -78, 5, 81, 7, 18, -89, 80, 56, 19, 9, 108, 57, 50, 46, 42, -69, -18, -56, -97, -38, -84, -41, -39, 8, -67, -38, -40, 76, 17, -75, 11, 105, -3, 5, 52, -10, 17, 25, 53, -9, 49, 102, -11, -41, 69, -4, -10, 107, -87, -77, -53, 9, -46, -29, -31, -79, -78, 34, 5, -18, 89, 68, 106, -54, -62, 2, -87, 0, 36, -73, -65, -29, -1, -16, 48, -14, 12, -38, -54, -38, 46, 40, 90, -52, 20, 54, -77, -3, 9, 25, 2}
, {-11, 86, -5, 15, 11, -3, 10, -27, -4, -21, -19, -14, -51, 89, 5, -11, -56, 99, 28, 75, 99, 12, 86, 112, -5, -64, -41, 98, -10, -112, -86, -67, 3, 96, -15, -75, 34, 83, -25, 31, -60, 85, -66, -41, 45, -27, 16, -54, -78, 72, -4, 13, -45, -125, 71, 25, -58, 16, -71, -63, -69, -88, -32, -17, -59, 92, -68, -28, -89, -82, 71, -80, -48, 69, -65, -85, -93, -76, 47, -47, -86, -2, -8, 35, -50, -37, 34, -52, -53, -44, -57, -16, -40, -89, 9, 1, -39, -55, 77, 77, 15, -26, -29, 1, -81, -3, 82, 16, -8, -1, 4, 0, 27, 22, -17, -32, 92, -81, -27, 83, -59, -44, -39, -102, -73, 55, 52, 88}
, {-80, 69, -48, -43, 88, 99, 64, -15, -110, -45, -65, 19, -19, 67, 74, 28, -47, -55, 17, -76, 46, 65, -46, -28, 14, -43, 72, 128, 24, 18, -62, 27, 82, 66, 51, -77, -41, -15, 58, -11, 7, -79, 99, -16, -87, -80, -28, -30, -30, 69, 78, 14, -13, 46, -92, -22, -69, 7, 25, -53, 50, -17, 106, 80, -78, -83, 73, -66, 82, 57, 82, 38, -12, 15, 92, -88, 33, -37, 71, 12, 94, 58, 67, 14, 27, 3, 48, 52, -63, -15, -78, 39, -39, 46, -63, -85, 100, 68, 41, -114, -32, -119, -2, 1, 61, 114, 17, -59, 84, 44, -48, -110, 83, -100, 73, -55, 58, 52, -73, 64, 92, -40, 12, -60, 49, -8, -58, 39}
, {-16, 39, -75, -25, -63, 77, -34, -101, 92, -15, -6, -82, 61, 72, 63, 101, 82, 70, -70, 10, 67, 56, -100, 109, -25, -80, 72, 24, 6, -124, 63, -5, 35, -87, 96, 41, 0, -3, 28, 48, 39, 46, -96, 52, 46, 59, -64, -75, -11, 99, -30, 104, -18, 44, 47, 48, 13, -70, -6, -109, 14, -14, -113, -43, -40, 15, 86, 74, 43, -37, 45, -29, -18, 7, 33, -68, -100, 39, 70, -83, 75, -7, 2, -27, -16, 49, 33, -79, 18, -18, 17, -84, 57, -44, -12, -58, -96, -7, 76, 63, 51, 104, -54, 18, 59, 63, -70, -21, -93, 67, 58, 57, -93, -85, 66, 62, 109, 57, 7, -85, 22, -44, 28, -1, 57, 30, 4, -43}
, {-23, 30, 23, 28, 65, 7, -19, 69, 83, -60, -85, 99, 89, -66, 60, -60, -27, -38, -2, 16, 2, -104, -22, -89, -66, 63, 12, -22, 66, 120, 99, 74, 35, 11, -32, -23, 77, -9, 50, 23, 7, -24, -87, 66, 67, -23, 36, -76, 81, -44, 88, 33, 32, 80, -62, -38, -16, 0, 109, 56, 49, -23, -4, -94, -95, -53, 55, -39, 92, 6, 112, -44, -40, 41, -76, -87, 4, 6, -16, -67, -4, -37, 29, 98, -30, 83, 84, 26, -7, -35, 53, 49, -40, 39, 40, 57, 42, 72, 85, 35, 11, -103, -56, 66, 74, -17, -76, -8, -11, -12, 5, 63, -80, -37, 47, -70, -61, -53, -76, 55, -15, 91, 11, -29, -18, 47, 84, 17}
, {83, 36, -7, -76, 55, 31, 100, 38, 14, 0, 27, -20, -77, 61, -11, 101, -98, -73, -79, -58, 79, 58, -44, 9, 23, 39, -59, 156, -8, -77, -31, -12, 55, 73, -58, -28, 50, 75, -13, 40, 52, -52, -35, 71, -69, -49, -48, 56, 37, 27, 42, 52, 79, 39, -58, 37, -50, 39, -2, -30, -52, 72, 56, 40, 37, 27, -68, -74, 75, -54, 87, 20, -63, -63, 80, 98, 96, -80, 1, 72, 88, -15, -98, -5, -43, -48, -79, -49, -88, -81, 38, -68, -53, -83, -36, -82, 35, 61, -90, 38, -59, 76, 107, -19, 42, 59, 43, 14, -5, 2, -75, 39, -76, 3, -66, -80, 4, -65, -33, 21, 66, 0, -71, 9, 71, -47, -18, -57}
, {38, 93, 19, 60, 2, 12, -68, 93, -121, 73, 7, 101, 36, -66, 20, -84, 26, 5, 18, 46, -44, 59, 0, -68, -91, -77, 84, 68, 95, -34, -42, -86, -79, -40, -90, -4, -68, 31, -102, -100, 2, -5, -49, -54, -67, 17, -30, 73, 19, 24, -57, -29, -49, -32, 22, -25, -55, -97, 1, 76, 51, -31, -34, -87, -55, -76, 0, 55, 7, -96, 80, 25, 28, -142, 80, -52, 12, -88, 22, -101, 58, -31, 9, -44, 5, 68, -9, 19, 92, -39, -62, 6, 87, 77, -72, 59, 108, -23, -32, 31, 97, -84, 76, -119, 95, -43, 41, -42, 51, 2, 76, -68, 82, -2, -91, 61, 75, -93, -67, 24, 87, 109, -22, -10, -10, 47, -8, -101}
, {-28, -62, 95, 97, 5, 29, 81, 6, 27, -70, 91, 35, 85, 41, -45, 47, 79, -18, 67, 29, 52, -29, 35, 69, 26, -29, 80, 135, -98, 79, 55, 25, 12, -60, -24, 82, -5, 69, -92, 47, 11, -41, 102, -103, 30, 84, -89, 61, 53, -14, -27, -21, -28, 114, 1, -2, 68, 43, 73, -14, 9, 70, 102, -71, 7, -107, 89, -73, 65, 0, -52, -72, -35, -29, -37, 20, -48, 49, -32, -17, -28, 0, -71, 52, -48, 80, -87, 48, 65, -25, 73, -11, 84, -51, -68, 76, -25, -57, -51, -28, 72, -72, 42, 4, 26, 21, 80, 60, -7, -33, -56, 70, 74, -43, 86, -66, -46, 21, -2, 79, -52, -47, 84, 92, -21, 5, -73, -34}
, {19, 22, -93, -81, -47, 91, -88, 29, -25, -113, -42, -2, 66, -20, -98, 89, -33, -27, 45, -105, 47, 74, -74, 91, 16, -24, -20, 14, 41, 70, 46, -60, -50, 53, 1, 38, -9, -13, 83, -12, 42, -31, 23, -50, -92, 32, -3, -38, -93, 86, 78, -63, -5, -71, -9, -2, 4, -38, 19, -67, -54, 21, -3, 7, 79, 25, 69, -42, -63, -175, 82, -21, -6, -18, 67, -44, -26, -95, -48, 28, 87, 67, 29, -11, 53, -18, 106, 34, -104, 23, -30, 86, 93, -21, 11, 90, 19, 5, 29, -69, 59, -54, 101, 22, -33, 47, -68, 69, -62, 15, 55, -35, -93, -12, -26, 42, -38, -79, 44, -5, -74, -50, -50, 54, -78, -59, -24, 34}
, {-124, -26, -31, -1, -88, 33, -41, -7, -90, -47, -81, 44, 73, 30, -47, 0, 45, -83, -70, 7, -48, 6, -60, 31, 64, -72, 1, 69, -75, -60, -20, -72, 37, 87, 30, -30, 16, -36, 72, -17, 76, -9, -9, -134, -54, -3, -99, -35, 6, -52, -73, -61, -67, 106, -17, 50, 37, -11, 81, 30, 83, -78, -24, -83, 54, -30, 16, -91, 25, -59, -64, 15, -35, 46, 97, 39, -4, 52, -48, 17, 48, 19, 60, -28, -96, 79, -42, 81, 18, 40, -43, 17, -91, 56, 0, -50, -26, -48, 20, 24, 75, 80, 2, -18, -1, 94, -53, -69, -25, -27, -7, 52, 75, -45, -69, 9, -59, 93, 48, -43, 70, -36, 41, 74, -50, 14, -69, 16}
, {-76, -55, 13, 31, -51, -49, -32, -15, 42, -96, -15, 97, -62, -56, -29, 7, 16, -65, -73, 5, 22, 87, 58, -24, 87, 51, -45, 128, 95, -75, 42, 46, -91, 66, -43, -16, -67, -33, -49, -61, -10, -27, -38, 21, 47, -22, 11, -61, -16, -77, 34, -28, 2, 93, -99, 83, -93, 58, 65, 14, -2, 60, 112, 78, -74, 12, 84, 40, 12, -110, 61, 68, -32, 4, 27, -54, -37, -55, -34, -80, -82, 81, -19, 92, -34, 21, -91, 91, -111, 9, 69, -98, 79, 68, -18, 29, 0, -77, -50, -110, -28, 3, 22, 64, 84, 47, 64, 82, 100, -24, -53, -69, 100, 76, 26, 16, 42, -90, -37, 89, 2, -49, -114, 14, -37, -81, -43, -86}
, {-62, 93, 41, 25, 21, -33, -1, 103, -50, 42, 46, 87, -68, -35, 27, 92, 85, 100, 12, -35, 13, -42, -1, 33, -30, -46, -60, 133, 42, 3, 5, 63, 97, 71, 57, 85, 37, 39, -71, 24, 39, -42, -36, -10, 93, -63, 1, -76, -36, 96, 14, 20, 29, 65, -66, 73, -78, 88, 40, -67, 40, -29, 38, 84, -61, 41, 23, -24, -39, -65, 16, -40, 3, -93, 47, 67, 66, -60, -96, -28, 54, 4, 77, 43, -82, 86, -56, 76, 20, 93, 79, -81, 22, -22, -59, 74, 0, 27, -75, 73, 90, -106, 86, -81, 68, -3, 59, 59, -14, 61, -54, -84, 33, -37, -59, 19, 11, 29, -78, 89, 42, 0, -18, -18, 41, 11, -78, 97}
, {-46, 71, 90, -55, -93, 3, -7, -55, -53, -54, -17, 68, -29, 94, 55, -47, 26, -82, 14, 36, -32, -15, -34, -59, 35, -97, 86, 38, 25, 73, 97, 63, -24, 7, 31, -67, 45, -34, -57, -74, -102, 57, 22, 51, -79, 17, 45, 76, -18, -82, -54, -78, -8, -29, 15, 85, -32, -93, 100, -70, -47, -42, -42, 33, -98, -55, 63, 11, 13, 102, 75, 72, 55, -34, 59, -70, -45, 6, -75, 92, 55, -83, -55, -8, 93, 60, -81, -71, -43, 78, 66, -60, 5, 76, -53, -33, -37, -66, 28, 97, 27, 26, -90, 40, -26, 91, 67, 80, -66, 52, -15, 34, -12, 28, 59, -19, 12, 15, 34, -67, -6, 105, 26, -78, -16, -91, -82, -122}
, {-87, 50, 14, -53, -31, -7, -66, -16, 95, 92, -18, 28, 13, 47, 66, -73, -45, 1, -67, 21, 84, 1, 6, -6, -40, -86, 83, -74, -71, 67, 6, 8, -31, 32, 26, -51, 74, -20, 18, 59, -91, -59, 43, 59, 49, -63, 59, -21, -23, -41, 2, -88, 85, -76, 81, 76, 78, 19, -89, 66, 31, 15, -74, -11, -25, 20, 2, 20, 10, 132, 0, 87, 22, -37, -68, 71, 54, 9, 87, 79, 8, -61, -41, 47, 52, -57, 37, -28, -34, 87, -94, -78, -38, 28, 95, 75, 22, -80, 8, -77, 26, 48, -50, 16, 92, -10, -70, 16, -96, 28, 15, -9, 82, -67, -80, 48, 26, 45, -52, 15, -35, 5, 81, -18, 39, 70, -72, -4}
, {-89, -35, 37, -65, 59, -58, 62, 39, -42, 53, -6, -52, -85, 17, 4, -19, 53, -107, 38, 28, 63, -15, -74, 39, 30, -78, 25, 33, -31, -79, 77, 0, 27, 76, 59, -80, 64, 76, -25, -42, -55, -83, 58, -82, 7, -60, 53, 8, 21, 6, 77, -29, -7, 91, 35, -63, 86, 1, 81, 35, -35, -55, 35, -72, -50, -67, -33, 43, 85, 108, 43, -47, -40, 6, -85, -16, 70, -27, -68, -77, -17, -8, 45, -52, 87, -50, 29, 28, -26, -61, -28, 9, 82, -61, -60, -42, 65, -36, 54, 18, 31, -36, 24, 64, -51, 1, -66, -3, 49, -63, -50, 102, -9, -52, 78, 3, -2, -32, 47, -58, 46, -97, 30, 83, 29, 91, 59, -118}
, {-2, 20, -46, 81, 11, -37, -48, -8, 38, -38, 71, 98, 63, -45, -62, 66, -68, -28, 58, 26, 78, -90, 26, -63, 9, 69, 12, -16, 23, 98, 3, 84, -90, 44, 17, 7, 9, -19, -35, -18, 57, -59, 68, 80, 65, -35, 50, -39, -81, -62, -20, -73, 29, 84, -7, -76, 34, -33, 137, 83, -42, -8, -57, -78, 23, -52, -42, 8, -70, -37, 41, 5, -17, -77, -93, 78, 30, 42, -80, -7, -5, -53, -64, -80, -17, 3, -44, 48, 108, 47, -47, 14, 51, 52, -93, 18, -66, -33, 97, -88, 62, -74, -47, -56, -67, 63, -40, 83, -47, -61, 87, 6, -32, -13, -50, 32, 40, 58, 20, 100, 75, 127, -48, -45, -79, -27, -30, -74}
, {76, 11, -58, -27, -11, 83, 77, -58, 9, -14, -80, -56, -88, -7, 54, -30, 63, -5, 32, 61, 6, -95, 48, 12, -90, -13, 58, 31, -47, 13, 43, 74, -29, 14, -74, 54, 94, 13, -45, 10, -22, 98, -63, -70, -28, 42, -32, -18, 30, 14, 23, -96, 70, 31, -39, 98, -3, -40, 58, 36, 29, -58, 20, -32, -62, 76, 25, -26, 56, -78, 11, 24, 25, 15, 83, 0, 63, -14, -67, 49, -24, -58, -96, -49, 1, -81, -9, -15, 0, 57, -69, -54, -54, 67, 74, -38, 96, 36, 98, 44, 91, -46, 74, -55, 69, -81, 101, -52, -60, -46, -56, -86, -40, 21, 78, 29, 53, 17, 39, 91, -25, 56, -95, 29, 50, -78, -9, -17}
, {-60, 34, -6, -51, -90, 22, -38, -54, -14, -81, 89, 20, 79, -3, 56, 9, 23, 39, 64, -99, 98, 16, 37, -20, -2, 89, 67, 55, -101, -3, -6, -20, -13, 32, 93, 86, -59, 58, 54, -48, 76, 58, 46, -83, -102, -47, -40, -19, 0, -27, 97, -26, -67, 13, 34, 25, 14, -1, -75, -31, -88, -99, 51, -60, -9, 12, 67, -15, 79, -49, -64, 28, 48, -38, 43, -86, -66, 57, -34, 46, -79, 97, 3, -38, -14, 45, -80, -80, 55, 65, -87, -38, -73, 58, 36, -18, -97, 51, 25, -54, 61, -49, 2, 83, 17, 30, -23, 21, 38, -103, 68, 48, -8, 16, 45, -87, 90, 93, -66, 74, -18, 55, -10, 43, -37, -77, -16, 0}
, {-66, 26, 47, 8, -89, 85, -54, 94, -38, -30, -90, 2, 87, -98, -53, -30, -47, 41, -71, -113, -20, 57, 86, 64, 10, -57, -85, 27, 88, 68, -47, -21, -48, 85, -39, -31, 83, 41, -1, 12, -71, -67, -47, -27, 11, -101, 12, -108, -51, 0, 29, 37, 64, -56, -84, 18, -28, 3, 125, 75, -25, -92, -35, -28, 73, 72, -81, 8, 15, -85, 31, -82, 26, -54, -42, -69, 14, -60, 53, 41, -84, 23, 34, -26, -20, 67, 51, 40, 76, -26, -69, -55, -59, 23, -25, 78, -62, 44, -32, 15, 27, -75, 35, -4, 34, 75, -57, 87, 83, -87, 45, -62, 12, 23, -61, 52, -29, -9, 78, -46, -24, 42, -110, -86, -25, -48, -18, -4}
}
;

#undef INPUT_SAMPLES
#undef FC_UNITS