/**
  ******************************************************************************
  * @file    weights/fc.cc
  * @author  Pierre-Emmanuel Novac <penovac@unice.fr>, LEAT, CNRS, Université Côte d'Azur, France
  * @version 1.0.0
  * @date    24 march 2020
  * @brief   Template generating plain C code for the implementation of Convolutional Neural Networks on MCU
  */

#define INPUT_SAMPLES 128
#define FC_UNITS 40


const int16_t dense_28_bias[FC_UNITS] = {-21, 9, 12, 18, 6, 0, -7, 15, -17, 13, 19, -13, -9, 0, -25, 16, 9, -10, 1, 12, -24, -8, 24, -21, 20, -12, 0, 12, -4, -10, -16, -14, -22, -13, 12, 20, 1, 18, -9, 22}
;

const int16_t dense_28_kernel[FC_UNITS][INPUT_SAMPLES] = {{-100, -67, -65, 58, -13, 15, 102, -16, 35, 32, -38, 97, -51, 47, 43, -56, -79, 92, -95, 6, 12, 58, -81, -16, -68, 97, 83, 82, -80, -71, -54, -43, -82, -35, 3, 79, -88, 74, -104, 54, 13, -86, 78, -83, 5, 28, -17, -16, -104, -30, 90, -39, 2, 67, -2, -16, 20, -56, 95, 39, 18, 4, -22, 99, 40, -25, 96, 41, 63, 57, -46, -20, -2, 85, 15, 51, -47, -31, 0, 5, -56, 17, 80, -34, -38, 35, 53, -69, 25, 82, 7, 18, -6, 74, -80, -40, -33, 10, -85, 46, 93, 83, 4, 32, 23, 12, -86, 0, -43, 25, 65, 57, -5, -85, -43, -40, 18, -69, 52, -82, -58, 101, 108, -83, -16, 12, 49, 55}
, {42, -30, -61, -47, -6, 32, -41, -75, -53, 26, 10, -85, -82, -78, -45, 16, -45, 9, 0, 91, -87, 68, -84, 67, 65, -66, -92, -46, 116, -29, 16, -81, -70, -52, -42, 17, -36, 40, -46, 54, -25, 11, -22, 31, -88, -82, -87, -1, -86, -59, 41, -32, -3, 30, 4, 60, 42, 50, -16, 43, 17, 48, 36, 7, -98, 90, 85, 70, -41, -61, 11, 2, 36, 22, -18, -45, 23, 22, 21, 69, -24, -46, -84, -52, 48, 42, 5, 84, -25, 38, -47, -87, 47, 64, -66, -62, -85, -55, 99, 4, -64, -83, 12, -86, -60, 78, -86, 79, 36, -40, -91, -58, -27, -4, -38, -100, -65, -19, 54, -75, -17, -93, -28, 13, 58, 80, -4, -35}
, {-6, -58, 71, 79, -28, 30, -13, 111, -84, -70, -50, 24, -57, -93, -109, -105, 19, -66, 36, -44, -3, 60, 8, 51, 2, -106, -81, -54, -76, -8, -49, 24, 22, -42, 51, 20, -70, -84, 15, 22, 37, 76, -118, -7, 51, 73, -60, 87, -27, -14, -64, -14, 6, -20, -31, -41, 43, -56, 74, -65, 10, -91, 7, -64, 24, -2, -46, 95, -8, 36, 9, 35, -78, 57, -80, 25, -76, -9, -84, -48, -33, -39, -105, -91, -69, -59, -32, -9, -87, -35, 59, 80, 35, -11, -53, 9, -2, 70, -75, 88, 60, -83, -61, 41, -4, -89, -1, -98, -14, -71, -6, -10, -88, 99, 23, -72, -20, 55, -4, 20, 8, 81, -42, -81, -76, 3, 78, 13}
, {6, -32, 67, 82, -81, 90, -89, -50, 11, 108, -53, 17, 59, -70, -72, -39, 37, -77, -14, -82, -86, -31, -76, -85, 102, -91, -30, -24, 107, -1, 106, 33, 27, 56, -85, 83, -31, 45, 44, 10, 17, -61, -69, 53, -97, 48, 64, -11, 91, -68, -66, 77, -78, -30, -20, 60, -48, 11, -45, 59, 29, -81, 12, -92, -15, 96, -20, 95, 5, 87, 39, 33, 126, 11, 44, -50, -1, 107, 7, -65, 12, 48, 15, 5, -1, 24, -94, 24, 72, -59, 52, -90, -56, -98, 8, -97, 31, 58, 66, 48, -49, 65, -94, 83, 105, 69, 103, 64, -7, 116, -9, -100, 59, 93, -13, 73, -20, 86, 61, 3, -51, -69, 84, 23, -47, 70, -64, -44}
, {-57, 58, -64, 86, -90, 21, 1, -61, 54, -46, -45, -81, -81, 1, 78, -8, -25, 9, -62, -5, -80, 17, 18, 50, 103, 56, -18, -11, -61, 19, 17, -26, -83, 92, 33, -68, -82, 56, 33, 97, -75, 96, -5, 24, 45, 41, 64, -33, -39, 60, 23, -71, 17, 124, 72, 61, 96, 32, -84, 22, -11, -56, -100, 84, 45, 39, -16, -91, 101, 26, 26, -47, 3, 22, 47, 68, -44, -86, 46, -80, 72, -25, -9, 33, -68, 37, 43, 17, -58, 90, 38, 42, 9, 49, 91, -15, -6, -49, 0, 91, 88, 14, -24, 1, 83, -81, -101, -87, 8, 82, 35, 87, 31, -3, -100, 41, 56, 69, 5, 5, 13, 68, 67, -42, -8, -86, -101, -42}
, {-57, -6, -85, 15, 13, 71, 20, 1, -69, -76, 6, -30, -48, 46, 50, -6, 21, -82, 50, -115, -67, -42, -18, 54, -115, 69, -85, 57, -64, 2, 46, 17, 64, 86, 52, -5, -76, 0, 50, 77, -14, 36, 17, -60, 5, -92, -57, -2, 87, -77, -60, 27, 52, -20, 15, 89, 53, -74, 9, -68, -58, 29, 17, -56, 33, -43, 7, 21, 1, -32, -29, 77, 59, -21, -101, -96, 73, 76, -40, -14, 15, -110, -65, -61, 8, -13, -20, -34, 86, -71, 15, 62, 10, -2, 66, -25, 77, -41, 95, -94, 101, -62, -40, 47, 2, 0, -25, 39, -51, -59, 55, -17, 30, 82, -29, 106, -85, -56, 26, 43, -67, 45, 71, 42, -116, 104, 89, 23}
, {75, -66, -89, -9, 51, 67, 41, -8, -36, 112, 11, 38, 79, -86, -64, -1, -53, -81, 89, -25, 96, -7, -76, 36, 38, 90, 87, -3, 69, 68, -51, 35, -81, -43, 46, 78, -82, 29, -26, -101, 70, 25, 80, 85, 80, -40, -37, 21, -55, 43, 64, -25, -98, 77, -96, -6, 47, 59, -3, -29, 51, 25, -83, -16, -96, -33, -45, 58, 91, 54, -98, -57, 44, -43, 92, -18, 39, 102, -25, 37, -97, 67, -3, -7, 74, -2, -74, -38, -48, 64, -34, -60, 51, 99, 40, -95, -38, 0, 70, -72, -28, -10, 70, -99, 47, -22, -46, -62, 21, 43, 44, 86, -54, -14, -29, -49, -2, -8, 3, -95, 56, 79, -24, -74, 74, -29, -47, -83}
, {-1, 50, 15, -23, 60, -70, -52, 69, -23, -9, 60, -66, 26, -40, -36, -54, 70, 7, 45, -17, 72, -17, 5, 10, 34, -26, 37, 69, -94, 89, -58, 71, -49, -24, -70, 16, -81, -21, -19, -35, -68, -105, -48, 56, -116, -19, 93, 15, -75, 94, -62, 30, 100, -14, 55, -28, -36, 97, 92, 52, 0, -32, 11, 35, -57, -48, -8, 49, 65, -18, 22, -18, -20, -65, 25, -100, 64, 26, 35, 33, -15, 43, -39, -124, 8, -18, -45, 94, 25, -6, 14, 71, 72, 13, 67, -51, 17, 70, 64, 6, 11, 51, 10, -12, -25, -88, 64, 15, -100, -73, -23, 35, -44, 15, -120, -20, -28, 7, 28, 95, -70, -46, -45, -63, -39, 75, 81, -36}
, {-52, 2, -60, 89, -41, -98, 6, 67, 31, -97, 97, 66, 46, 80, -45, -90, 20, -21, -2, 51, 8, 23, 87, -25, -99, 64, 29, 13, -3, -38, 14, 72, -81, 76, -26, -7, -51, -82, 22, -5, -49, -65, 66, 5, -54, 90, -8, -34, -51, -7, -77, 34, -66, 94, 6, 52, -35, -45, 48, 56, 42, 71, 98, -84, -77, 50, 39, 14, -100, -106, 36, -29, -25, 79, -30, 52, 68, -95, 18, 24, 11, 50, -34, -97, -58, 43, -53, -41, 4, -68, -60, -16, 24, -103, -66, 83, 36, -53, -96, -77, -58, -100, -23, -50, -27, 45, -89, 1, -73, -18, 87, 34, -85, 76, -27, 49, -63, -72, 23, -59, -104, 7, 73, -28, 5, 12, 74, 66}
, {36, 80, 16, 11, 7, -11, -99, 58, 11, -65, 77, 52, -102, -1, -82, 23, 74, -47, 88, 97, -21, -60, 39, 9, -7, 64, 104, -55, 11, 56, 67, 74, -69, 40, 17, 75, 52, 25, -70, -86, 81, -54, -88, -1, -76, -34, 100, -35, -55, -43, 70, -79, -90, 27, -33, -68, -62, 29, -91, 2, 0, -90, -27, 6, 3, 3, 17, 94, -71, -59, 30, -56, -26, 8, 13, -26, -66, 72, 75, 58, 3, 44, 58, 80, 36, 84, -88, -5, 63, 85, 7, -59, 56, 33, 7, 8, 101, 22, 0, 54, -127, 101, -82, 5, -83, -79, 95, -63, -95, -59, -41, -99, 46, 74, 28, -80, -90, 71, 10, -7, 0, 33, -2, 13, 35, -68, -80, 41}
, {84, 80, -72, -43, 30, -72, 46, -98, 91, -67, 1, 98, 20, -77, -45, -76, -34, -33, 64, 17, -76, 71, 16, -10, 26, -89, -11, 13, 40, 83, 38, -35, -67, -45, 42, 101, -64, 79, -52, 11, -60, -25, -30, -18, 109, -48, -48, -12, 93, 24, -65, -39, 0, -2, -1, 107, -59, 31, 72, -69, -62, 58, 2, -106, 58, 70, 48, 6, -38, 27, 84, 76, 105, -53, 32, 48, 34, 72, 120, -69, 73, -81, -44, -1, 6, 31, 96, 51, 12, 63, 10, -61, -47, 27, 23, -46, -35, -45, 1, -37, 3, 32, -21, 97, 35, 51, 38, -58, 14, 33, 11, 66, -85, 33, 142, 46, -44, -71, -80, -42, 32, -12, -30, -13, 71, -84, -57, -24}
, {-65, 85, -88, -37, -63, 33, -55, -43, 38, -24, -15, 19, -14, -82, -63, 26, 9, -107, -98, 27, 55, 112, -116, -63, -62, 11, -43, -12, 77, 19, -23, -120, -48, 29, 90, -13, -14, 72, 104, -67, 10, 69, 16, -71, 53, -106, -84, -3, -4, 52, 35, -94, -87, -75, 58, -49, 93, 49, -79, -89, -97, -35, -59, -24, -51, -26, 74, 39, -62, 33, 16, 62, -68, -96, -8, 25, 17, 3, -97, 76, -71, 41, -43, 0, -11, -61, 6, 43, 63, -15, 87, -60, 52, -23, 80, 67, 95, -1, -82, 65, 124, 20, 59, -21, 113, 29, 13, 15, -27, -11, 2, 6, -28, 24, -12, -28, 27, -2, 65, -91, -51, -25, 57, -53, 91, 99, -16, 37}
, {-36, -1, -13, 24, 16, -101, -66, -43, 15, 24, -36, -53, -6, -80, 32, 8, 19, 0, -45, 79, 37, 79, 94, -58, -84, -54, -18, -108, 59, 0, -35, -81, 92, 0, 49, 4, -105, -14, -98, -40, -35, 94, 42, -19, -19, -36, -40, 2, 49, 21, -82, 0, -12, -116, -54, 4, -60, 41, 16, 12, -29, -102, -22, -47, 83, -57, -7, 34, -71, 24, -15, -19, -5, 98, 51, -65, 33, -95, -60, -5, 15, 95, 81, -54, 26, 40, -54, 50, -84, -30, 81, -79, -45, -61, 84, 14, 42, -46, 15, 66, -31, 108, -15, 29, 16, 7, -14, 40, 75, 114, 12, 95, 62, 5, 52, -83, -27, -65, -56, 82, -7, 87, 24, 92, -95, 52, -86, 63}
, {67, -87, 40, -30, -44, 60, -113, -82, 23, 103, -46, 73, -100, 87, -31, 24, -30, -11, -54, -70, -40, 71, -27, -9, -116, -81, -27, -17, -30, -4, -54, 19, -37, 58, 65, -10, -111, 69, 41, -84, -81, 23, 50, -87, -78, -30, 89, 61, 61, 57, -48, 59, 24, -89, 49, -21, -32, -47, -5, 48, -56, -47, -61, 57, 48, 65, -91, -41, -14, 91, -82, 87, 33, 86, 62, -21, -75, 54, 116, -91, 66, 0, -62, 33, -35, -10, -79, 4, 37, -88, 39, -84, 10, -75, 75, 89, -50, 71, -63, 1, -88, -17, -94, -61, -49, -69, 37, 0, 28, 53, -46, 13, -28, -92, 104, 63, 82, -13, -1, -16, -52, 7, -37, 44, -123, -7, 64, -54}
, {-48, 58, -46, 10, 36, 95, 74, -11, -84, 22, -90, -22, -44, -6, 55, 52, -97, -67, 35, 37, -4, 0, -101, -71, 41, 64, 35, -51, -64, 46, 14, -63, -1, -21, 1, 88, -11, -13, -82, 6, 31, 22, 2, 88, 19, -60, 26, 22, -1, 84, 1, -69, -92, -31, 102, -63, 50, 6, 89, 70, 8, 28, 16, -47, -65, -61, 50, 32, -112, 70, -76, -33, 15, 80, -34, 11, -81, -10, 67, 90, -53, 56, -49, 42, -17, -52, 75, -115, 33, 64, 43, -83, 78, 80, -7, -11, 0, -80, 63, -34, 38, -83, -30, 35, -7, 0, 83, 18, 91, -121, -78, -72, -40, -77, -81, 68, 7, 72, 91, -93, 38, -11, -53, -31, -30, -94, 20, 11}
, {-9, -89, 37, -25, -61, 37, -44, -10, -86, 14, -84, -27, -53, -26, -107, -17, -51, -1, 55, 83, -59, 54, -21, 2, 90, 41, 1, -40, 78, -38, -31, -101, 106, 29, -2, -120, 104, -29, 61, 65, -54, -68, -22, -57, 3, -86, -40, -55, 58, -84, 50, 12, -12, -99, 5, -80, -28, 0, -18, 64, -48, 5, 86, 98, -97, -11, 12, -68, -59, 31, -63, -17, -62, -30, -18, 60, -68, -19, 29, 54, -47, -15, -149, -127, 0, -31, -97, 83, 87, -24, -52, 16, 100, 31, 75, -2, -24, -14, 72, 83, -20, 1, 57, 24, 28, 14, -31, -82, 48, 45, 48, -43, -41, 31, -20, -77, 59, 48, 82, 54, 60, -23, -113, -45, -40, -4, 36, -80}
, {18, 80, -56, 56, -43, 57, 45, 62, -1, -5, 30, 7, 14, -71, -81, -90, -68, 19, -37, 34, -85, 48, 114, -67, 114, 62, -79, -34, -75, -53, -67, -69, 42, 70, 87, -83, -7, -10, 18, -54, 92, -76, -64, 37, 60, -16, 20, -27, 24, 65, -91, 81, -19, 54, -70, 108, 68, -39, 94, -26, -83, -87, -77, -86, -62, -9, -71, -8, 28, 70, 51, 47, -31, 13, 61, -7, 37, -5, 82, 16, 58, -73, 18, -81, -9, -89, 70, -3, -105, -76, -53, -40, 73, -39, 16, -39, -55, 96, -5, 13, 77, 105, 2, -92, 67, 44, 66, -10, 28, 57, 89, 6, -4, 30, 32, -53, -46, -49, 89, -35, -1, 87, 49, -31, 48, 90, 72, -9}
, {-41, 3, 60, 60, -44, 14, -84, -60, -32, -74, 66, 58, -17, 12, -50, -93, 70, -45, -78, 79, -47, -6, -40, 83, -20, -79, -19, -46, -92, -76, -25, -106, -57, 13, -106, -53, 12, 93, -9, -25, -82, -64, 32, -50, -80, 19, 50, -2, 88, 45, 8, 80, -88, -59, -47, 86, 40, -65, -7, 44, -51, 47, 97, -25, -33, 44, 29, -37, -11, 2, 46, 30, -90, 11, 42, 104, 58, -39, 88, -21, -11, 36, 36, 57, -22, 91, 51, -73, 77, -11, 88, 88, -83, 1, 12, -5, -92, -68, -82, -66, -108, 83, 98, -86, -25, -46, 58, 35, 2, -27, -5, 55, 66, 96, 74, 59, -1, 36, 57, 67, -116, 63, 24, 94, -42, -56, 46, 52}
, {23, 19, 25, 48, 8, -75, 91, -35, 131, 11, -68, 61, 45, 60, 1, -25, 47, -41, 27, 68, 105, 89, -29, 72, 51, -60, 41, -39, -67, 37, -35, 25, -18, -84, 7, 53, 0, -13, 46, -115, -39, 71, 58, 58, 85, 91, -36, 32, 85, -9, 87, -51, 9, 51, -92, 22, 88, -10, 75, 46, 66, 45, -97, -46, -33, 68, 108, -67, 65, -63, -56, -39, -57, 74, 56, 55, 72, 70, 2, 114, -27, -73, 35, 64, 18, 38, 70, 87, 71, 106, 26, -62, -30, -22, -100, 27, -63, 54, 17, -19, 40, 81, 60, 69, -25, -75, 15, 16, 1, 100, 28, 43, -42, -48, 14, -48, 77, -6, -2, -47, 0, -53, -68, 56, -39, -70, 52, -86}
, {-40, 32, -37, -61, -45, -93, -16, -59, -2, -79, -66, -87, 34, -86, 31, 56, 40, 118, 80, -53, -16, 54, -73, 97, -51, -76, 56, 52, 105, 46, -44, 98, 48, -46, 85, -88, 72, 28, -74, -9, -4, 53, -51, -38, -49, 98, 21, -75, 66, 40, -36, -66, 40, -33, 61, -2, 57, -1, 35, -64, -20, 52, -78, 38, -43, 68, 8, -30, 103, 73, 22, 54, -78, 45, 39, 68, -89, 40, -108, -47, 74, -79, -29, 3, 17, 37, -50, 53, 27, -49, -24, 23, 66, -80, -25, 77, -74, 20, -39, 19, 15, 29, 91, -6, 91, 50, -95, -39, 96, 74, 21, 90, -61, 16, 24, 47, -68, -50, -78, 0, 66, 53, 71, 50, -27, 67, 44, 96}
, {0, -71, -59, 77, -55, -19, 17, -70, 30, -2, 71, -32, 28, 57, -74, 99, -53, -31, 85, 73, 93, 37, -45, 7, 37, 63, -64, 14, -39, 16, 36, -115, -44, 96, -64, -84, 26, -90, -42, 2, -86, 57, 68, -44, -8, 24, 76, 83, -85, 29, 48, 44, 81, 56, -4, -71, -28, -32, 89, -42, 69, 58, 35, 25, 54, -26, -60, -25, 23, -88, -39, -103, 61, 79, -51, -59, 39, -39, 6, 16, -41, 10, -60, -16, -80, 21, 80, 88, 15, -20, 17, -63, -31, 86, -90, 39, -101, -73, -6, -91, -43, -70, 43, -42, 15, 83, 82, 1, -85, -22, -88, 95, -48, 74, -40, 82, 87, 8, -72, -35, 41, 72, -31, -79, 80, 66, 2, 39}
, {-102, -60, 80, -88, -15, -50, 25, 85, 93, -13, -99, 7, 66, 37, -24, 52, 31, 3, 51, 53, 23, -17, -41, -7, -38, -52, 86, -37, -65, 0, -96, 91, 54, 3, 68, 64, 71, 15, 60, 57, -88, 18, 94, 14, 26, 30, 25, 1, 42, -52, 11, 42, -55, 77, -52, 6, 67, 84, 21, 7, -81, 10, 19, -6, -54, -16, 78, -75, 87, -44, -54, 67, 53, -15, -64, 74, -58, -9, 27, 96, -35, -59, 112, 6, 51, -68, 27, -8, 7, -33, -70, -86, -33, 64, -71, 72, -65, -81, 76, 56, 46, 69, -23, 55, -93, 64, -91, 98, -6, 80, -73, -54, 24, -59, 63, 60, 4, -12, 7, -5, -105, 2, 33, 34, 72, -68, -79, 27}
, {9, -85, 8, -78, 91, 39, -49, 28, 58, 61, -87, 26, 92, -3, 12, -44, 17, 43, 2, 91, -23, -2, 36, 29, 20, 27, -72, 9, 5, -6, -9, 115, 12, 51, 98, -4, -10, -16, 84, -20, -11, -72, -107, 86, 59, -4, 3, 20, -13, 20, -22, 68, 69, 41, 24, 69, -102, -13, 9, -45, -91, -93, 3, -7, 80, -2, -95, -38, 103, -44, 38, -63, 46, 49, 6, -10, 61, -69, -46, 23, 63, -20, 43, 80, 65, 85, 11, 9, 51, -57, 51, -69, -21, -56, -79, -35, -24, -31, 31, -2, 35, 0, -48, 49, -5, 40, -102, 43, -3, 47, -79, 71, 62, 27, 0, -33, -84, 87, -17, -5, 73, 92, -90, -52, -34, -43, 63, 67}
, {-4, -98, 65, -5, -5, 12, 47, -91, 25, -74, -44, -38, 4, 68, -71, -55, -33, 20, -8, 54, -75, -21, 79, 83, 59, -12, 1, 59, -55, 83, -83, 32, 4, 23, 94, 43, 45, 77, -67, 3, -90, 69, 5, 50, -25, -81, -40, -96, -33, 52, 94, 47, 68, -26, -35, -68, -21, 3, 29, -56, -39, -60, -32, 74, -9, 74, 43, 45, -91, -4, -31, -30, -15, 7, 45, 68, 12, -6, 68, 3, -48, 81, -62, -91, -53, 23, 70, -14, -5, 75, -39, -40, -73, 61, 24, 73, -35, 6, 70, 89, -63, -35, 35, -4, -82, 0, -8, -42, 92, -83, -61, -25, 99, 16, -113, -19, 3, -110, -47, 63, 7, 36, -78, -5, 11, -23, 94, 64}
, {-38, 71, -72, -42, 53, 92, -13, 19, 64, 60, -61, 85, -25, -32, 74, -5, -47, 27, -17, -53, 31, -35, 43, -87, -15, -1, -1, -54, -100, 93, -64, 31, -42, -45, -24, -88, 13, 3, -57, 14, -87, 0, 63, 60, -32, 0, -32, -20, -16, 70, -59, -39, 53, -2, -111, 36, -31, 69, 74, 3, -20, 42, 86, 64, -27, 53, -2, 6, 13, -19, 95, 106, 53, 23, -103, 13, -61, -86, 80, 47, -19, -110, 24, 9, 65, 98, 92, 62, -95, 14, 93, -10, -79, 2, 49, 16, 74, -73, 95, -28, -23, 52, -12, 18, -114, 55, 32, 85, 29, 29, -96, 65, 10, 99, 28, -89, -14, 30, -52, -44, -48, -58, -77, -38, -54, -68, 67, 15}
, {75, -64, 37, -23, 3, 81, 11, 14, -15, -12, 59, 32, 40, 43, 26, 39, -61, 43, -13, 30, -72, -11, -3, 56, 94, -11, -105, -52, 11, 78, -79, 21, -13, -9, -66, -114, -36, 67, -94, -65, -92, 47, -94, 34, 4, -85, 81, -69, -16, 105, -96, 103, -26, 84, 20, 78, -19, 54, -23, -41, -49, 28, -41, -30, -26, -80, -41, 57, -109, -20, 38, 27, -124, -71, -82, 84, -75, -44, 18, -73, -51, 10, -18, -93, -53, -51, 28, 8, 25, -25, -22, 36, 12, 12, -78, 3, 49, -103, 79, -19, -38, -20, 74, 15, 70, 54, -70, -20, -27, -70, -74, -103, 28, -90, -33, -78, -3, -98, -54, -63, 3, 40, -34, -26, -21, 77, 48, 69}
, {-64, 76, -36, 5, -10, 0, 110, 77, 56, -7, 13, -109, -56, 48, 95, -41, -33, -59, 33, 95, -69, -41, -73, 82, -98, 94, -86, -69, 48, -95, -92, 82, 0, 42, 56, -73, -65, 71, 86, -3, 47, -21, -16, 73, -71, -58, -56, 3, -46, 16, -53, -62, 75, -5, 63, -70, 25, 20, 29, 67, -22, 81, 93, 24, 54, 69, -87, -72, -91, 15, -53, -103, -65, -50, -15, 10, -61, 44, 11, 67, -83, -3, 64, 19, 28, -28, -30, -7, 16, -25, 3, 44, -50, -40, 17, 89, -46, 61, 72, -56, 34, -38, -13, -75, -47, -23, -58, 100, -68, -31, 10, 75, 16, -7, -11, 46, -28, -33, 88, 24, -50, -76, 7, -57, -96, -29, 83, -61}
, {-15, -26, 51, 55, 76, 72, -97, 96, -14, -38, -95, -81, -57, 15, -71, 40, 73, 24, -61, 63, 81, -56, 66, -97, 62, 0, 28, -107, 58, -24, -56, 75, -58, -76, -73, 11, 0, 7, -116, 32, 2, -80, 86, 64, 67, 15, -33, 77, 84, -22, -85, 50, 89, 22, -43, -5, -15, 81, -49, -22, -39, -88, -71, -39, -35, -42, 5, -7, -30, -91, -89, 39, 36, 29, -37, 61, -33, 16, 32, 14, 63, 22, -4, -37, -36, -31, -68, 76, -61, -47, 62, 93, -49, 82, 80, -82, -18, 72, 20, 97, 56, -45, 72, -68, -2, 50, -1, 46, -96, 77, -89, 37, 18, 4, 58, 8, -37, 22, 89, -5, -11, 16, -27, 52, -50, -51, 64, -9}
, {55, -29, 26, -91, 80, 76, -40, 45, -7, -6, 81, 4, -53, -111, 111, -11, 37, -98, -45, -6, 7, 78, 4, 4, 24, 49, -108, 58, 23, -6, -36, -41, -21, -91, 106, 61, -100, -75, -3, -3, -46, 108, -92, 74, -15, -68, 6, -21, 53, 40, 64, 25, 5, 40, -44, -20, -4, 25, 51, -63, -92, 46, -6, -18, 42, -85, 14, 98, -21, -7, 110, 67, 3, -18, -100, -28, 88, -51, 50, -19, -17, -2, 33, -7, -80, -94, -50, 40, 85, 92, 0, 51, -47, -72, 48, -31, -38, 79, -47, -85, 141, 74, -47, 48, 55, -47, 99, -47, -85, 84, -5, 67, 88, -92, 77, 105, -29, -19, -116, -60, 68, -1, -60, 104, -89, 14, -69, -50}
, {6, 24, 42, 4, 32, 100, -37, -48, 92, 50, 9, 48, -56, -58, -54, 58, -24, 30, -40, -105, -60, 82, -42, 20, 25, 95, -85, 61, 94, 59, -10, -97, 65, -78, 62, 81, 67, 33, -51, 8, -74, -27, 17, -60, 104, 82, 7, 18, -87, 42, 30, -69, -87, -89, 43, -2, -23, 96, -36, 5, 70, -7, -70, -51, 37, -96, -72, 105, -38, -16, -25, -95, 9, 25, 43, -81, -50, 46, 79, -40, 28, -9, -88, -4, -22, 5, -62, -110, 39, 82, 28, -47, 75, -89, 49, -65, -51, -13, 31, -26, 112, -91, 43, 89, 70, 30, 38, 42, -64, -57, 44, 60, -75, -71, 112, -35, 81, 57, -7, 10, 65, 51, 18, -81, 16, 20, 70, -38}
, {46, -13, -28, 64, -19, -96, 79, 100, -65, -70, -15, 37, -54, -90, -20, -58, -55, -33, 23, -30, 42, -63, 60, 39, 52, -32, -42, 25, -36, -24, -87, -7, -54, 1, 31, -4, -105, -26, 30, 31, -76, -78, 82, -40, -86, -7, 10, 35, 18, 16, -48, -57, 47, -79, 90, -28, -83, 69, 19, -45, 14, 67, 38, 54, -63, 25, -7, 68, -127, 79, -58, -49, -111, 92, 82, -63, 5, 41, -89, -93, 83, 44, -85, -98, -85, -67, -32, -75, 84, -79, -2, 45, -96, 91, -59, 63, -81, -106, 22, -33, 4, -78, -23, -53, 50, -74, 49, 60, 39, -22, 39, -5, 61, -57, -7, 52, -17, -107, 5, 32, -45, 1, -74, -38, -10, 30, 87, 43}
, {6, -5, -7, 21, 46, 69, 7, -90, -53, 36, 71, 21, -50, 17, -45, 103, 73, -2, -62, 41, -11, 87, -57, -46, -30, -68, -54, -7, 72, -50, 95, -119, 2, 82, 38, -43, 0, 104, 0, 0, 77, -7, 54, -17, -36, -56, 34, -46, 39, 87, 65, 56, 8, -48, 67, -103, -69, -24, -53, 92, -77, -72, 87, 85, -21, -41, 102, 56, -29, -18, -35, 67, 1, 10, 25, 49, 0, 67, -94, -14, 19, -25, -107, -56, 80, -69, -64, -35, 13, 6, -89, -41, 58, 60, 40, -74, -88, 6, 15, 37, 90, -30, 93, -44, -68, 19, -59, -62, -59, -119, 30, -69, -9, -54, -63, 83, 35, -58, -40, 60, -21, -67, -21, 73, -39, 66, -79, 99}
, {52, 34, -59, -65, -56, -106, -35, -93, 28, -82, -74, 56, 31, -83, -33, 54, -91, -22, 65, 51, -32, 46, -69, 80, 72, 31, -100, 43, -70, -73, -21, -66, -6, 9, 34, 57, -106, -106, 84, 73, -88, 37, -66, -50, 63, -64, 15, 88, -6, -35, 1, 39, -57, 49, 65, -41, -66, -17, -25, -53, -10, 109, 18, 27, -44, 3, 56, -83, 65, 44, -18, -84, -1, -36, 27, -11, 75, -13, 83, -53, -47, 34, -1, 24, -26, -18, 70, -42, 0, -24, 69, 75, 30, 5, -69, 77, -94, -79, -108, 74, 42, -21, 62, -57, 101, -89, 83, -29, -52, -121, 90, -74, 58, -40, 88, 43, 82, -26, -79, 54, 44, 27, 15, 13, 21, -97, -22, -34}
, {-61, -87, 85, 80, 8, -110, 79, 75, 65, 46, -104, -28, -25, -1, -59, 32, -4, 33, 40, 67, -72, 28, 41, -1, -67, 38, -21, -113, 60, 3, 31, 57, 11, -10, 52, 59, -52, 61, 64, -106, -78, -44, -45, 89, 39, -35, 78, -60, 23, -38, 64, -59, -59, 64, 16, 61, -16, -91, -23, 39, 37, -19, 53, 59, -89, -66, -40, -18, 43, -81, 55, -94, 9, 6, 37, 114, 21, 39, 43, 84, 27, 58, -26, 46, -76, 42, -92, 47, -10, -48, 70, 28, -34, -44, -46, 22, 12, 61, -47, 0, 46, -10, 13, -68, -19, 3, -3, 52, 55, -66, -50, 31, 91, 40, 63, -68, -75, 90, -59, -5, -2, -67, -13, 35, 17, -95, -14, 64}
, {62, 55, -44, 85, 48, 64, -12, 49, 84, -94, -7, -21, -95, -24, 58, 104, 46, 15, 32, 30, 41, -80, 62, 98, 57, 35, -19, -10, 33, -29, -51, -103, 47, -79, -42, -78, -17, 51, -55, -61, -72, -55, -70, -29, -80, -18, 2, -62, -9, -22, 75, -103, 30, -24, 14, -73, 95, 74, -48, 20, -95, 5, -61, -74, 8, -32, -22, 66, 45, 13, -34, 42, -35, -71, 88, 7, -24, -68, -25, -4, -70, 50, 25, 6, 51, 83, 29, 28, -3, 82, -58, 8, -59, -26, -48, -93, 58, -14, 64, -69, 60, 45, 35, -45, 53, 33, -40, -49, -57, -78, -88, -63, -42, 55, -3, -41, 19, -81, -26, -53, 15, -75, 52, -42, 99, -65, -75, -63}
, {37, -5, -14, -62, 31, 25, -65, -6, -28, 61, 81, 30, -54, 9, -131, 58, -72, -19, -43, 16, -76, -77, 39, -30, 45, -9, 38, 41, 14, 31, -12, 41, -88, 21, -45, -50, 71, -75, -28, -23, -54, 6, -48, 13, -19, 115, 15, -86, 68, -82, -46, 24, 31, -30, -61, -42, -76, -48, -53, 91, -45, 21, 103, 7, -79, 63, -56, 90, 53, -61, 1, -6, -74, 66, -43, -68, 89, -60, 65, -8, -28, -23, -77, 67, -76, 71, 9, 61, -106, 20, -101, 68, 48, -76, -18, 96, 65, 58, -20, -18, 13, 84, 67, -77, -99, 7, -25, 48, -100, 51, -15, 26, -70, -31, -38, 24, 18, 40, -73, -69, 25, 22, -68, -105, 36, 93, -6, -23}
, {-19, 11, 87, 47, -69, -39, 55, 76, 69, -63, 36, 30, -97, -100, 83, 56, -83, -3, -61, -35, -63, -35, -111, 31, -12, -19, -81, -23, -19, -72, 56, -12, 77, -26, 98, -14, 57, 82, 15, -88, 79, -20, -97, 61, -76, 12, -1, 66, 59, -87, -8, -76, 13, 7, 26, 52, 100, -46, 15, -27, 34, 8, 17, 48, 0, -75, -24, -15, -22, 28, 50, 86, 62, 86, -93, -53, -2, 28, -104, -84, 19, -35, -40, -88, 5, -91, 29, -12, -32, -46, 24, -76, -38, 59, 49, -96, -76, 38, -8, 91, 105, 25, -86, -5, 47, -5, 76, 7, 93, -67, 80, -26, 17, 90, -63, -3, 15, -15, -10, 27, -48, 43, -76, -69, -79, 11, -38, 4}
, {56, 61, -94, 56, -43, 79, -79, -50, 55, 58, -78, 94, -101, -15, -73, 75, -31, 102, -50, 24, 0, 85, 48, -44, 45, -7, -7, 72, -21, -25, -59, -30, 19, 25, -83, 63, 113, 20, -90, -1, -25, 16, 68, 42, 59, 111, 69, 72, 2, 18, 21, 11, -13, -69, 25, -61, 3, -36, -4, -87, 50, -30, -25, 12, -57, -49, 38, -30, 8, 73, 94, -10, 74, -36, -71, -2, 51, 92, -63, -9, 87, 7, -73, 27, -5, -75, 9, 6, -12, -35, -30, -79, 89, 43, -60, -99, -64, 51, -24, -80, -80, -37, -74, -36, 86, 15, 39, -4, 44, -43, -22, -99, 29, 80, 113, 18, -1, 99, -57, -64, 100, 6, -66, 76, 31, 83, -92, -45}
, {-23, 24, -12, -91, 65, 93, 100, 59, -59, 3, 73, 87, -64, -9, 38, -92, -10, 71, 5, -102, 13, 6, 27, 67, 33, 38, -87, -8, 26, 6, -68, -68, 54, -45, -68, 17, -88, -5, -24, -52, -74, 58, 49, -94, 51, -35, -2, 11, 7, -33, 54, 79, -56, -107, 61, -83, 101, 94, 68, 12, -32, 2, 27, 83, 65, 51, 74, 8, 53, -8, -63, -64, 37, -83, 52, 38, -40, -52, 30, -49, -77, 71, -4, 69, 63, 5, 91, -2, 8, 17, -28, 2, 26, -2, 66, -62, -34, 63, -84, -74, 127, -62, 33, 57, -1, 40, -6, 46, -71, 119, -69, -16, 56, -69, -70, -39, 89, -103, -85, -23, 58, -46, 17, 43, -98, -70, 64, -5}
, {23, -28, 53, 84, -83, -4, -32, -26, 83, 73, 73, -24, -67, 89, -81, -31, -62, 38, -38, 12, 82, 66, -96, 2, -7, -3, 13, -49, 26, -71, 73, -17, 83, -66, 52, 6, -5, -16, 57, -84, 84, 96, 94, 36, 34, 91, 57, -86, -56, -18, -89, -88, 48, -111, -43, 22, 43, -37, -58, 34, -23, -71, -55, -76, 30, -1, -57, 61, 94, -4, -35, 75, 134, 21, -40, -92, -30, -10, 90, 10, 35, 34, 66, -14, 41, -36, 19, 0, -48, 57, 102, -90, 21, -53, -87, -101, -4, 56, 5, -32, 98, -35, 37, -55, 48, 85, -83, 24, 74, 12, -29, -32, -100, 12, 36, 5, 96, -38, -93, 57, -27, 48, -56, 73, 33, 52, 60, -81}
}
;

#undef INPUT_SAMPLES
#undef FC_UNITS