/**
  ******************************************************************************
  * @file    weights/fc.cc
  * @author  Pierre-Emmanuel Novac <penovac@unice.fr>, LEAT, CNRS, Université Côte d'Azur, France
  * @version 1.0.0
  * @date    24 march 2020
  * @brief   Template generating plain C code for the implementation of Convolutional Neural Networks on MCU
  */

#define INPUT_SAMPLES 256
#define FC_UNITS 40


const int16_t dense_34_bias[FC_UNITS] = {15, 3, 13, -3, 6, 5, -5, -11, -1, 2, 0, -14, -7, -5, 4, 9, 2, 13, 0, 6, -6, -1, -5, -4, 7, 11, 1, 16, -2, -3, 6, -1, -8, -7, 9, 8, -6, -15, 2, 15}
;

const int16_t dense_34_kernel[FC_UNITS][INPUT_SAMPLES] = {{34, 16, -6, 23, -31, -62, -2, -34, -67, -31, -32, 78, 12, -8, 26, -71, 17, 12, -34, 49, -55, 54, 2, -35, 19, -5, -10, -24, -65, 42, 54, -2, 4, -44, 71, -22, -57, -46, -50, 19, -19, 3, 4, 42, 53, 74, 23, -63, 35, -52, 36, -30, 20, -16, -5, -76, -1, 8, -27, 7, 72, -29, -35, 8, -41, -25, -26, 36, 29, -17, -24, -59, 17, 65, -71, -70, -58, -15, 31, -51, 62, -43, -30, 4, 30, 15, -20, 67, 76, -70, 57, 40, -44, -10, -24, -10, 39, -19, -10, 59, -68, -30, 56, 39, 58, -16, -14, 8, 12, 58, -12, -10, -18, 41, 67, 56, -32, -56, -38, 27, 1, -66, 70, 39, 72, 53, -47, -56, -21, 4, -16, 21, -22, -56, -55, -14, -20, 8, 82, 52, -17, 67, 56, 7, -65, -45, 17, 61, -3, 35, -43, 25, 34, -61, 57, 75, -19, 56, 5, 30, 39, -23, -70, 63, 1, -51, 67, 30, -67, 54, 27, 1, 66, -65, -25, -20, -89, 11, -24, -6, 20, 5, 6, 27, 46, -45, -19, 10, 45, 27, -4, -51, 35, 65, -39, -46, -48, 18, -16, -63, 37, 41, -52, -19, 19, -46, -9, -11, 22, -1, -23, -58, -44, -53, -34, -74, -53, 78, 3, 72, -15, -40, 58, 79, 13, -75, 61, -32, 30, -29, -58, 3, 21, 38, -27, -34, 35, -7, -71, 66, -1, 17, -7, -28, -60, 59, -2, 42, 21, 56, 32, 6, 84, 12, -5, 60}
, {35, 63, 49, 57, -51, 68, -10, -67, 30, 54, -34, -28, 66, 7, 8, -26, -7, 62, 6, -18, -40, 33, 28, 37, 43, -39, -45, -52, 1, -2, 51, -45, 45, 63, 86, 23, -54, -8, -32, 13, -19, -75, -94, -37, 37, -101, -46, 75, 15, 22, 69, -36, 67, 75, 1, 14, -63, -63, -13, -43, 18, -12, -5, -13, 7, -30, 50, -44, 16, -49, 22, -22, 77, 62, -69, -38, -35, -18, 26, 12, -59, 28, -72, -46, -43, 52, 59, 3, -58, 5, 2, 26, -3, -65, -22, -5, -84, -20, -21, -37, -54, -16, 12, 55, 63, 0, 1, 38, 27, -26, -52, 56, -60, -76, -45, 61, 53, 49, -41, 41, -36, 13, -13, 81, -85, -78, -61, 38, -34, -41, -12, -63, 34, -74, -20, -40, 25, -18, 77, -20, -18, -42, 20, 46, 45, -15, -40, 59, 41, -69, 38, -18, 36, 31, 87, 71, 22, 47, -59, -57, 38, 0, -63, -48, -40, -68, 33, 29, -1, -16, -60, 13, 22, 18, -41, 20, 39, -77, -61, 78, -62, -10, -4, 66, -59, -33, 21, -72, -73, -55, -40, -9, 13, 7, -43, 17, 77, 51, 50, -61, 39, -49, 37, -32, 57, -39, -41, 45, 12, 29, 66, -38, -39, -67, 34, -3, -4, 68, -34, -67, 5, 39, -71, 45, 24, -57, 61, -49, -23, 43, 32, 77, 34, -30, 71, 73, -23, 47, -76, -71, 72, 53, -7, 24, -9, 49, -29, -46, 23, -2, -55, 20, -51, 54, -54, 7}
, {-14, 56, 61, 52, 58, -53, -54, 5, 13, -70, -29, -51, 67, -17, 8, 48, 74, -25, -31, -53, 72, 81, 59, -26, -9, -33, -83, -53, 61, -17, 59, 14, 50, 62, 56, -55, 63, -32, 20, -54, -78, 38, -22, -41, 58, -30, 6, 9, 80, 53, -72, -101, -26, -36, 23, 66, 14, -63, 27, -6, 56, -24, 24, -57, 5, 33, 34, -61, 60, -16, 13, 66, 33, 16, 27, -19, -46, -41, -60, -32, 28, -45, -45, 59, 31, 44, -56, 50, -53, 28, 75, 15, 30, 58, 3, 21, -11, 46, 67, -66, 6, -50, -50, -68, 60, -21, -25, -59, -48, -15, 69, -4, 1, -13, 78, 18, -13, 32, -43, 8, 31, -30, 2, 13, -19, -45, -35, -37, 0, -45, 36, 27, -54, -12, 20, -50, -47, -40, 15, 10, -45, -25, -25, 19, 3, 40, -34, -48, -7, -69, -41, 39, 16, -60, 58, 0, -78, -9, -71, 64, 12, -43, -39, 31, 45, 19, 77, 0, -79, -72, 20, 38, 25, -73, 75, 44, 42, -8, 18, -27, 9, -31, -17, -38, -20, 31, 67, 69, 11, -70, -26, -4, 34, -65, -49, -29, 4, -50, 10, 13, -25, 77, -1, -9, 29, -24, -9, 51, 21, -64, 1, 70, -46, -105, -2, 18, -31, 16, 60, 63, -65, -14, 41, 13, -2, 8, 38, 63, -2, 50, 30, 34, 17, 0, 61, -35, -5, 6, 43, -7, 4, 37, -73, 71, 11, 3, -73, 8, 24, -5, -13, 39, 7, 79, -41, 57}
, {40, 37, -67, 63, -42, 5, 89, 22, 44, 20, 56, 66, -34, -70, -9, 43, -41, 61, -36, -6, -25, -36, 49, 66, 24, 63, 66, 51, 17, -37, -12, -19, -27, -14, 25, 6, 33, 24, 10, 75, 48, 26, 29, 55, 74, -26, -16, -60, -52, 35, -54, 16, -52, -67, -24, -30, -5, -13, -27, -41, -36, -21, 53, 32, -75, -57, 71, 32, 71, 0, 54, -16, 14, 26, -19, 36, -8, -63, -54, -56, 26, -3, -24, -61, -5, 1, -52, -46, 29, 54, 11, 16, 42, 26, 2, 67, -46, -35, -47, -38, 71, 17, -16, 66, 10, 58, 56, 35, 36, 45, 19, 56, 66, 64, -10, 41, 21, -5, 9, 92, -54, 43, 0, 75, 55, 74, -55, 59, 44, 45, 53, 77, -52, 69, -49, 36, -65, 32, -10, 28, -15, 31, 21, 56, -61, 16, 35, 28, 74, 6, -70, -36, 26, 44, 53, -1, -45, -36, 39, 12, -22, -18, 20, 12, -17, -54, 64, 71, 1, 51, 17, 56, -10, 80, -56, 59, -63, -62, 10, 51, 21, -24, -25, -37, 66, -20, 87, 47, 21, 20, -59, -34, -57, 35, -62, 60, -63, 26, -2, -11, -40, 82, 68, -26, 42, 75, 59, 13, -35, 46, -10, -60, 28, -34, -66, 23, 22, -47, 64, 60, 60, 10, -44, 68, -72, 22, 58, -49, -22, 14, -24, 73, 21, 66, -22, 11, -66, 4, -7, -31, 33, 68, -56, 4, 48, -8, -35, -23, 73, -32, 25, -50, -18, 73, -7, 3}
, {-50, 81, 41, -24, -4, -9, 91, 46, 15, 52, -37, 18, 44, -56, -7, 8, -33, 44, 34, 72, -81, -57, 56, 53, -60, 42, -71, -26, -22, -50, -30, -45, 18, -11, 61, 21, 12, 53, -27, -58, -11, -34, -17, 37, -3, -23, 5, 5, -1, -71, 0, 5, 18, 39, 34, 17, 41, -19, -47, -61, -17, -51, 1, 40, -7, 14, -28, -3, -37, -9, 20, 24, 22, 2, -10, -36, -20, -57, 40, -53, -62, -31, -2, -22, 13, 75, 64, 12, 68, -21, -31, 60, -11, 51, 72, -49, -10, -33, 60, 5, 38, -5, -39, 34, -75, 25, -5, 49, 54, 10, -62, 10, -77, 12, 37, 25, 67, -57, 36, 41, -66, -75, -12, 77, -55, -84, 38, -53, 53, 19, 63, 50, -33, -16, -14, -60, 28, -51, 3, -39, 25, 40, 51, -3, -20, 25, 49, -64, 8, 64, -17, -41, -48, -7, 41, 75, -59, -15, -6, -57, -49, -59, 43, -30, 57, 59, 7, -39, -4, 57, 38, 65, -2, -45, -26, 23, 49, -80, -69, -67, -25, -64, -76, 33, 58, -17, -31, -41, 7, -61, 31, 21, 11, -62, 19, -53, -75, 24, -18, -1, -55, 66, 69, -21, -30, -30, -31, -29, 19, -55, -53, -24, -75, 4, -99, -22, -7, 48, -48, 12, -60, -36, -51, -24, -11, -70, 23, 21, 58, 18, 64, -28, 39, -20, -8, -41, 59, 22, -8, -39, -7, 40, -60, -39, -51, -53, 73, -27, -47, -47, 24, 12, -33, 57, 16, 58}
, {-25, -5, 36, -13, -9, 11, 91, 12, -71, -33, 4, -22, 10, 3, 62, -30, 4, -47, -24, -58, -30, -14, -37, -44, -49, 15, 2, 70, -21, 7, 62, -33, 52, 58, -11, -54, -43, 3, -61, 43, 28, 54, 61, 71, -5, -23, 43, 30, -67, -6, -65, -36, -11, -19, -60, 5, 40, -38, 62, 23, 8, -24, 83, 0, -38, -71, 65, 23, 66, 27, -43, -45, -18, -14, -35, -72, 7, -15, 22, 66, 16, 69, -1, 68, -35, -54, 24, 13, 68, 65, -46, -22, 23, -12, 31, -48, 15, -5, 48, 15, 61, 58, -17, -14, -48, 16, 66, 56, 84, 3, -43, -28, 21, -34, -28, 38, 22, -2, 51, -39, -45, 27, 32, -3, 96, 70, 31, 54, -38, 12, 38, 84, 56, -63, 9, -65, 37, -69, -31, 27, -47, 12, -64, -30, 0, -57, -5, 2, 68, 68, 7, 9, 29, 69, -30, 20, -6, 36, 3, 50, -46, 27, -55, 33, 73, 30, 29, 28, -63, 44, 1, -18, 42, 61, -33, 41, -15, -45, -55, 26, -59, 7, 26, 30, 22, 57, 48, 38, -57, -25, -33, -55, 13, -4, 20, -39, -37, 62, 73, -37, -7, 20, -3, 71, 1, 7, 4, 0, -65, -26, 7, -9, -19, -67, 0, -45, 52, 76, -28, 4, -52, -47, 54, -50, 2, 28, -27, 60, 17, -31, -50, 18, 1, -61, 27, 66, -44, -65, -14, -41, -25, 45, -53, 36, 75, 59, 22, 47, -37, 38, 36, 28, 12, 85, -18, 11}
, {-21, 26, -63, 56, -30, -9, -50, 29, 45, -45, 32, 38, 75, 40, -63, 33, -48, -29, -60, -19, 10, -29, -34, -24, 9, -41, 0, -78, -42, 42, 0, 47, 61, -68, -54, 54, -68, 33, 43, -80, -65, -5, 51, 42, -60, 13, 44, -64, 6, -25, -2, 12, 14, -51, 29, 70, -36, -22, 3, -24, 22, -16, -11, 38, 61, -22, 57, 13, -51, -40, 24, -40, 23, -55, 20, 34, 0, 17, -70, 0, 46, 11, 36, -65, -8, 55, 46, -10, 13, -63, 79, -13, 35, -6, 50, -50, 11, 70, 9, 60, -29, 47, -22, 33, 9, -6, 67, 15, -37, -85, 58, -11, 4, -41, -56, -50, -78, -38, -38, -40, 12, 61, -41, -87, -1, -97, -33, 73, -41, -37, 4, -49, -3, -41, 15, 45, -21, -46, 52, 55, 58, 7, 21, -15, -10, -81, 37, -8, -93, -7, -54, -18, 23, 55, -37, 29, -16, 21, -52, -34, 48, 59, -71, 39, -43, -37, 66, -32, 44, -81, 79, 65, -71, 54, 19, -8, 25, 54, 43, -7, 32, -44, -33, 61, 72, 31, 31, 6, -37, 4, -12, -51, 17, -41, -16, -1, -30, 25, -8, 66, 50, 36, 65, -43, 63, 45, 39, 4, 68, 11, -41, 72, 11, -5, 30, -79, -22, -52, 38, -81, 44, 72, 38, -8, -34, 27, 5, 23, 26, -15, -43, 43, -82, -59, 6, -14, -8, -41, 7, 11, -50, 48, -55, -75, 54, -1, 59, -62, -39, 17, -43, 52, 40, 3, 33, 2}
, {-45, 7, 44, -44, -25, -54, -22, -37, -5, 17, -43, -53, -69, -41, -37, 21, -33, 10, -34, -59, 59, 45, 74, -21, -8, -47, -12, -29, -2, 58, -22, 26, -9, -9, -25, 49, -65, 5, 29, 77, -20, -53, -26, 34, 67, 21, 63, -71, 63, 44, 7, -88, -74, 49, -50, 71, 8, 20, -12, 44, 46, -67, -46, 72, -20, 59, 17, 40, 55, -58, -35, 7, 3, 25, 21, -66, -40, 56, 31, -26, 4, -16, 64, 33, 57, -72, 0, -14, -32, -24, 0, -22, 26, -32, -57, -29, -36, -51, 37, -19, 81, 41, 10, -16, 72, 72, 19, -44, -48, -48, 85, -21, 24, -19, -39, -10, -67, 20, 64, 2, -7, 13, -65, -4, -26, 43, 60, -64, 52, 48, 63, -78, 11, 3, 71, 58, -11, 46, 28, -14, -40, -54, 57, -5, -62, 50, 26, -21, -4, 77, -62, -20, -2, -32, -67, 25, 41, 6, 66, 15, -3, 46, 21, 5, 26, 60, -55, -12, 80, 30, 67, 69, 23, 22, 65, 39, -12, 60, -21, -75, -3, -45, 32, 14, -32, -51, -7, -73, -10, -41, -32, 52, 29, -16, -33, 10, -18, -63, -37, 55, -59, -65, 21, 2, 17, 6, 57, 44, -11, -52, -39, -24, 67, -45, 9, 29, -2, -2, 59, -4, -63, -39, 4, 9, 68, 29, -67, -31, -77, -1, 21, -73, 50, -18, -28, 47, 7, 47, -41, 28, -18, -37, -5, -53, 11, -31, -61, -17, -8, -52, -9, 10, 49, -16, 57, 16}
, {18, -64, 70, 50, 1, -42, -12, 66, -7, 21, 91, 21, 7, 50, 51, 7, 33, -80, -65, 20, 70, 43, -6, -71, 31, -28, 85, -38, -10, -20, -54, 25, -46, 46, -1, -13, 17, -5, 45, -17, 47, -42, 19, 36, -32, 56, 53, 86, -7, 21, -65, 29, -56, -43, -40, 18, 54, 85, 27, -53, 40, -2, 52, -5, -62, -49, 20, -3, -15, 40, 14, -14, 23, -39, -22, -15, 6, -38, 74, -61, -20, 9, -29, -2, -71, 30, -41, -7, 25, -41, 5, -56, 66, 13, -29, 22, 18, 29, -22, -33, 24, -36, 15, 56, 76, -29, 73, -42, 76, 4, -61, 61, -15, -13, 59, 31, 20, 43, 65, 66, -25, 36, -38, 26, -41, -26, -37, -48, 50, 43, 21, 41, -3, 44, 53, 31, 0, -1, -52, -1, -20, 35, -2, -1, 33, 64, -11, -21, -19, -28, -51, 17, 2, 75, -4, 66, 27, 25, -37, -51, -48, -55, -7, -57, -40, 34, -10, 43, 82, -44, -49, -16, 9, 53, -26, 68, 16, -44, -50, 40, -61, -56, 50, 70, -14, 63, 65, -60, 60, -26, -18, 30, -81, -39, 65, -41, 21, -3, 15, 71, -19, 0, 61, 33, 59, 35, 30, -51, -39, 56, 52, -62, -62, -57, 43, 56, -47, 67, 35, 34, 3, -75, 37, 26, -20, 66, 37, 56, -16, 24, -24, -19, -27, 59, -9, -60, -43, 48, -24, 30, -25, -4, -7, 73, -36, -58, 66, 76, -58, -27, -51, 4, 41, 56, -18, -33}
, {9, -15, -47, -27, 32, 24, -86, -59, -10, 18, -67, 41, 43, 54, -36, 50, 20, -11, -69, 16, 22, 49, -55, 10, 57, -19, -51, -34, 5, -56, 51, 75, 45, 6, -24, -57, 12, 18, -45, -17, 27, -58, 52, 3, -86, -7, -28, -69, 1, -16, 46, -44, -41, 12, 2, 67, 67, -68, -16, 34, 39, -59, -43, 5, 17, 68, 68, -10, -34, -48, 13, -63, 30, 0, 0, 36, 38, -10, 4, 52, 1, -23, 54, -58, -34, 60, 4, 48, 79, 71, 49, 81, -69, 21, 75, -72, 51, -9, -28, -7, -50, -66, -40, -54, -85, 45, 78, 28, -13, -58, 39, 18, 27, -7, -29, -78, -68, 36, -40, 26, 44, 3, 34, -40, 46, -68, -23, -5, -80, -28, -9, 39, 19, -15, 11, 0, -45, 47, -54, 26, -64, 65, -7, 2, 29, -31, 60, 29, -72, -80, 44, 10, 26, 61, -57, 56, 37, 33, -31, -42, 23, -44, -37, 33, 59, 60, -72, 16, 45, 31, 24, -20, -54, -42, 72, -65, 82, -22, -42, -41, 36, 4, 25, -46, -18, 62, 5, -55, 53, 55, 31, 47, 30, 3, -17, -69, 49, 11, -62, 25, 54, 60, 10, -25, -57, -29, -41, -22, -56, 74, 30, 78, -29, -16, -57, -28, 23, -70, -45, -26, 59, -20, 42, -23, 26, 58, -16, -17, 34, -25, 27, -66, 0, 12, 62, 31, 32, -51, 50, 73, -48, 9, -16, -67, -42, 14, 18, 24, 22, 37, -3, 63, -76, -42, -60, 0}
, {1, -4, 36, -7, 30, 48, -25, -29, -69, -37, -51, -43, 72, 0, -68, 38, 49, 34, 11, -20, 60, 26, 74, -51, -56, -61, 37, -62, -27, -41, 39, 21, 70, -56, -16, -44, -55, 43, -48, 30, -1, 40, 33, 8, -37, 32, -65, 31, -56, 28, -42, -62, -27, -4, -44, 38, -2, -57, -6, -49, -5, -48, 73, -19, 15, 29, 34, -67, 46, 67, 59, -63, 0, -37, 68, -44, -65, -59, 56, 62, -80, -73, -63, -39, -27, -12, -70, 39, -6, -69, -3, 68, -66, -25, -45, 19, -15, 72, 45, 39, -26, 42, 21, 41, 8, -20, -71, -58, -41, -10, -31, 9, 57, 7, 15, -11, -34, 9, -40, 20, 59, 80, -41, -36, 23, -21, -75, -21, 29, -57, -58, -78, -11, 41, 61, 10, -63, 70, -81, -82, -11, 55, 11, 18, -14, -63, 14, -36, 53, -30, -21, -68, 44, -47, -66, 17, 23, 36, -59, 50, -16, 47, 5, 70, 20, 28, -47, -60, 20, -47, -5, -16, 17, -24, -16, 7, 54, -60, -9, -77, 62, 7, 10, -65, 57, 34, -23, -58, -13, 67, 69, 7, 25, 52, 62, -7, -74, -37, -43, -67, -50, 35, 26, 45, -39, 46, 80, 75, -9, 40, -11, 59, 25, -5, 57, 22, 12, -38, 58, 76, 8, 16, -41, -48, 4, -49, 2, 49, 36, 58, 40, -63, -20, -4, -71, 38, -53, -7, 30, 40, -106, 9, -2, 3, 0, 30, -68, -51, 51, 35, 12, 37, 59, -27, 40, 8}
, {41, -35, -21, -56, 25, -2, -14, 51, 2, 66, -24, -32, -18, 39, -47, 2, 23, -30, 43, -59, -6, 62, -32, -3, 60, -71, -57, -7, 19, -58, -57, -70, 41, -53, 38, -51, -6, 15, 44, 23, -7, 11, 51, 66, -24, -51, 16, 39, -23, 66, -58, 34, 62, -21, -2, 6, 53, 6, -23, 66, 48, 21, 1, 38, 28, -66, -31, -61, -68, -78, -66, 52, -16, -6, 37, -42, -2, 72, 53, 50, 80, 16, 52, 80, 47, -17, 37, 7, 10, 76, 22, 71, -24, 20, -67, 15, 74, 81, 63, -27, -28, 19, 13, 73, 1, -65, 56, 57, -11, 65, 57, -19, 36, -31, -38, -52, -54, -8, -25, 70, -7, 81, 65, 28, 77, 62, 38, -19, 42, 20, 23, -65, -49, 73, -36, -73, -35, 57, -5, -36, 17, 13, -71, 67, -12, 1, 42, 42, -16, 65, 62, 66, -21, -37, -88, -79, -1, -74, 25, 27, 6, 43, -12, 20, -3, -34, -57, 7, 23, 9, -46, 0, 73, 88, -58, 7, 23, 68, -7, 6, 27, 80, -18, 67, 67, 29, -56, 22, -68, -48, -53, -46, 55, -29, 10, -29, 49, -46, -20, -68, 57, 15, 25, -35, -42, 18, -47, -67, 14, -29, 9, 13, -47, -6, 33, 79, -51, -86, 66, -52, 62, 0, 19, 52, 34, 13, -77, 4, 32, 63, -31, -80, 72, 42, 13, -23, 64, -65, 59, -33, -46, 22, -34, 27, 26, -30, 21, 36, 78, 14, -15, 21, 9, 4, -65, 33}
, {-55, -24, -1, 55, 10, 12, 9, 0, 44, 13, 15, 37, 33, -36, 71, -59, 13, 65, 56, -14, -1, -5, -61, 23, -72, -59, 0, 27, -56, -62, -10, -67, -28, 34, -76, -69, -6, -15, 79, 36, -30, 2, 40, 52, 51, 75, -30, 51, 9, -70, 87, -9, 8, 50, -41, -62, -61, 22, -58, 73, -60, 40, -32, 70, 30, -1, -44, -9, 59, 8, 60, -72, 32, 6, 49, 14, 20, -55, -15, 0, 38, -73, -64, -45, 51, 2, -36, -14, -14, -74, 6, -37, -44, -4, 49, -36, -38, -46, 17, 62, 26, 29, -20, 22, 50, -12, 47, 52, -49, 75, 43, 18, -62, -3, -12, -56, -84, 0, 56, -34, 67, 67, 73, 10, 66, 48, 61, 27, 50, -61, -54, -12, -18, 33, -54, -23, -36, 39, -60, 33, -22, 61, 65, -33, 81, -39, -13, -56, -22, 12, 63, 22, -74, 18, -82, -75, -86, -27, 24, 68, 9, 35, 31, -51, -52, -56, -25, 42, -15, 27, 12, 36, 0, -11, -46, 63, 9, -10, -1, -63, -28, -60, 74, -55, 4, -46, -8, -45, 56, -26, 63, 66, 20, 72, -19, 33, -32, 19, -67, -34, -29, -44, 34, 41, -62, -7, -76, 45, 1, -63, 14, -41, -7, -6, -11, 51, 69, 5, -49, 56, -5, 13, -62, 33, -43, 53, 58, -46, 5, -45, -9, -95, 24, -11, -4, 0, 21, 33, 37, 73, -20, 43, -6, -23, 0, 26, -68, -20, -69, -61, 50, -1, -10, -50, 66, -47}
, {4, -63, -16, -29, 44, 58, -31, 60, 61, -15, 25, 48, -48, -33, 25, -15, -52, -66, -32, 10, 36, 75, -74, -30, 26, -51, -26, -19, 57, 66, -42, 38, 19, -58, 63, -12, 16, 39, 41, 69, -67, -63, -32, -89, -43, -1, -58, 59, -74, 1, 51, -10, 61, -11, -60, -55, 3, 18, -22, -9, 52, -46, 35, 76, -46, -33, 57, 8, 25, -64, -64, -62, -43, 0, 12, -6, -27, 18, 48, 29, 5, -23, 41, 13, 23, -47, -2, 17, -20, 87, -62, 42, -21, 37, -24, 23, -67, 1, 54, 59, -7, -55, 0, 43, -50, 15, 19, 18, 12, 46, 56, 14, 31, 45, 27, 38, -59, 2, 44, 67, -75, -13, -29, -15, 13, -38, 15, 0, -29, -57, -30, 25, 10, 36, -24, -53, -43, -29, 6, 40, 0, -70, -24, 63, 70, 24, 32, -51, 61, 48, 67, 41, -47, 49, 37, -41, 21, 72, 34, 69, -38, -51, 26, -34, -51, -8, 0, 26, 71, -23, 33, 9, -45, 66, -78, 20, -26, -56, -12, 49, -27, 61, -12, 37, 69, -46, -8, 28, -10, 48, -21, -8, -44, -8, -9, 46, 50, 33, 16, 61, 21, -20, 33, -48, -5, 32, -16, -34, -23, -37, 45, 66, 66, -17, -2, -22, 52, -22, 47, 11, -50, 23, -63, 24, -21, -70, -19, 57, 72, 9, 67, -35, 82, 59, 67, -3, 66, 38, -31, -10, -18, 87, 61, 38, -20, -50, 35, 43, 58, -31, -15, -75, 53, -45, -18, -64}
, {-6, -10, 64, 44, 56, 44, 34, -11, -54, -40, -77, 13, 37, 29, -43, -56, 76, 57, 63, 0, 41, -52, 53, -2, 3, 44, -65, -17, -60, -1, 52, 34, 16, 36, 60, -17, -70, -26, 44, -32, -25, -38, 87, -37, 45, -5, -73, -68, -54, -40, 32, 59, -15, 66, 56, -32, 39, -40, -22, -46, 67, 18, 8, 33, 35, 34, 24, -56, -45, -16, -3, -61, 53, -51, -22, 44, 54, -34, -50, -70, -44, -39, 3, 30, 16, -37, -41, 50, 10, -9, -65, 53, 46, -32, 20, -73, 15, 34, 22, 7, 55, -16, -9, 28, -73, 48, 3, 52, 29, -2, -70, -47, 15, -46, -24, -26, -11, -16, 13, -76, 70, 6, -58, 38, 2, 55, 43, 22, -1, 48, -18, 50, 61, -71, -60, 42, 33, 60, 27, -3, -25, 75, 2, -18, 9, 50, -12, 24, -13, 54, 4, 4, 49, 25, -52, 54, -39, 25, 20, 16, 10, -68, 40, 10, -30, -32, 15, -56, -68, 55, 19, 50, -9, 53, 73, -52, 63, -16, -4, 49, 42, 3, -79, -69, 46, -16, 72, 89, 56, -27, 49, -53, 53, 46, 10, -44, 2, 49, 43, -62, -11, 61, -69, 34, -37, -71, -28, 55, -65, 12, -8, 0, -28, -26, 12, -89, 0, -67, -73, -33, 74, 32, 48, -26, 62, -42, -68, -72, -24, 34, -49, 14, 2, -43, 25, 58, -33, 65, -45, 64, 39, -29, -35, 15, -33, -13, -39, -57, 55, -52, 17, 1, 59, 21, -32, -48}
, {70, -64, 58, 29, 62, 54, 37, 3, 29, -38, 26, -40, -74, -6, 63, 9, -46, -48, 62, -1, -23, 44, 60, -40, 66, -39, 14, 63, -13, -14, 14, 65, 61, 29, 17, -10, -54, -68, -40, -77, 66, -47, 50, 8, 0, -7, -66, -22, 31, -63, -21, 27, 33, 28, -42, -26, 65, -22, -54, -42, 15, -19, 60, -54, -5, 38, 40, 36, -44, -64, 63, -72, 59, 73, -65, -43, 50, -14, -17, -66, -1, 34, 44, 6, 24, -15, -39, -48, -45, 16, -32, -44, 23, 43, -13, -1, 63, -9, 11, 57, 49, -17, -29, 12, -17, 42, 3, 40, 27, 36, 13, -5, -52, -54, -33, 68, 20, -54, 3, 47, 11, 15, 8, 66, 69, -33, -61, 63, -2, 57, -55, 85, 27, -39, 4, 12, -69, 8, 61, -53, -41, 32, 28, -56, -57, 37, 12, -31, 47, -2, 35, -71, 4, 19, 63, 55, -70, 75, -47, 69, -7, -57, -64, 56, 62, -28, 10, 39, -80, 51, -64, 12, 13, 23, 31, -65, -53, 45, -7, -34, -19, 65, 56, 19, 69, -19, 33, 85, 11, -39, -53, 79, 46, -50, 63, -54, -34, -76, -37, 67, -19, -57, 33, -47, 73, -22, -72, 10, 61, 30, 8, 16, -29, -69, -72, 8, 54, 73, 20, 34, -54, -51, 6, -47, 62, -57, 51, 41, 47, 59, 67, 13, 61, -18, -26, -64, 8, -63, 36, 7, 23, -47, 11, -36, -61, 6, 23, -30, 42, 58, 67, 72, -33, -18, 22, 54}
, {-43, -24, 73, -53, 50, 74, -83, 0, -12, -23, 72, -12, 20, 32, -41, 54, 20, 46, -73, -44, -43, -48, 53, 67, -42, -39, 25, 16, 7, 71, -48, -53, 37, -30, -67, -61, 17, 83, 58, 4, 37, -39, 18, -3, 69, 12, 1, 14, 20, -25, -70, -25, 5, 61, 74, 12, -23, 14, -51, -5, -57, 57, 22, -27, -26, 71, -59, -36, 0, -29, 43, -53, -3, 34, 56, -66, 50, 31, 50, -65, 54, -31, -56, -7, 16, 10, -1, 77, 89, 31, 4, 46, 45, 13, -4, -52, 52, -33, 20, 62, -55, 25, -45, 36, 58, 34, 84, 83, -75, 15, 22, 70, -3, -53, 26, 38, -2, -71, -34, 11, -46, -19, 15, 48, -50, -30, 17, -11, -3, -26, -31, 40, 74, 41, 27, 39, -69, -44, 35, 33, -8, 0, 66, 8, 59, -59, -63, -64, -35, -7, -50, 52, -36, 49, 33, -63, 21, -7, 18, 35, -10, -33, -62, -16, -46, 69, -19, 64, -50, -7, -39, -36, -3, 67, 57, 40, -7, 78, -9, -56, -28, -31, -53, -17, -4, 55, -60, -68, 29, 63, 34, -41, -28, -70, 1, -21, 74, 19, -58, 17, 44, -9, 69, 19, 69, -18, -4, 26, -52, -21, -66, 3, 2, -34, -45, 60, 30, -59, -8, -37, 11, -62, 64, 1, -69, -37, -49, -6, 49, 9, 80, 56, -51, -57, -29, -4, -50, -26, -13, -39, 0, 54, -47, 42, 21, 61, 42, 61, 68, 96, -56, 31, 42, -14, -80, -45}
, {-16, 0, 51, -50, -21, -52, -42, -64, -16, 69, -56, 6, 38, -40, 10, -36, -28, 8, -38, 18, 25, -53, 55, 0, -37, -73, -11, -13, -76, -51, -32, 38, 40, 51, -70, 43, -22, -47, 22, 54, -77, -21, 33, 49, -19, 32, 24, 21, -31, 31, 52, 37, -24, 20, -22, 35, 61, 5, -11, -37, 3, 14, -52, 50, 20, 1, -45, -58, -66, -49, 24, 45, 60, 52, -12, -64, 15, -55, -36, -63, 48, -30, -30, 70, 51, -42, 24, -38, 77, -42, 4, -29, -63, 68, -44, 49, -28, 23, 54, 26, 39, -22, 28, -27, 15, 34, -37, -55, 51, -61, 65, -52, 63, 53, 25, -24, 56, -24, -1, -65, 70, 61, -65, -7, -2, -31, 49, 71, -39, -22, -31, 45, -14, 24, -71, -53, 54, -53, -41, -61, 21, 27, -4, 53, 52, -80, 41, 9, 21, 36, -34, 10, 65, 70, 57, 14, 54, 60, 54, -24, 52, -21, -45, -11, -34, 57, -19, 67, -47, 41, 32, 0, 35, -55, 59, 6, -12, 50, 2, 51, 30, 79, -73, -15, -12, -6, -65, 59, 65, 66, -46, -80, 45, -18, -47, -20, 66, -32, 58, -67, 77, -52, -30, 71, -75, -56, -47, -5, -12, 67, -31, 51, -19, -27, 58, 66, -30, -27, -16, -74, -16, 52, 3, 40, -43, -68, 14, -12, 14, 30, 70, 56, -8, 26, -48, -57, 69, -11, -22, 69, 11, -48, 9, -9, 68, -61, -68, -50, -9, 67, -21, 7, 18, -45, -49, 66}
, {42, 41, 6, 29, 0, 58, 71, 78, 20, -64, -52, 5, -67, 5, -61, 23, 33, -37, 67, 29, -10, 21, 23, 70, 40, -22, -43, 28, 57, 16, -8, -51, -45, 21, 96, 85, 6, -6, 21, -13, 21, -47, -55, -31, 40, -1, 67, -11, -55, 46, 22, -47, -69, 42, 57, 2, -66, 43, 0, -72, -13, 4, 23, 12, 7, -45, 35, -4, -43, -23, 43, 12, 11, 52, 56, 61, -65, 1, 40, 63, 40, 52, -36, -64, -54, -32, 53, 7, -2, 75, 56, 12, 80, -5, 23, 57, -32, 4, -51, 44, 25, 6, 9, 34, 56, 9, 29, 13, 9, 22, 9, -26, 59, -43, 63, -56, -48, -63, -5, -36, -17, 7, -17, 2, 46, -33, -74, -83, -29, 36, 13, -22, -42, -22, 67, 56, -21, -60, 1, 64, 18, -54, 53, 9, 55, -66, 57, -33, 77, 13, 5, 31, 43, -22, -48, -28, -39, -46, -52, -16, -52, 69, 43, 57, -16, -32, -28, 38, 56, 70, 37, 17, 11, -16, -42, -1, -1, -8, -60, -2, 59, -31, -44, -71, -35, 49, -32, 11, 2, -60, 29, -27, -52, 8, 0, 78, -7, -11, -39, -45, 9, -22, 10, -25, 3, -16, 58, 57, 58, -33, -39, 37, 21, -15, -51, -43, 70, 50, -29, 55, -76, 63, 49, 63, -24, 5, 48, 23, 2, -28, -6, -5, -21, 0, 64, 46, 22, 29, 0, -78, 48, 19, 57, -35, 72, 10, -14, 12, -65, -32, 27, -30, 14, 16, 69, 0}
, {71, -52, -36, 74, -41, 64, -3, 2, -12, 14, -32, 7, -4, 42, 66, 54, 52, 84, -52, -14, -28, -36, 5, -47, 43, 18, 33, -76, -6, -45, 87, 74, 0, 48, 5, -32, 19, -60, 11, 24, -39, 3, 21, -17, -104, -106, 31, 7, 17, 53, 0, -32, -31, -20, -2, 22, 37, 21, -20, -35, 47, 3, -69, -53, -63, 23, 14, -29, -58, 11, 0, 69, -61, -20, 23, 48, 35, 81, 50, 78, -43, -3, 42, -64, -28, 67, 11, 17, 54, 62, 42, 3, -45, 25, -49, 17, -68, -3, -37, 27, -30, 5, 11, 13, 49, 6, -5, -17, 45, -10, -79, -75, -53, -52, 32, -41, 40, 26, -24, -28, -5, 51, -40, 26, -26, -37, -42, -77, 13, 50, 50, 11, 0, -24, 30, 8, 0, 31, -47, -32, -43, -74, -31, 62, -60, -70, -66, -48, -30, -56, -12, 59, -32, -57, -29, 34, 52, 0, -29, -21, -59, 72, 37, 0, 59, -46, -54, -4, -43, -24, -29, -48, -90, -78, -1, 81, 50, -9, -19, -59, 34, 11, 11, 66, -8, 57, -77, -47, 41, 3, -83, -68, 35, -31, 17, 14, 26, -39, -34, -33, 71, 29, 63, -51, -14, 12, -60, -7, -34, -32, 53, -20, -59, -79, -44, 55, -25, -67, -94, -25, 0, 69, -59, -75, -39, -58, 48, 0, 1, -57, 86, -18, -82, -33, 5, 75, 67, 19, -23, 51, -6, -1, 68, 54, -22, 40, -53, -2, -90, -78, 42, -61, -59, 87, 71, 3}
, {-34, 6, -48, 10, 50, -22, 41, 24, 1, 27, 56, 18, 63, 50, 68, 14, 62, 15, 55, 11, 56, 64, 4, 9, 4, -14, 36, -3, 85, 49, 19, 38, 44, 63, 65, 22, -1, -34, 18, -54, -82, -26, -58, -6, -80, -86, 30, 66, 51, 53, -37, -56, -27, -18, 26, 76, -24, -23, 68, -10, -6, 16, -29, 33, 56, 27, -56, -40, 14, -75, -1, 29, 6, -60, 4, -12, 34, 0, -61, 23, -52, 34, -6, -46, 30, -64, -57, 4, 22, -61, 48, 20, -25, 60, -69, -54, 47, 18, 46, 66, -11, 17, -16, 24, 79, 5, -71, 52, -31, 29, 42, 55, 45, -52, 55, -1, -21, 72, 21, 55, 56, 16, 41, 47, 4, -95, -19, 36, 43, 50, -2, 10, 31, 24, -13, 21, 42, 59, -54, 30, 27, -49, 6, -23, 30, -73, 58, -52, -78, -47, 54, -17, 22, -15, 5, -13, 74, 40, -47, -86, 64, 54, -41, 40, 54, -63, 20, -36, -21, 27, -5, -36, -48, 14, -34, 5, -13, 62, -10, 0, 28, -2, -31, -28, -51, 51, -48, -59, -46, 40, 32, -74, -26, -23, -59, 0, 30, -45, -75, -42, -11, 59, 29, 55, -55, -43, 76, 22, -32, -70, 62, -36, 36, -50, 42, 17, -45, -53, -55, -68, -63, 52, -54, 1, 52, 37, -72, 42, 51, -49, 54, -32, 20, -70, -3, -47, 72, 48, -55, 22, -58, -71, 53, -46, -43, -30, -68, -10, 58, -39, -73, -35, 23, 39, 27, 45}
, {18, 53, 9, 34, -1, -74, -58, -72, 68, -65, -51, -73, -42, 70, 0, -32, 12, -45, 73, -26, 59, 34, -17, 6, 8, -26, 54, -74, -32, -8, 23, 77, 5, 0, -54, 8, -61, -30, 78, 72, 28, 47, -12, -37, 39, 28, 30, -16, 69, -16, 66, 62, -60, -51, 33, 0, -43, -55, 0, 59, 20, 27, 63, -55, -11, 12, -53, 50, 43, 52, -47, -16, -19, -68, -52, -36, -33, -26, 56, 45, -23, -67, -33, -29, -50, 11, -40, -36, -83, -18, -5, -59, -55, -78, -76, 35, -45, 45, -30, 67, -20, 35, 62, 56, 32, 24, 43, 7, 38, 74, -55, -36, 39, -5, -4, 79, 16, 28, 20, -78, 18, 59, -14, -22, -33, 39, 63, -31, -28, 50, -47, -94, -39, -40, 32, 38, 66, 0, 66, -5, 33, 63, 33, 67, -6, 38, 44, 33, -38, -33, -3, -58, -30, 18, -37, -2, -31, -61, -37, 13, 15, 40, 55, 35, 44, 65, -59, 53, 47, -42, 50, -61, 21, -17, 29, 24, 24, -18, 43, 5, -20, -48, -41, 9, -11, -60, -23, -70, -68, -66, 48, 25, 74, -13, -6, -13, 27, 51, -42, 42, -54, -17, 22, 57, 44, -5, 2, -28, 32, -9, 18, 14, 15, 53, -28, 73, -40, 70, 32, 21, 23, -59, -46, -76, 35, 62, -30, -60, -70, -31, -1, -18, -85, -82, -22, -38, 0, -45, 29, 26, -63, -51, 12, -19, 0, -11, 63, 29, -87, -60, 0, 9, -40, 38, 27, 61}
, {-71, 25, -71, 54, 0, -73, 39, 58, -63, 35, -64, -24, -73, 18, -66, 35, -58, -50, 44, -27, 59, -53, -18, 7, -28, 46, -9, 25, 33, -39, 25, -10, 57, -23, 38, -8, 80, 21, 45, 16, -41, 21, -3, -76, 68, 69, 60, 46, -2, 3, 23, -11, 37, 13, 22, -67, 61, 24, 55, -47, 25, -10, 70, -59, -53, 14, -48, 29, 36, 0, 39, 43, -26, 7, 61, 57, -33, -12, -51, 27, -65, -53, 27, 49, -75, -65, 38, -58, -58, 24, 55, -57, -11, 33, 46, 38, -30, -12, -16, 37, -6, 72, 6, -65, 16, -5, 29, -50, -44, 53, 48, 27, 29, -4, 46, 59, 47, 66, 37, 31, 15, -40, -32, -29, -14, 49, -24, -47, 67, 76, 44, -72, 27, -62, 5, 1, 34, 10, -46, 25, -64, 28, 23, -22, 71, -14, -38, 58, 48, -34, 71, 1, -6, 49, -42, 62, -30, 64, 55, 33, 63, -28, -45, 19, -10, 9, 50, 50, 17, 80, -63, 7, -34, -55, -6, 39, -69, -30, 52, -38, -64, 45, -47, 18, -68, 10, -28, -22, -68, -72, -35, 13, 15, 23, -7, 16, -2, -65, 68, -55, 62, -9, 48, -35, -36, 43, -45, -28, -9, -16, -54, 11, 22, 39, -52, 20, -33, -49, -15, 66, -33, -53, 45, -84, 16, -42, 68, 59, -63, 57, -1, -54, 4, -58, -14, 33, 2, -56, -33, 39, 0, 25, -46, -2, 63, 18, 5, -65, 51, 31, -71, 37, 3, -35, 75, 38}
, {28, 12, -12, 52, 49, 17, 24, -51, 12, -6, -86, -31, 68, 15, -35, 1, 0, -8, -59, 25, 62, 52, 16, -18, -60, 32, -27, 31, 22, -67, -25, 26, -5, 63, -34, -20, 30, -62, -8, -8, 14, -28, -32, -12, 42, -2, 38, 64, 4, -72, 12, -20, -16, 17, -54, -51, -74, -14, -25, -15, 12, 0, -57, -30, -24, -31, 33, 65, 13, 57, -19, 22, 27, -53, 25, 30, -25, 66, 26, 47, 43, 59, 39, -12, -44, -11, -1, 25, 33, -33, -57, -41, -12, 24, -46, 38, 43, -39, 30, -21, -49, -10, -18, -51, 63, -60, 68, -67, -37, -52, 22, -51, 28, -47, 23, 21, 7, -17, -48, -24, -5, -38, 41, 31, 22, -30, -64, -1, 52, 27, 11, 48, -80, 0, -53, -25, 45, -43, 14, -1, -11, 13, -40, -56, -70, -27, 30, 63, -72, -8, -10, 47, 44, 34, 6, -58, 10, -40, -32, 38, -68, 59, -13, 72, -25, 6, -4, 58, 67, 65, -65, 24, -46, 23, 65, 9, 38, -9, -32, -28, 49, 18, -8, -19, -18, 40, 48, 41, -69, -49, 19, -71, 47, 1, 70, -20, 15, 48, -9, -49, -48, 17, -42, 65, -20, -21, -13, -23, 3, 30, -26, -26, 20, -61, -29, 0, 23, -10, -32, -6, -57, 15, -64, 18, 12, 58, 61, -26, -52, 63, 34, -35, -8, -53, 65, 3, 22, -57, -7, 18, 53, -6, -3, -49, -31, 33, 65, -57, -47, 38, -22, -8, -6, 16, 18, -65}
, {41, -24, 54, 4, -72, 56, 14, -78, 4, -9, -2, -94, 9, -64, 13, -10, -44, 13, -51, -15, 41, 14, 29, 14, 44, 5, -31, -20, 42, -17, 31, -36, 85, 48, -75, -19, -6, -81, 10, -49, 20, 29, 13, 4, -36, 21, -73, -3, -44, 46, 71, 11, 0, 0, 33, -31, 28, -48, 22, 39, 66, -32, 2, 68, -5, 64, 62, -48, -67, 62, 39, 66, 11, 20, -31, -61, 45, 15, 10, 52, -17, -53, 6, 67, -56, 51, -24, -49, -79, -39, 15, -5, -45, 7, -21, 52, 35, -36, 0, 33, 34, -63, -24, 28, 73, -23, 21, -51, -60, -2, 60, -58, -34, 50, 67, 76, -66, 17, -76, -4, -18, 16, 48, -41, 29, 75, 20, -53, -37, -4, -4, 30, 14, 2, 6, 12, -64, -11, -24, 23, -21, 72, 40, 55, 53, 68, 67, -49, -15, 4, -34, 27, -30, -13, 47, -58, -63, 14, 50, -41, 2, 69, 56, 33, -19, 37, -2, -21, 18, 52, -32, 21, -68, 47, -19, 64, 60, -24, -10, 21, -22, 34, 19, -16, -57, 39, 44, 52, -47, -44, -60, 59, 34, 36, -66, 66, -28, 20, -53, -7, -45, -90, -23, 1, 37, 56, 17, -22, 60, -30, -53, 57, 51, -58, -63, 3, 76, 46, -32, -38, 12, -81, 50, -109, 18, 19, -60, 63, 22, -48, -76, -73, 55, 11, -38, -9, -29, 9, 32, -67, 18, -47, -20, 74, 4, 32, 35, 72, -86, 15, -37, -42, -63, -33, -33, -36}
, {17, 19, -50, 23, 2, -63, 17, -29, -25, 16, 53, 32, -21, -1, 7, 66, -24, -73, -7, -65, -14, -64, 56, -68, -26, -52, 26, -48, 55, 53, -60, -56, 42, -11, -84, -13, 4, 49, 41, 35, -22, 49, 77, 50, -1, 27, -2, 42, -54, -17, 20, 17, 39, -44, -5, 20, 73, 32, -35, 25, -55, 38, -42, -72, -51, -56, 56, 64, 28, -59, 33, 46, -41, 26, 69, -58, 66, -68, 13, -48, 29, -51, 26, -57, 5, -7, -9, 33, -37, 68, -29, 11, 20, 50, 31, 28, 18, 45, 10, 45, 0, 59, -7, -45, -5, 0, 55, 68, 24, -36, -37, 46, -47, 32, -1, 52, 61, 30, -65, -50, 59, 81, 71, 0, 75, 76, -38, -57, -19, 29, 44, 6, -49, -6, -23, 19, -7, -28, 12, -23, 67, 1, 55, 16, -38, 23, -3, 46, 40, -54, 12, -78, -11, 45, 15, 8, -28, 48, -23, 6, 67, -51, 21, -11, -36, 42, -30, 31, 15, -36, 14, 38, -47, 69, 58, 67, 7, -37, -42, -47, 68, -35, 20, 0, -12, -52, 44, -31, -35, -47, -65, -26, 29, 6, 33, 58, -13, 10, 33, 55, 61, -21, 3, 21, -62, 49, -63, 68, 9, -39, 72, -13, -74, -14, -45, 39, 67, 6, -36, -77, -54, -68, 59, 38, 41, -28, 49, 35, -15, 68, -6, -77, -69, 34, -25, -41, -59, 14, 48, -28, 47, 3, -15, 19, -54, 7, -68, -66, 18, 10, -42, -11, -48, 0, 33, -11}
, {23, 31, 20, 22, 46, -40, -63, -4, -39, 56, 34, -44, 65, 47, 5, -40, 54, -46, 26, 12, -51, 3, 9, 7, 64, 22, -39, 19, -6, 89, -48, -34, 24, 76, 19, -71, -7, -66, -23, -56, 65, 14, 24, -110, -77, -63, 29, 29, 21, 23, 78, 10, 76, 75, -18, 2, -38, -14, 17, 75, 57, 68, 56, 21, -54, -9, 7, 33, 46, 39, -45, -2, 40, 4, -33, -40, -19, -82, -53, 0, -60, 24, 59, -27, -52, -29, -31, 18, -5, -18, -73, -79, 42, 2, 39, -43, -83, -46, -66, -36, 39, 48, -36, -71, 41, 25, -50, -51, -60, 1, 25, -25, -31, -1, -36, -67, 28, -29, -76, -12, 45, 42, 52, 67, -71, -20, 8, 24, 64, -41, 25, -99, -40, 41, 72, 53, -71, -15, -53, -80, 43, 38, 41, 50, -33, 36, 69, -39, 60, -68, 21, 41, 55, 49, 7, 9, -9, 49, 45, -45, 27, -33, -14, 20, 41, 17, 70, -67, -18, -27, -5, 38, -9, -29, -8, -52, -15, -26, 5, 66, -17, 59, 6, 35, 57, 51, -53, 36, 56, -63, 60, 64, -8, -67, -71, 68, 37, 26, -70, -29, -39, -72, 27, 59, -67, -40, -59, 7, 35, 8, -53, 38, 13, -46, 90, -4, -39, -32, -30, 51, -63, -43, -14, -88, 13, 42, 53, -5, -45, -82, -1, 52, -23, -21, -1, -39, -38, -57, 4, -36, 18, 25, 49, -17, -75, 27, -32, -58, -78, -71, 10, 47, -39, -40, 33, -52}
, {67, 46, 72, 17, 43, 10, 45, 27, 27, 54, 22, 6, 32, -14, -26, 0, -42, 0, 48, 20, 37, -9, -31, -44, 61, -46, -66, 27, 22, 41, -41, -62, 78, -34, -88, -20, -21, -27, -21, -6, -19, 66, -58, -56, 40, -67, 8, 26, -11, 10, 47, 29, 6, 44, -10, -10, 34, -44, 67, 3, 54, 54, -44, -76, -32, 36, 17, -56, -62, -30, 24, 19, 53, 14, -24, -33, 15, -61, -41, 58, -47, -70, 48, -58, -13, -9, -52, -49, -6, -8, -12, -35, -80, -50, 44, -15, -70, 28, 34, -10, 11, 6, -16, 59, -26, -37, 1, 36, -16, -27, -8, 7, -18, 62, 74, 42, 35, -38, 37, 46, -73, -31, 32, 27, 12, -71, -57, 16, 42, 57, -7, 25, 69, -20, 64, -34, -57, 31, -1, 19, 34, 0, -19, 53, -58, 62, 14, 12, 3, -65, -58, -6, -4, 10, 12, 70, -94, -56, -17, -6, 38, -49, -30, -48, -52, -7, -34, -37, 14, -66, 84, -10, -38, -5, -51, -35, 22, -51, -44, 74, 20, -43, 42, 10, -18, 6, -34, -5, 32, 70, -59, -44, 8, 28, 52, 8, -73, -3, 15, -61, 24, -39, 5, -50, -56, 57, 41, -56, -26, -12, -64, 65, -75, 20, 16, -59, 40, 26, -4, -15, -55, -27, 41, -50, 64, 14, -60, -29, -27, -8, -85, -50, -65, -3, 2, 62, 55, -23, -56, -45, -81, 50, -73, -76, -11, -66, 26, -28, 9, -69, 62, 66, 57, 0, -68, -11}
, {-1, 13, -26, -17, -51, -75, 83, -17, 62, 54, 11, 40, 68, 32, 11, -4, 36, -4, -67, -19, 4, 6, 1, -54, -14, -58, -58, -51, 15, -31, -44, 37, 39, -7, 91, -56, 37, -41, 20, -38, 10, -57, 34, 56, -12, 37, 40, 35, 75, -18, -14, -75, -26, -17, 9, -6, -9, 76, 2, 15, 48, 28, -34, 50, -50, 7, -68, 19, -52, 24, 71, 30, -18, 29, -32, 20, -70, 51, -43, 57, 44, 86, 62, 49, -71, -2, -17, -40, -6, -27, 24, 37, 70, -21, -75, -40, -54, 40, 60, 70, -53, 43, 34, 30, 46, 14, -75, -49, -62, -19, 53, -62, 14, -37, 19, 47, 79, -45, 11, -42, 63, 18, 12, -1, -55, -59, -43, 51, -16, 41, 21, 12, 34, 7, 20, 66, 55, 25, -29, -70, -72, 39, 72, 56, 7, -9, 31, 15, 49, 14, -44, 32, -13, 5, -40, 18, 82, -8, 2, -19, 4, 36, -20, 58, 14, -17, 32, 56, 38, 37, 57, -1, -74, 31, -19, -56, 5, 43, 15, -44, -77, -30, 73, 33, -4, 23, 39, -67, -53, -18, -22, 29, -54, -74, 64, 19, -38, -5, -52, -41, -51, -51, 77, 54, -38, 22, 40, 52, -69, 2, 27, -3, -41, -45, 7, 47, -45, 71, -8, 40, -2, -45, 68, -55, -51, -70, 56, -38, 67, -30, 81, -56, 11, 57, -2, 17, 6, -58, -24, 2, 6, -80, 60, 59, 33, -18, 62, 38, 2, -46, -10, 72, 48, 54, -31, 72}
, {-18, -69, 43, -47, -8, 42, 59, -36, -58, -59, 78, 16, 3, -50, 18, -55, 9, -7, -46, -33, 72, 48, -36, 45, 22, -81, -33, 41, 12, 50, 55, -49, -40, 28, 36, 2, 41, -20, 30, 76, 8, 44, -51, -64, -64, -58, 8, 51, 14, 0, -1, -34, 1, -39, 41, 27, -60, 18, 32, 64, -61, -6, -2, -39, 18, 49, 19, -30, -11, -23, 35, -56, -14, -16, 65, 33, 40, 52, -17, -7, 3, -16, 49, 35, -56, -43, -37, 49, 24, -65, 71, -63, 37, 44, -2, -1, 29, -22, -6, 4, -7, 14, -35, -28, 56, -8, 12, -46, -29, 27, 6, 6, -59, 32, 58, 14, 37, 84, 7, -6, -3, -37, -19, -70, -38, 31, -46, -81, -46, 71, 3, -78, -52, -25, -60, -67, 47, 26, 22, 72, -62, -30, -63, 51, -65, -56, -35, 37, -9, 19, 20, -11, 54, 61, 61, -1, 27, -7, 1, -65, -35, -10, 11, -23, 36, -21, 47, -33, 13, -9, -55, 38, 4, -40, -10, 38, 59, -40, -40, -49, 19, -80, 53, 71, -60, 55, -61, -53, 5, 10, -67, -90, 53, 34, 34, 72, 5, 52, -31, -67, -9, -37, 55, 54, -19, 21, 67, 52, 43, -7, 65, 53, -51, 46, 9, 35, -61, 64, -83, 65, -37, -69, -30, 7, 24, 69, 62, 12, -48, 39, 37, 67, 47, 46, 20, -59, -60, 3, -71, -47, -28, 11, -29, -48, 15, 54, -50, -45, -74, 7, 47, -15, 37, 23, 46, -30}
, {39, -72, 45, -5, 55, -65, 30, 1, -64, -45, 66, 30, -63, -2, 35, -5, 57, -9, -35, 64, -75, -53, 72, -54, 41, 24, -18, -22, -29, -38, -4, -42, -79, -30, -15, -59, 66, -38, 73, 32, 65, 57, -7, 93, 34, 10, -28, 29, -77, 39, 41, 35, -30, 47, -7, -53, -14, -57, 37, -74, -58, -21, 20, -6, -21, 38, 18, 51, -15, 59, 34, -51, -22, 42, 35, 31, -60, 38, -43, -55, 13, -45, 71, 72, 31, -16, -66, -27, 69, 71, -31, -44, 37, -62, -26, 24, -32, -24, 12, -66, -33, -67, 20, -17, 11, 3, 30, 64, 40, -4, -40, 46, 47, 4, -7, 15, -52, 8, 39, 49, -8, -48, -20, -73, 40, 103, -34, 64, 27, -4, 67, 57, -47, 56, 33, 57, 1, -14, -20, 5, 64, 44, -49, 5, 37, 53, -70, 1, 13, 28, 33, -13, 68, 48, -15, 6, -8, 75, 44, 3, 51, 35, -60, -36, -27, 10, 28, -18, 26, 24, -28, -7, -36, 2, 45, 27, 42, -20, 9, -25, -62, -13, 2, -32, -39, 32, -28, -21, -21, -55, 6, -67, 60, 62, 70, -15, 47, -72, -11, 57, 48, -26, -2, 33, 70, 72, -59, 58, -25, 36, -33, -37, -5, 49, -19, 15, 2, 8, 51, 9, 33, 65, 44, 63, 41, -32, -39, -46, -22, 32, -1, -18, 77, 43, 55, -29, 32, 25, 50, -64, 41, 63, 37, 22, 83, 33, -20, 53, 74, 3, -49, 47, 54, -44, -23, -42}
, {-59, 65, -62, -6, -28, -45, -48, -5, -10, -60, -57, 37, -46, -53, -22, 55, -77, -67, 32, -46, 11, 55, -32, 29, -12, 72, -43, 72, 48, 38, 36, 66, -29, -50, -12, 90, 36, 16, 74, 22, 60, -28, 3, -20, 17, -40, 32, 24, 33, 75, 0, -3, -9, 43, -59, -61, -49, 16, -65, -46, 41, 23, 30, -8, -30, -36, -41, -63, -37, 56, -32, 51, 59, 21, 56, -15, 46, -17, 61, 76, -69, -15, -52, -17, 46, -51, 19, -3, -24, 28, 32, -65, -46, 77, -62, 64, -11, 35, 41, 31, -72, 48, -23, -6, 51, 40, 62, -20, 47, -5, -57, -26, -32, -71, -53, -49, -12, -22, 0, -52, -84, -31, 45, 81, -61, 14, 60, 19, -38, 53, 40, 53, -28, -60, -40, 46, 54, 53, -25, 83, 10, -13, 14, 59, 70, -59, -38, -38, 51, -12, 69, -20, 53, 70, -14, 78, 84, 20, -27, -67, 1, -10, -28, -28, 54, -32, -68, 6, 13, 57, -40, -84, 11, -65, 45, -70, -47, 21, 46, 3, -73, -44, 22, 16, -45, 52, -63, -65, -23, 45, 52, -40, 15, 26, 64, -33, 60, -43, -45, -46, -64, -3, -32, -44, -29, -9, 0, 36, 35, -9, 35, -7, 23, -49, 26, 80, 62, 55, -36, 19, 7, 3, 6, 27, 65, -3, -61, -47, 40, 31, -25, 14, 19, 74, -16, -62, 27, -30, -56, -85, 1, -19, -25, 40, -38, -38, -18, -41, -14, -56, -31, 28, 42, -41, 72, -39}
, {32, 19, 62, 52, 51, -46, -44, -18, -23, -23, -36, 25, 2, -10, -64, -60, -56, 41, 44, 48, 29, 7, 11, -45, -6, 53, -62, -40, 66, 24, -30, -59, -2, 51, 43, 31, -66, 77, 56, 77, 44, 0, -64, -77, -64, -67, 38, -40, 31, -22, 16, -30, 69, 57, -73, 56, 62, -28, 65, 61, -2, -6, 38, -13, -50, 43, 53, -54, 41, -32, -39, 23, 50, 5, -69, -2, 57, -19, 19, -56, 51, 10, 45, 6, -56, -21, 37, -62, -1, 47, -64, 8, -32, 47, -62, 54, -66, 5, 48, -28, 18, 47, 0, -8, -40, 83, 27, -63, 45, 81, -16, 49, 39, -57, -39, 0, 55, 70, -55, -6, -4, -4, 14, 44, -2, -11, 52, 71, 22, 51, 35, -13, -61, -43, -4, 7, 51, -38, 39, -5, -25, 24, -42, 35, 36, 28, 41, 23, -4, -24, 48, -35, -25, 69, 5, -10, 7, -28, -49, 62, 50, -34, 30, -64, -39, -16, -51, -38, -24, 11, -11, -15, 10, 42, -47, -59, -47, 4, 56, 26, -54, -61, -23, -38, 43, 12, -87, -51, 39, 56, 0, 31, -18, -78, -65, -10, 41, 9, -24, 21, -7, -65, -50, -61, 4, -59, -27, -36, -8, -36, -20, -6, 78, 58, 73, 92, -64, -20, -44, -6, 15, -48, -69, -41, 0, -22, 69, 56, -39, -16, 19, -7, 14, -49, -14, 55, 45, -62, 37, -36, 41, 39, -18, 8, -62, -71, -24, -18, 16, -65, 45, 28, 0, 48, -44, 52}
, {-33, 20, -8, -60, 63, 9, -18, -7, 16, -16, 74, -67, -60, 60, -15, -26, -37, -68, -38, -11, 45, 67, 41, -8, -25, -51, 70, -7, 77, -34, -40, -15, 0, -78, 26, -31, 65, 31, 52, -5, 12, -5, 11, 17, -25, -30, -59, 40, -46, -49, 43, -43, -25, -65, -50, 0, -21, -62, 28, 48, -65, 18, -56, 29, -40, 39, -3, -3, -62, 26, 34, 25, -26, -28, -4, 65, 25, -32, -21, 9, 26, 86, 24, 77, 62, -39, 32, 2, 50, 18, -32, -10, -10, 34, -47, 38, 54, -1, -54, -31, 39, 62, -12, -55, -49, -27, -57, -33, 9, 37, 34, 57, 51, -66, 15, -44, -19, -58, 37, -31, 60, -26, -67, -39, 4, -10, 10, -67, -4, 14, 55, 57, 36, -10, 27, 1, -55, 25, 34, 35, 37, 25, 57, -17, 13, -53, 14, -15, 19, -67, 16, 48, -4, -61, 55, -60, -25, 49, -31, -54, -65, -33, -57, -71, 37, 47, -32, 53, 61, 80, 41, -31, -22, -29, -27, -61, 27, -6, -21, -58, 62, 50, -71, -67, 57, -5, -44, 13, 16, -66, -2, -82, -31, 25, -16, -56, 72, -37, 44, -16, 24, -36, -27, -25, -24, 32, 87, 18, 34, -33, -57, 52, -62, -32, 12, 55, -44, 49, -19, -47, 34, 46, -27, -49, -52, -69, 1, -58, 59, -12, 52, 75, -56, 56, 44, 70, 62, -68, -47, -58, -32, -22, -10, -24, -49, -50, 64, -45, 12, 16, 10, 19, -19, 32, 52, 46}
, {48, 54, 17, 22, 22, -66, -46, -105, -22, 13, 0, -69, -2, 17, -47, 40, 68, -22, 45, 44, -9, 57, 1, -58, 22, -23, -67, -25, 39, 36, -43, 23, 74, 59, -86, 26, 32, -45, -87, -6, 60, 20, -55, -71, -20, -33, 64, -8, 81, 21, -6, 2, 27, 50, -45, 31, 21, 39, 28, -13, 59, 75, -37, -60, 34, 63, 41, -18, 64, -61, -6, -42, 66, -47, -61, -70, -54, 34, 11, -58, -93, -39, -75, -5, -64, -60, -72, 29, 43, -1, 21, -35, -98, -11, -80, 5, 5, -19, -37, 18, -69, -21, -32, 40, -62, 47, 58, -9, -27, -76, 32, -35, 32, 32, 73, -24, -30, 13, 38, -24, 16, 6, -54, 24, -71, 27, -47, -44, -78, -17, -4, -67, -43, 44, 77, -33, 22, 50, 0, -84, 15, -40, 0, -11, -39, -55, -40, 51, -43, 41, -71, 57, -64, 10, -1, 64, -65, 56, -69, -66, 4, 24, -61, -13, -6, 66, -1, -29, -80, 44, 66, 19, -61, -97, -33, 0, 17, 80, 0, -34, 8, 45, -9, -61, -21, 12, -2, -1, -63, 28, 57, -14, -46, 14, 19, 37, 62, -12, 34, 22, -56, 19, -19, -26, -41, -51, 24, 29, 24, 2, -47, 60, -65, -71, -14, 8, -57, -48, 2, 45, -26, 62, -95, -71, -50, -3, -73, -27, -64, 3, 40, -9, -29, -41, -21, -33, -65, -1, 7, -45, -83, 0, -6, 2, -12, 8, -91, 49, 1, 22, 44, -29, -54, 7, -59, 39}
, {-53, 30, 52, 57, 55, -44, 18, 13, 8, 18, -98, -56, 38, 29, 52, 61, -49, -2, 58, 74, -45, -60, 21, -11, 12, -53, 51, -19, 45, -23, -59, 0, -25, 58, -86, -70, -10, -75, 44, -7, 69, 42, -34, -32, -55, -44, -31, -34, 32, -6, -22, 55, 0, 32, -62, 38, -17, -9, -2, 20, 29, 34, 54, 70, -53, 58, -66, 12, -50, -44, 45, -78, -31, 45, -77, 8, -60, -56, -38, -14, -100, -50, -20, -5, 26, 3, -45, 20, -26, -87, -53, -4, -96, -91, 39, 38, 28, -23, 4, 66, 32, 4, -71, -54, -60, -59, -77, 47, 22, -59, -41, -20, -48, 12, 46, 54, 15, 44, 0, -20, -54, -71, 37, 1, 59, -22, -50, -16, -64, -63, -97, -36, -9, -84, 74, 62, -3, -33, -5, -36, 75, 60, 62, 53, 66, 67, -18, 50, -64, 11, -39, 15, -19, -20, 45, 0, 21, -38, -28, 59, -50, 8, -35, -11, 33, -11, 20, 7, 49, -59, -37, -42, -91, 24, -35, -15, 1, -33, -47, 17, -24, 9, 43, 72, 24, -75, -7, 72, 75, 62, -50, -39, -38, 76, -3, 28, 38, 55, -62, 5, -70, -97, 26, -31, -29, -59, -20, -11, 56, -10, -12, -63, -2, -51, -6, -36, -45, 52, 78, 16, -50, -44, -31, -12, 80, -50, 34, -33, -56, 2, -36, 34, 2, -89, 51, -26, -22, 42, 43, 52, -82, -23, 63, 1, 70, 38, 63, -37, -22, -25, -16, -43, 31, 47, 11, 31}
, {44, 50, -4, -20, -35, -59, -76, 40, 46, -45, -56, -23, -67, -39, 41, -63, 29, 60, -13, 34, 19, -28, 31, -48, -16, 16, -9, -15, -27, -69, 69, 75, -40, -8, -25, -75, -28, -61, -9, 20, 43, -1, -11, -33, -100, 38, 11, 40, -26, 24, 49, 83, -19, 14, 67, 33, -1, -80, -20, 50, 13, -47, 44, -7, 76, 3, 24, -31, 0, -55, -73, -60, -2, -45, 12, 28, -74, 33, 67, -4, -15, -76, -55, -64, -25, -26, 9, -73, 56, 27, 18, -6, 7, -37, 2, -61, -38, -86, -24, -6, 15, 56, -30, 2, 62, 14, 19, -28, -87, 10, 60, 6, -55, 11, -45, -15, -59, -47, -102, -14, 21, 39, -66, -10, -94, -92, 72, 44, 44, -37, 0, -31, -52, -8, 18, 48, -70, 9, 32, 18, -24, -24, 71, -37, 55, -5, 23, 14, 35, -86, 19, -55, 34, -76, 49, 50, -63, 54, -5, 56, 25, 55, 65, 6, 35, 48, -54, 4, -69, -43, -58, 69, -57, -61, -15, 71, -34, 28, -44, -2, 47, -61, 48, -42, 37, 61, -45, 0, -2, 77, -3, -14, 61, 57, -3, 50, 58, 27, -33, -40, -5, 21, 35, -72, 62, -49, -19, 75, -34, 42, -26, 64, 44, -49, -24, -25, -58, -34, -19, 33, 8, 49, -50, 29, 31, 20, -59, -8, 19, -91, -33, -79, -65, 19, 10, 12, -66, -64, -56, 77, -37, -7, 33, 50, 39, -41, 44, -58, 6, -70, -32, 74, -33, -68, 14, 56}
, {52, 77, -60, 57, 29, 48, 58, -34, -30, 37, 43, 32, 43, 4, 21, 55, 51, 36, -17, 27, 71, 40, 38, -36, 28, -26, -5, -27, 41, 0, 19, 57, -63, -21, 48, 60, 50, -12, -34, -54, 80, 23, -86, -47, -71, 57, -35, 60, 11, 6, -53, 7, -23, 70, -19, 33, -62, -78, 25, 62, 50, -52, 79, 4, -21, 29, 63, 23, -22, 43, 7, -44, 32, -7, -30, 64, 43, -47, 45, 70, 15, 32, 16, 25, 39, 20, 56, -36, -67, 42, 61, 40, 14, 36, -65, -18, -83, -97, 38, 59, 24, 55, -43, 31, 18, -11, -25, -55, 38, 33, -28, -69, 31, -8, 32, -9, -44, 38, -56, -39, -77, -29, 13, -38, -76, 5, 16, -54, -23, 69, -14, -20, -79, -48, 40, 64, -32, 53, 49, 51, 13, 71, 48, 33, -4, -24, 38, 3, -58, 45, 59, 32, -31, 14, -20, -10, -45, -14, -7, 11, -25, 60, 39, -19, 49, -10, 10, 55, 27, 35, 33, -52, -9, -74, -33, -52, 8, 68, -9, 63, 9, 24, -6, -21, -9, 23, -18, -42, 41, -24, 78, -61, 13, -2, -64, -7, 5, -1, 66, -57, 34, -53, 67, 49, -21, 5, 22, -40, -60, 17, -72, -21, 31, 46, -22, -8, 65, 41, -1, -21, -23, -10, -28, -38, 2, 59, 48, -37, 23, -27, -44, -40, 55, 32, -43, -22, -64, -50, 18, -21, 77, 4, 30, 80, -63, -46, 70, -23, -84, -25, 10, -5, 29, 5, -67, 48}
, {-39, -30, -22, 46, 71, 54, 21, 69, -23, 11, -74, -74, 52, 42, 50, 20, -64, 24, -60, 19, -10, 17, -73, 33, -57, 79, -60, 47, -60, -63, 47, -2, 61, -24, 12, 30, -8, 33, -32, 35, 25, -25, -47, -35, 9, 32, -63, 70, 25, -4, 14, -38, 40, 42, -61, -21, -45, 29, -65, -22, 37, -46, 6, -51, -67, -31, -15, 64, 13, -60, -62, 22, 4, 36, -52, 53, 64, -6, -49, 57, 32, 18, 29, -71, 18, 77, 42, 72, -9, 80, 64, 34, -39, -3, 55, -39, -23, -27, 18, -69, 45, 18, -48, -53, -7, -19, -33, -54, -29, 48, 60, 4, -24, -43, 54, 10, -60, 9, 1, -41, -31, 20, -3, -62, 40, 46, -42, 58, -42, -56, -24, -34, 32, -38, -6, -45, -8, -38, 83, -21, 4, 17, 12, -18, -57, 25, -49, 44, -78, 6, 29, 8, 63, 28, 2, 25, 42, 44, 3, -14, 51, 16, -37, 57, 49, 71, -42, 11, -67, -55, -19, 36, -7, -83, 55, -65, -24, -56, -44, 2, -33, 8, 57, -70, 3, 7, -9, 33, 61, -15, -55, -63, -61, 35, 50, -33, -64, -13, 48, -24, -38, 39, -26, 40, 65, 47, -74, 28, 33, -49, 23, 32, -71, -71, -60, -53, -42, 15, -57, -67, -51, -13, 52, 48, -33, 56, -37, 64, 5, -48, -3, 19, -70, 46, 0, 61, 13, 28, 27, 4, -12, 60, 15, 47, 39, 6, -22, -37, -67, -76, 61, 71, 74, -6, -32, -52}
, {-59, -23, -59, 39, -61, -57, -20, 20, -7, -49, 21, -19, 13, 62, -21, 18, -12, 26, -40, 20, 43, -9, -12, 42, -32, -66, 18, 24, 69, 14, -34, 55, 39, -42, 63, -28, 40, 57, 26, -69, 15, 15, 75, 76, -28, -51, 37, 76, 76, -33, -13, -68, -14, -7, 44, 70, 2, -11, 22, -32, 68, -48, 47, 51, -12, 49, -53, -36, -54, -58, 46, -37, 34, -61, 62, 27, 17, -40, -39, -2, -26, -18, -26, -44, -19, 0, -44, 53, 29, -15, 10, 38, 17, 71, -67, -61, -15, 34, -7, 9, -50, -57, -29, 35, 25, -58, -65, 49, 22, 27, 54, -9, 56, 24, 25, -57, -14, 22, -52, 19, 62, 56, 61, 65, 28, 67, -68, 29, -66, -68, 10, -25, 0, 41, -8, -9, 14, -13, 58, -29, 41, 26, -49, -14, -7, 43, 70, -52, -68, -45, -42, -28, 36, 16, -15, -13, -5, 35, 40, 11, 21, 21, 34, 18, -66, 63, 37, -35, 54, -19, -37, 32, 23, -22, 4, 75, 16, -70, 5, -32, -20, -22, 69, -17, 1, -1, 12, -39, 19, 25, -68, -53, -66, 19, 43, 2, -11, -9, -63, 59, 41, 98, 72, -28, -11, -36, -52, 48, -69, -5, -22, 39, -46, -64, -29, -58, -8, -48, -20, -3, -42, -70, -37, 57, 20, -24, -2, -28, -39, -12, 15, 66, -61, 42, 54, -12, -56, -23, -72, -21, 52, -33, 6, 46, 12, 17, 47, -30, 32, 88, -28, 7, -23, 64, 57, 0}
}
;

#undef INPUT_SAMPLES
#undef FC_UNITS