/**
  ******************************************************************************
  * @file    weights/fc.cc
  * @author  Pierre-Emmanuel Novac <penovac@unice.fr>, LEAT, CNRS, Université Côte d'Azur, France
  * @version 1.0.0
  * @date    24 march 2020
  * @brief   Template generating plain C code for the implementation of Convolutional Neural Networks on MCU
  */

#define INPUT_SAMPLES 128
#define FC_UNITS 40


const int16_t dense_24_bias[FC_UNITS] = {-6, 10, 0, 4, 15, 10, -6, -18, -2, 0, 7, 2, -4, 11, 5, 6, -22, -11, 6, 3, -10, -16, 7, 15, -2, -13, 3, -15, -17, 10, 19, 0, -13, -16, -4, -8, 0, 6, -9, -14}
;

const int16_t dense_24_kernel[FC_UNITS][INPUT_SAMPLES] = {{-25, -20, -114, 59, -44, 48, -93, -108, 5, 91, 47, -82, 69, -61, 21, 36, 48, 59, 37, -4, -44, 37, 46, -61, -5, -7, -46, -27, 60, -79, 89, -41, 33, 63, -80, 49, -63, -36, -85, 28, 74, 92, 99, -55, 33, 72, 96, 70, 54, -74, 75, -7, -61, 46, 45, -62, -103, 38, 29, 66, 25, 72, -85, 18, -43, 34, 45, -23, 52, -100, -9, -66, 39, -51, -14, 62, 22, -11, 57, 77, -54, 21, 60, 85, -59, -58, 12, 74, 20, 11, 4, -77, 57, -104, 65, 103, 78, 39, -26, -51, -75, -70, 21, -42, -23, 85, 81, 15, -36, -37, 14, -45, -77, 97, -32, 0, -28, -94, 41, 22, 82, -74, 63, -79, 63, -48, 20, -87}
, {-59, 17, 77, -125, 59, 41, 70, 89, 14, -106, 58, -3, -17, 15, -75, -44, -57, -45, -33, 58, -39, 3, -40, -1, -113, 76, 36, -31, 10, -54, -65, 13, 62, 0, 57, -3, -51, 38, -82, -13, -67, -8, -97, -49, 26, 74, -17, 42, -87, -91, -71, 14, 54, -49, 51, 53, 43, -65, 103, 71, -41, 12, -89, -58, -68, 52, 69, 91, -78, 28, 9, -33, 24, -65, 75, 64, -105, -17, 3, 62, -79, -6, -8, 12, -80, -50, 13, -24, 7, -78, 77, 83, -31, 53, 83, 11, 22, 110, -59, -14, 37, -21, 104, 52, 81, 44, 107, 48, -5, -94, -47, 25, 27, 15, -61, -71, 48, -72, 14, 19, 36, -42, 88, 62, 31, -73, -100, 66}
, {-93, 37, -1, 97, 81, -54, 9, -16, 10, 47, -71, 69, -90, 26, -34, 62, 85, 42, 98, -60, 35, 80, 101, 64, 85, -90, 47, 73, -72, -98, -46, -109, 12, 25, 63, -83, -77, -34, 49, -19, -26, 34, 10, -52, -31, 31, -76, -101, 85, -7, 48, -38, 68, 12, 13, -77, 96, -39, 52, -92, -4, 20, -13, 39, 8, -22, -8, 20, 103, -38, 71, -83, -14, -48, 34, 70, 32, 51, 8, -27, -44, -34, 4, -72, 159, 100, -58, -94, -31, -113, -3, 38, -2, -35, -17, 45, 18, 76, 67, -24, 78, 101, 40, 27, 109, 107, 55, -73, 92, 3, -50, 15, -94, 24, 59, 43, 82, 15, 0, -24, 91, -17, 96, -49, 90, 69, -50, 100}
, {45, -66, 76, 83, -9, 49, -18, 31, 94, -60, -63, 44, -92, 95, -6, 63, 43, 74, 28, -6, 62, 14, 42, -3, 90, 90, 26, 90, 18, -46, 62, -92, -83, -52, 74, 67, 28, 72, -4, -60, -13, -85, -6, -23, 25, -39, -47, -67, -48, -63, -3, -67, -53, 70, 0, -89, 95, 27, 45, 81, 30, -59, 82, 12, 43, 101, 62, 6, -89, -67, 38, -100, 28, -54, -23, 46, 73, 2, 90, -31, -28, -79, -9, 61, 63, -27, -41, -52, 84, 93, 4, -104, 31, -29, 88, -58, 26, -1, -49, -13, 11, 11, 56, -13, -58, 101, 24, 91, 66, 68, -90, -16, 56, -37, 75, -67, 104, 33, 78, -18, -62, -12, 99, -81, -49, 50, -69, -61}
, {63, 40, -26, 85, 77, -40, -39, -46, -4, 16, -24, 10, -43, -14, 48, 53, 22, -61, -84, -40, 6, 77, -23, 52, 62, -4, 72, -13, -111, 14, -36, 75, 25, -42, -67, -17, -34, 65, 70, -57, 22, 101, 37, 77, -18, -77, 76, -83, -95, 7, -52, 31, 34, 30, -26, 36, 18, -58, -66, -15, 101, 50, 20, -13, 11, -48, -43, -49, 66, -8, -33, 107, 22, -14, -51, -101, -8, 83, 19, 100, 106, 117, 65, -103, -6, 48, 30, -75, -12, -9, 17, 44, -2, 81, -3, 72, -96, 2, -21, 34, 30, 58, -27, -76, -70, 78, -98, 54, -26, -61, 45, -30, 17, -70, 55, 70, -92, 80, -84, -60, 78, 109, 61, 84, 47, -72, 39, -62}
, {-62, 26, 8, -7, 34, 5, 48, -86, -77, 57, -104, -87, -80, 38, -45, 7, 59, 72, -125, -81, -20, -66, -26, 55, -93, -51, -44, -80, 62, 68, -27, -1, 50, -40, 73, 28, 90, 84, -40, -2, -63, 1, -59, 29, -77, 48, 40, 95, -81, 36, 91, -19, 5, 78, 91, 90, 9, -83, -90, 83, 3, 46, -89, -55, -97, 35, -89, 76, -4, 8, -20, -91, 104, 36, -19, -103, 45, -85, 21, 10, 57, 71, 91, 50, 23, 27, -80, 76, -22, 22, 54, -59, -29, 22, 93, 78, -86, 63, -13, -5, -32, 39, 2, -15, -99, -106, 65, -84, -128, -18, 94, 31, 82, -40, 75, 83, 93, -111, -1, 84, 32, -16, 28, 69, 76, -90, -11, 37}
, {-84, -26, -98, 72, 63, 32, 64, -91, 0, -43, -73, -12, -27, -49, 8, 56, -24, 63, 0, 68, 17, 37, -84, -32, -12, 73, 13, -49, -87, -64, -52, -54, 83, 42, 99, 89, -51, 9, 86, 102, -41, -72, 71, -83, 44, 58, -88, -93, 72, 11, 38, 49, -42, 97, -6, -8, -93, -68, -19, -66, 77, 102, -60, 65, 35, 29, -58, -74, 27, -43, -30, 14, 41, 100, -18, 4, -14, 83, -61, 44, 73, -81, 17, -76, -73, 84, 86, 48, 8, 58, -57, 16, -19, 43, 74, 24, -89, -50, -15, 94, -42, 95, -76, 76, 86, 21, -111, 92, -14, -12, -5, 57, 50, 36, -73, 102, -75, 36, -59, -64, 26, 40, -8, -76, -16, 87, -9, 0}
, {50, 96, 15, -40, 44, 31, -70, -80, -76, 13, 77, 53, 23, 40, 87, 87, 37, -63, -55, 83, 7, -3, -53, 77, -73, -41, -30, 7, 67, -32, -41, 66, 18, 15, 59, -76, 7, -73, 32, 0, 89, 69, 54, 95, 15, -66, 24, 9, -65, -11, -66, 102, 57, 67, 18, 69, 5, 69, 44, 18, 84, -74, -22, 87, -94, -81, -97, 7, 25, 31, 30, -14, 94, 34, 85, -20, 49, -33, -6, -31, -25, 36, 13, 46, -87, -51, -90, 96, -84, -23, 7, -18, -21, -62, 4, -38, -43, -36, -43, -12, -51, 30, -69, -92, -4, -1, 55, -72, -15, -100, 91, 63, -83, -7, 18, -39, -59, -11, -51, 23, 75, -11, 50, -43, 33, -55, -39, 81}
, {-48, 81, -73, -1, -19, -57, -62, -68, 68, -41, -88, 95, -39, -95, 70, -79, 13, 11, 77, 99, 33, 0, 18, 86, -27, 88, 91, -79, -22, 82, 27, -54, -70, 77, -78, 22, 15, 71, 5, 88, -52, -100, 41, -18, -33, 18, -5, -82, -19, 88, -61, 80, 37, 28, -62, -41, 34, 53, -59, -56, -68, 75, -25, 75, 78, -68, 82, 83, 60, 51, 43, -94, -101, -52, 97, -32, 21, -17, -69, 36, -24, 61, -19, 55, -18, -26, 60, -54, -23, 65, -31, 32, -92, 44, 1, -40, -11, 102, -98, -13, 0, 42, 41, 55, 43, -85, -74, 75, 79, -32, 48, 43, 13, 48, 24, -6, -61, 78, -5, -56, 36, 18, 87, 34, 46, 39, 82, -45}
, {85, -73, -94, -91, -101, 106, -45, 60, -30, -6, 23, -45, 13, -74, -9, 96, 53, -26, 59, -40, -68, -85, -46, -6, -109, -18, -39, -92, 105, -74, 56, -59, 59, -34, -44, -20, -94, 64, -22, -86, -10, 69, -100, 102, -24, -70, 59, 2, -12, -57, 40, 4, -79, 46, 85, -82, -102, -12, 30, -42, 57, 67, -59, 48, -69, 74, 18, -76, -35, -69, 14, -76, 18, -9, -12, 60, -15, -47, -13, -13, -37, -42, 8, 4, -13, -74, 76, 47, -24, 28, 65, 11, -36, -116, 39, 39, -45, -25, -62, -66, 20, 4, -18, -80, -100, -13, 2, -51, 35, -14, 71, 2, -86, -41, 9, -102, 37, 17, 55, -63, 84, 65, -38, -29, -59, 19, 62, -11}
, {-9, 99, 88, 14, -37, -12, -68, 32, -74, 98, 113, -10, -42, 31, -75, 66, 55, -26, -2, 39, 86, 45, 37, -21, -51, -89, -30, -88, 39, -37, 9, -73, -57, 3, -106, 8, -67, 1, -68, 76, -17, 45, -69, -42, 63, -94, 37, -17, 70, -10, -55, -52, 93, -115, -45, 90, -64, -34, 55, -72, 34, 33, -100, -30, 87, -82, -101, 34, 23, 8, -90, -2, 0, 94, -90, 26, 116, 48, 15, 49, 71, -51, -75, -85, 123, 107, 51, 69, -7, 2, -28, -59, -72, 14, 72, 74, -75, -30, 79, 42, -42, 21, 5, -95, 89, -52, 23, 13, -33, -8, -59, -4, 56, 31, 10, -92, -36, -21, -76, -80, -52, 21, -23, -88, 92, -48, 91, 54}
, {-58, 85, -60, 45, 34, 90, 36, 100, 31, 74, 45, -70, -1, -25, -93, -60, -96, 23, 23, -91, -75, -42, 62, 29, -1, 101, 100, 41, -70, 41, -15, -12, 58, 29, -48, 101, 83, -56, 27, -59, -33, -102, -19, -38, -40, 20, -19, 3, -32, -62, -82, 106, -44, -54, -10, 81, 32, 71, -21, 66, -21, -38, 19, 84, -24, 59, 59, 54, 37, -15, -44, 71, -20, 55, 35, -80, -127, 89, -3, -82, 85, 76, 6, -67, 65, -116, -24, 76, 48, 61, 98, -42, -88, 27, -40, 34, 35, 9, -16, -71, -77, -71, 45, -24, 64, 4, -51, 72, -2, -63, -14, 43, 13, 59, -65, -10, -22, -18, -33, 81, 42, 58, 4, 54, 19, 25, -85, -88}
, {34, 78, -1, 88, -8, 54, 63, 91, -41, -53, -49, 70, -72, 87, -44, -16, 109, -5, 9, 51, 86, 120, 107, 74, 61, -77, 19, 65, 29, -36, 9, -84, -29, 92, 86, -14, 21, -22, -98, -41, 97, -21, -72, -24, 61, 24, -35, -118, 46, 101, 81, -94, 58, 46, -32, -102, -60, -71, -107, -63, -83, 67, -9, 15, 65, 11, 62, -86, 27, 25, -28, -34, 12, 5, -19, -50, -9, -90, -70, -51, -49, -9, -35, 97, 23, 15, -3, -33, -79, -75, 64, -90, -35, -38, -2, -87, -38, 82, 95, 52, -54, 113, -8, -10, 111, 74, -99, -13, -7, -78, 20, 56, -82, 39, 90, 45, 87, 83, -24, 95, 81, -56, -55, 15, -87, 58, 0, -45}
, {66, -86, -44, -85, -57, -89, 20, 47, -7, -53, 41, -38, 62, -101, -22, -40, -80, -28, -65, -19, -80, -99, -38, 94, 23, -10, 36, 9, 3, -66, 87, 39, 9, -90, -19, 73, -86, -17, 111, -8, 72, 0, 42, 54, -48, -24, -88, 85, -17, 37, -75, 28, 68, 107, -24, 19, -42, -64, 20, -53, -114, 1, 47, -33, 27, 77, -63, 63, 15, -88, 5, 1, 31, -34, 93, -74, -112, -63, 66, 31, -19, 82, 76, -27, 89, -51, -3, -44, 20, 118, 86, 80, -50, 87, 2, 71, 95, -45, -43, -28, 7, -80, 27, -43, -84, -82, 52, -49, -63, 75, -87, -6, 30, -11, -98, -37, 58, -87, 57, 4, -34, -3, -46, -35, -2, 16, -115, 48}
, {44, -49, -79, -31, 54, -5, 95, -71, 67, 16, 82, 23, 26, 25, -62, -15, -85, -21, 35, -8, -46, 0, 44, 0, 104, 23, -49, 105, 29, 24, 30, 77, -27, 71, -49, -49, -4, 100, 58, 35, 34, 84, -20, 42, 86, 13, -3, -91, -102, 73, -17, 5, 105, -31, 33, -42, 9, 19, -123, -55, 111, 95, 45, 53, 84, 67, -52, -14, 32, -11, -36, 32, -58, 68, 65, 37, 121, -17, 68, -34, -62, 78, 91, -20, 54, -28, -28, -2, 73, 68, 10, -25, 27, -48, -10, 30, -19, -17, 17, -71, 0, 65, 6, 67, -36, 12, -103, 106, -67, 80, 12, 50, -14, -78, -58, 108, 22, 48, -11, 34, 88, 23, -6, -81, 107, 37, 89, -95}
, {82, -66, -29, 96, -96, -94, 10, -88, -37, 55, -57, -77, -89, 40, 42, -33, 23, 80, 80, -97, 82, 32, -79, 7, -21, 26, -53, -23, 0, -11, 51, -85, -37, -115, -90, -1, -64, 58, -64, -98, 77, -80, -41, 57, -45, 49, -16, -97, -40, 107, 52, -30, -15, -35, -34, 92, 27, -92, -73, 30, -63, -48, -53, 76, 53, -45, 17, -60, 8, 43, 90, 15, 39, -44, -49, -40, -82, -114, 17, -24, 42, 53, -56, -26, 18, 65, -3, -14, 93, 9, 97, -29, 13, -76, 82, -39, 29, -23, -30, -12, -47, -71, -107, 35, -13, 25, 19, 8, -31, 29, -89, 57, 96, -73, 66, -13, -22, -71, -49, 85, 21, 39, 76, 55, -58, -74, 90, 40}
, {57, -3, -68, -51, -15, 27, 17, -31, -100, 107, 119, 67, -11, -55, 26, -56, -46, 51, -10, 26, 52, -22, 98, -78, -29, -15, -74, 70, 74, -55, -39, 44, -13, -59, -63, 83, 14, -30, -40, 49, 88, 67, 77, 0, -13, 67, 3, 62, 51, -68, 60, -21, 86, -88, -34, -40, -5, 112, -73, -103, 82, 86, -40, -44, -78, 8, -99, 56, -47, 51, -18, 84, -14, -8, -51, -21, 15, 29, 47, -37, -78, -93, -85, 92, -60, 101, -67, -68, -46, 23, -77, -45, 1, -79, -38, 58, -75, -58, -54, 48, 16, -15, -82, 53, -7, 95, 59, -59, 34, 13, 85, -61, 56, -79, -32, 55, -42, 8, -44, 35, -59, -52, 82, -2, 68, -60, 16, 70}
, {-7, 44, -73, -95, 93, 48, 102, 6, -24, 82, 90, 50, 31, -18, 16, -69, -1, 71, -20, -27, 62, -99, -78, -50, -65, -91, 64, -84, -7, -24, 22, -17, 67, -61, 46, 83, 96, -43, 3, 83, -37, 35, -51, -48, 38, 30, -69, 64, -79, -79, 45, 1, 26, 44, 11, 102, 67, 54, -62, 54, -84, 33, -1, -8, 7, -73, 33, 4, -40, 27, -11, 71, 96, -50, -64, 55, 67, -54, -83, 23, -3, -67, -18, -48, -96, -116, -83, 81, 1, 107, -8, 58, 61, -116, 26, 0, -32, 26, -99, 9, -39, -63, 64, 54, 74, 25, -92, -127, -90, 56, -60, -17, 53, 73, -87, 80, 59, 58, 21, 41, 0, -106, 50, -93, -95, 67, -28, 15}
, {-52, -92, 43, 70, -73, -88, 56, -42, 25, -46, -52, 45, 34, -68, -50, 2, 77, 34, 74, -88, 71, 73, 91, -73, 20, 70, 8, 58, -73, 21, -78, 15, 42, -14, 5, -8, -88, 10, 43, 16, -34, -35, 23, -88, 38, -31, 89, -66, -31, -25, 8, 60, 37, 11, -80, -74, -67, 72, -9, -92, 72, 86, 39, -5, -44, 68, 33, -64, 104, 0, -29, 106, 32, 67, -10, -13, 90, 87, 2, 95, -28, 91, 32, -7, 0, -11, 9, 49, -45, 132, 45, -28, 45, 62, -103, 6, -13, -100, -27, 38, 89, 83, -12, -28, 83, -51, -111, 46, 85, -38, -63, -14, 17, 45, -88, 77, -44, 64, 26, -58, 40, -41, -19, 13, 16, 68, -60, 38}
, {-6, 19, -23, -31, 14, -97, -24, -29, -75, -21, -73, -73, -14, 19, 73, -54, -13, 82, 59, -61, -29, -28, -65, 74, 57, -32, -78, -91, -54, 6, 24, 15, -20, 29, -59, -39, 27, 63, -30, 87, -27, -96, 32, -95, -11, -43, 23, 26, 33, -62, -92, 80, -75, 50, -72, -63, 94, 96, 64, -25, 19, 94, 21, 38, 38, -58, -90, 86, -67, -38, 30, 96, -69, 35, -67, -22, -35, 100, -48, 53, -58, 58, -65, 94, 66, -15, 90, -33, -42, -45, -93, 82, 67, 96, -4, 41, -36, 38, -70, 105, -124, 58, 6, 13, -91, -115, 4, -84, 94, 32, 48, -15, -42, 45, -42, 23, 8, 107, -17, 62, 0, -35, -102, 41, 59, -53, -44, -59}
, {-2, -85, -37, 83, 28, -78, -53, -52, -85, -19, -8, -14, -76, -31, 49, -68, -40, -87, 3, 83, 26, 17, 54, -40, 59, -4, 82, 58, 23, 2, 81, -40, -74, -42, 92, -41, 46, 20, 89, 21, 54, -49, 5, 77, 76, 28, 86, 71, -38, 60, 89, -104, 26, -18, 84, -30, 35, 66, -110, 7, -18, -70, -11, -93, -69, 63, 84, -40, 47, 42, -45, -1, -23, 30, 54, 3, 4, -21, -42, 51, 83, -19, -77, 23, 10, 74, -59, 93, -18, 69, -73, 27, 6, -45, -106, 59, -85, 13, -105, -49, 49, -75, -62, -26, 64, -7, -24, -22, -94, 44, 0, -70, 0, 0, 84, 73, -91, 73, 42, -91, -9, -20, 45, 26, -92, -16, -64, 0}
, {91, 35, -99, 5, -86, -1, -34, -43, 20, 93, 110, 52, 64, -85, 57, -48, -29, -1, 65, -54, -2, -67, -4, 72, -4, 21, -63, 4, -44, 8, -2, -30, 89, 52, -71, 29, 101, -68, -104, 7, -87, -19, 0, 12, -15, 27, -39, -26, 67, -81, -100, 66, 66, -71, 49, 41, -24, 68, -14, 30, 75, 101, -68, -78, -70, 9, 17, -85, -58, 2, -77, 0, -96, 40, 98, -93, -10, 42, 28, 101, 60, -28, -52, -22, -54, -34, -119, -69, -76, 18, 94, -57, 63, 21, 53, 80, -31, -66, -86, 107, 59, 71, 83, 64, -90, 20, -79, 7, -96, -14, 66, 42, 62, -51, -41, 71, 12, 90, 38, -1, 28, 85, -88, -65, 31, -12, 34, -67}
, {6, 11, 9, -42, -89, 75, -64, 27, -3, -76, 26, 30, 86, 63, -70, -45, 87, 103, 92, -43, -10, 90, 96, 77, 91, 83, 29, 80, -61, 45, 1, 35, 76, 40, -22, 22, 21, -66, -79, -101, 1, -49, 38, 106, -76, -56, 75, 52, -73, -25, -94, -40, 14, 90, 27, 21, -7, 52, 54, -57, 85, -14, -67, -70, -71, 24, -57, 46, 88, -31, 60, -49, 24, -15, 31, 86, 54, 6, 82, 0, 30, 21, -22, 19, 46, 21, 79, -65, -41, -8, -64, 58, 10, -21, -44, -51, -46, 46, 11, 1, -28, 66, -83, 3, 1, -27, 51, 10, 108, 21, -57, 43, -63, -51, 11, -47, 86, -32, 64, 79, 76, 132, 43, -41, 67, 0, 103, 114}
, {-97, -7, 1, -41, -32, 1, -5, 37, -16, -79, -70, 20, 5, -59, 78, -24, -81, 26, 20, 10, 70, -7, 25, -8, -76, 12, 57, -60, 20, 12, 46, -53, 25, -64, 41, -71, -41, -62, 110, -97, -48, -17, -93, 68, 15, -64, -22, -29, -104, -37, -65, -90, 4, 27, 10, 81, -4, 35, -32, -4, -89, 53, 63, -21, 37, 26, 61, -78, 53, -42, 61, -2, 3, 41, 6, -56, -71, 110, 83, -14, 29, -89, 76, 57, -56, -49, 50, 10, -31, 74, 76, -38, -19, -87, 53, 11, 47, 87, -9, 25, 60, 46, -54, -22, -93, 16, -104, 8, 1, 59, 29, -28, -2, -23, -50, 57, 85, -37, 14, -70, -39, 40, -6, 81, 74, 0, -99, 63}
, {78, -65, -60, 10, 22, -20, 41, 20, 36, 48, -56, 67, -96, -60, -8, -62, -6, 76, 120, -87, 65, 49, 111, 63, 18, 63, -49, 70, 26, -99, 3, -72, -4, 9, -84, -70, 12, -64, -95, 25, 4, 44, 72, 79, 47, -77, 91, 50, 56, 47, -62, 13, -14, 91, 28, -6, -4, 58, -54, 75, -23, -88, 27, 19, 37, -70, -26, 42, 93, -66, -69, -85, -95, -78, -11, 80, -3, 20, 25, 30, 92, 101, 74, -77, 57, -33, -36, 74, 6, 35, -21, 94, -31, -10, 58, -64, 70, 24, 8, 15, 86, -64, 7, -88, -10, 64, 43, -40, 87, 69, 13, 26, -34, 70, 21, -96, -20, 19, 3, -62, -65, 38, 42, -49, -55, -2, 28, 128}
, {-2, -49, -109, -13, 44, 48, 86, -94, 20, 76, -44, -30, -40, 60, -36, -23, -52, -19, -16, 27, -9, -20, 27, 42, -7, -70, -100, 94, 13, 77, 2, 54, 3, -43, 101, -57, 102, 79, -104, -40, 37, 100, 35, -43, 44, 21, 97, 2, -66, 36, 72, -103, -22, -30, -29, -57, -32, -24, 6, -96, 36, 86, 86, 4, -81, -44, 86, 37, 0, -10, -25, 22, -105, -71, 55, -8, 54, -31, -17, 22, 9, -42, 62, -76, 71, 16, -91, -24, -44, 66, -87, -6, 99, -24, -77, -24, 19, -31, 28, -6, 5, -35, -24, 83, 43, -71, 38, 56, 97, -56, -56, 52, -76, 85, 92, -8, -44, 21, 14, -100, -3, -42, -55, -101, -18, -73, -9, -67}
, {7, 1, 21, -17, -94, -38, 26, 39, -62, 0, 10, 8, -8, -68, 95, -84, 48, 19, -29, 49, 22, 71, 25, -30, 24, -49, 97, -74, -59, 59, -70, 5, -27, 27, 63, -6, -10, 37, 91, 92, 10, -2, 81, -30, 33, 27, -87, 58, -25, -62, 54, -53, -60, -58, -87, 49, -91, 87, 84, 93, -30, -12, -32, 19, -8, 108, 22, -78, -3, 88, 48, -10, 106, -94, 16, 6, -34, -30, -95, -80, 45, -15, -88, 54, 54, -25, -72, -58, -53, -71, -41, -21, -34, -21, 24, 71, 36, 6, -83, 41, -82, -10, 80, -27, -31, 59, 62, -8, -66, 17, 62, -11, -67, -26, -7, 86, 20, 29, -96, -26, -99, -23, 96, -72, -25, 78, -77, -125}
, {-29, 11, -61, 1, -19, 38, 65, -40, -14, 9, -85, -24, -24, -64, -67, 121, 87, -18, 88, 89, -83, 109, 24, 94, -62, -11, 14, 22, 33, -74, -68, 15, 47, -11, 52, -52, -41, -18, -27, -20, -43, 30, -91, -2, -45, -78, -87, 45, -83, -88, -61, -50, 33, -5, 29, -29, 57, 58, 20, -39, -31, -25, -49, 85, 105, 43, -100, -34, 98, 97, -96, 91, -13, -74, 60, -83, 9, 0, 52, 10, -56, 59, 95, 55, 38, 38, -59, 32, 61, -49, 27, -38, 7, 68, -7, -20, 11, 39, 66, 54, -54, -31, 88, -84, 60, 71, -83, 52, 49, 11, -29, -71, -25, -57, -36, -108, 36, 4, 65, 79, -30, -17, -71, -21, 17, -88, 99, 83}
, {-57, 46, -41, 79, 86, -35, 94, -39, -84, 38, 44, -68, -2, -57, -63, -28, 18, 55, 70, -29, -25, -39, 47, 5, -90, 85, 92, -22, 10, 1, 20, 68, -9, 5, -24, 11, 68, 74, -53, 0, 57, -14, 53, -127, 32, -16, 1, -3, -51, -41, -30, 55, 40, 4, -79, -70, 82, -70, -82, 0, 11, -39, -77, 82, 42, -2, -33, -107, -52, 33, -44, 69, 64, 86, 95, -60, -67, -31, -72, -18, 92, -100, 78, -81, 11, -107, -19, 82, -18, -86, 28, 11, -89, -113, -24, 1, 1, 64, -54, -80, 52, 7, -11, -53, 32, -74, 30, -140, -33, -45, 1, 57, -18, 90, 69, 13, -12, 33, -71, -83, 60, -31, -40, -86, 52, -68, -40, 41}
, {-8, -31, 23, -67, 22, -41, -86, 21, 59, 82, -73, -95, -67, 38, -88, 58, 16, 88, -78, -50, 63, -53, -89, 55, -16, 27, 60, 13, 54, -36, 75, 28, -12, 88, -99, 40, -60, -33, -85, -20, -72, -51, -37, 0, 95, -95, 102, 102, -61, -101, -69, 105, 97, -16, -46, -23, -38, -79, -25, -15, 41, 86, -89, -55, 1, -112, 42, 73, -20, -79, -96, -26, -45, 71, -40, -94, -65, -47, -70, -70, -27, 26, 102, -53, -59, 59, -81, 37, -48, 80, 60, 98, -78, 40, -94, -100, 70, 86, 69, 34, -7, -17, 57, -75, 92, 62, 98, 96, 60, 48, 74, -72, 83, 7, -13, -80, 86, 55, 4, -87, 64, 69, 68, 76, 92, -94, 83, 28}
, {50, 46, 117, 48, 79, 16, -61, 88, -49, 59, -66, -35, -87, -50, -50, -54, -72, -97, -58, 51, -97, 97, -77, -62, 79, 69, -75, 39, -41, -92, 1, 48, -21, -17, 29, -37, -100, -26, 102, -21, 33, 16, 59, 124, 66, 67, -86, 56, 24, -100, 27, 22, -100, -59, 27, -5, -44, -9, -71, -28, -17, 9, 46, -7, -103, -23, 80, 77, -78, 33, 79, -79, -67, -12, -26, -18, 36, -13, 3, 67, -55, 5, 85, -26, 106, 85, -20, 50, -6, 94, -18, 101, 7, 27, -51, 3, -2, 103, 130, -62, 29, 16, -75, -63, 72, -65, -67, 15, -44, -38, 51, -41, 30, 20, -94, 50, -69, 8, 102, -87, -3, 108, 98, 64, 39, 44, 3, 114}
, {4, 1, -25, -77, 15, -36, 60, -98, -90, -31, 94, -48, 81, -34, 51, -20, -14, 49, 54, 26, 41, 117, -62, -66, 49, -63, 70, -48, 29, 41, -57, -63, 54, 50, 50, 34, 7, -63, -101, 53, 46, -41, -63, 90, -73, -57, 90, 27, 47, -63, -7, -61, 27, -116, -103, -9, -72, 86, 62, 25, 27, -49, 42, -63, 40, 31, -106, 32, 65, 4, -61, 0, -26, 18, 67, 57, -2, 101, 93, 58, 86, -33, 1, -77, 33, 81, 84, -81, -94, -36, -84, 47, 14, 53, -49, 38, 62, 45, -57, 55, -28, 64, 72, 6, 112, -25, 62, 0, -21, -69, 70, -97, -48, 53, 55, -89, -1, -93, 76, 21, 40, 123, -100, -28, -51, -48, -46, 103}
, {21, -58, 71, -47, -52, 68, 37, -23, 27, -52, -36, 30, -82, -36, 10, -34, 85, 21, -91, -56, -39, 6, -3, 51, -105, -17, 97, 19, 90, -38, 88, -78, 92, -99, -88, 46, 8, 17, 61, 11, 8, -54, 74, -96, 67, 91, 0, -48, -15, -63, -7, -65, 88, -78, -89, -52, 42, 40, 75, 63, 48, -48, 58, -81, -54, -57, -53, 23, -96, -48, -83, 63, 30, -75, 64, -18, -13, -90, 0, -78, -41, -47, -92, 55, 15, 41, 60, -10, 51, -60, -37, -61, 73, -16, 23, 100, 69, 104, 22, -61, -101, -41, -44, -88, -5, 59, 113, 51, 20, -99, -86, 11, -71, 83, -19, 20, -17, 100, 95, 30, -73, -87, 103, -28, -9, 40, 70, -60}
, {-86, 35, -106, -97, -18, -59, 56, -64, -63, 87, 41, -77, 0, -46, 97, -12, 88, 124, -45, 30, 11, 82, 47, 84, -83, 69, -58, -73, 40, -36, 9, 121, -77, 54, 12, -5, 13, -28, -47, 43, 27, -54, 47, 81, 48, -103, 10, 2, -72, 90, -63, -12, 1, 53, 34, -11, 49, 20, 29, -49, -58, -2, -21, -75, -61, -67, 12, 67, -70, 32, -68, 67, -55, -89, 60, 82, -9, 13, 76, 101, -7, 80, -35, 5, 47, 80, -42, 94, 6, -48, 0, -93, -24, 40, -99, 94, -10, 0, -80, 115, -91, 36, -56, -18, -53, 12, 50, -19, 46, 65, -56, 16, 79, 42, -19, -63, 21, 64, 24, -47, 93, -18, 22, -26, 30, -83, 86, -44}
, {-24, -60, -41, -56, -10, 49, 88, -44, -31, -74, 101, 31, -81, -56, -79, 26, -59, -51, 106, 41, 48, -87, -8, 90, -31, 18, -53, -68, -3, -70, -43, 77, -50, 17, 32, 78, 50, -26, -30, -78, 6, -60, -98, 57, 25, 48, 26, 0, 20, 26, -27, 101, -54, 37, -72, -8, 43, 71, 83, -91, -15, -62, -36, -23, 90, 15, -20, 53, 58, 101, 89, -45, -41, -104, 57, -52, -10, -63, 81, 94, 59, -99, -25, -20, 79, 10, 25, 11, 16, -96, 71, -105, -50, 52, 90, 2, 97, 111, 31, 51, 98, -25, 55, -55, 77, 36, 26, -35, -18, -50, -52, -85, -76, 49, 18, 0, -19, 53, -6, 98, -3, 83, 73, 67, 95, 31, -50, -36}
, {43, 38, -28, 60, -24, -85, 81, 115, -20, -102, 46, 25, -76, 67, 73, -73, 85, -8, 83, 40, 62, 55, -54, 58, 20, 18, 27, -13, 0, -60, -65, -30, 31, -29, -39, -72, 61, 11, -9, -78, 92, -68, -43, -73, 82, -18, -100, -29, 15, -7, -29, -50, -100, 0, 76, -83, 53, 23, -21, 23, -65, 81, -13, 59, -20, 26, 30, 98, 79, 88, -62, -34, -83, -70, 55, 83, -42, 4, -59, -37, -104, -91, -39, 55, -29, 46, 111, 86, -11, 49, 0, -62, 49, 100, 2, -54, 83, -39, 76, -21, 55, 1, 89, 22, -12, 85, 97, -26, -55, -16, -102, -70, -85, 23, 66, 18, 52, -72, 65, 111, 45, 43, 47, 2, 27, 85, -6, 48}
, {86, 98, -34, 54, -88, -7, 6, 30, -49, 78, -4, -67, -98, -94, -13, -78, 76, 93, 12, 56, -16, -99, 45, 57, -104, 36, 90, 27, -58, 49, -45, 127, -60, 4, -18, 96, 35, -1, 95, -69, -12, 15, 25, 78, 36, -35, -37, -42, -49, 34, -5, 16, -97, 15, 19, -30, -59, -88, 34, -80, -17, -1, 2, 23, 81, -39, -19, 37, 97, 73, -67, 51, -43, 61, 16, -67, 18, 36, 29, -27, 77, 0, 13, 12, 28, 98, 34, 34, 65, -18, -48, 27, 46, -59, -107, -48, -81, 89, 16, 32, -112, -43, 109, -76, -86, -68, 48, -1, 35, 89, -11, -67, 49, 42, 85, 64, 94, 44, -62, 58, 32, -68, 51, -18, 98, -98, -2, 94}
, {-87, -46, 95, -1, -93, 26, -96, 82, 29, -32, -26, -51, 63, 6, -4, 32, 76, -91, 7, -31, -92, 54, 81, 81, 94, 88, 15, 39, 84, -49, 69, 72, -83, -78, 42, 61, -38, 24, 21, -26, 61, 48, 73, 88, 18, 35, 14, 21, -42, 21, 30, -71, 94, -41, 91, -3, 32, -93, -7, -9, -86, 9, -54, 21, -88, 84, 52, -57, 14, 40, 48, 74, 43, 86, -94, 87, -22, -77, -63, 31, 26, 4, 38, 52, -19, 102, -52, -33, 94, -34, 89, -28, 2, -75, 80, -8, 36, 47, -20, -19, 100, -64, 21, 36, 54, -62, 95, 104, 20, -77, 54, 67, -39, 40, 51, -62, 54, -115, 39, -58, 53, 88, -79, 74, 32, -9, 103, -81}
, {69, -77, -54, 67, -62, -99, 114, 49, 92, 90, 86, 25, 70, 81, -5, -52, 49, -96, -92, 1, 68, -40, -43, -90, 2, -6, -87, 48, -69, 84, -49, -78, -95, 16, -81, -8, -51, -34, 32, 60, 46, -29, 99, -41, 82, 34, -41, -44, 59, 37, -37, -115, -30, -14, -93, 0, -66, 49, 46, 34, 89, 103, -26, -10, 38, -22, -6, -108, 22, 82, 72, 31, -43, 72, -2, -14, 69, -80, -3, -86, -10, 46, -53, 25, 19, 10, -34, -91, -41, -83, 43, -12, -14, 57, -88, 48, -12, -84, -113, 78, 68, 27, -92, -15, -25, -7, 52, 62, -45, -76, 55, -80, -72, 14, 67, 21, 83, 47, 37, -82, -22, -31, -19, -27, -96, 100, 54, -100}
, {41, 73, 68, -17, -78, 3, 0, -60, -79, -62, 45, 19, -42, 101, 21, 106, 4, 33, 53, 63, -49, -94, -43, -55, 44, 52, -9, -38, 72, 38, -29, 16, -62, -75, 46, -86, -32, 2, -46, -32, 57, 45, -52, -8, -22, -84, -65, 61, 67, 17, -47, -25, -85, 7, -2, -99, 85, 99, 79, -44, -24, -14, 73, 38, -90, 43, 67, -26, 60, 27, 9, -88, -39, -24, -45, 8, 19, -102, -91, -82, -51, -71, 16, 94, 0, 13, -9, -40, 93, -102, -24, -98, 79, -32, 5, 39, 38, 112, 14, 62, -80, 88, -32, -32, -91, 5, 18, -33, -94, -114, -2, 101, 0, -50, 11, -48, 42, 47, -9, -38, -8, -35, 92, 16, -91, 74, -77, 93}
}
;

#undef INPUT_SAMPLES
#undef FC_UNITS