/**
  ******************************************************************************
  * @file    weights/fc.cc
  * @author  Pierre-Emmanuel Novac <penovac@unice.fr>, LEAT, CNRS, Université Côte d'Azur, France
  * @version 1.0.0
  * @date    24 march 2020
  * @brief   Template generating plain C code for the implementation of Convolutional Neural Networks on MCU
  */

#define INPUT_SAMPLES 128
#define FC_UNITS 40


const int16_t dense_54_bias[FC_UNITS] = {-3, -3, -3, 12, 0, -14, -21, 10, 6, 21, 6, -8, 15, -14, -4, -13, -14, -4, 1, -6, 11, -8, -3, -1, -10, -9, -7, 15, -3, -13, 0, -16, -15, -7, -5, 2, 16, 6, -13, -5}
;

const int16_t dense_54_kernel[FC_UNITS][INPUT_SAMPLES] = {{26, 15, 43, -30, 26, 51, -71, -11, 42, 98, 12, -51, 77, 53, 69, 21, 57, -48, -69, -48, -31, 8, 57, 88, -1, 103, 86, -87, 15, -6, 105, -30, -49, 3, 85, -83, 21, -6, -100, 95, -81, 90, 20, 36, 32, -61, 33, -57, 108, -46, 61, -34, -99, -60, 2, -33, -72, -58, 57, -78, 39, -16, 54, 62, 77, -23, -49, 59, 46, -74, 102, 127, 115, -98, -1, -19, 24, -13, -85, 21, -11, 74, -11, -94, -80, -43, -92, 135, -61, -63, 58, 69, -83, 74, 59, 42, 66, 26, -41, 87, 48, 29, -41, -45, 88, -24, 101, -30, 36, 6, 72, 62, -25, 59, 36, 8, -53, 18, 78, -50, -7, 69, 28, -79, 30, -11, -10, 9}
, {-31, 14, -12, -95, -109, -93, 16, 87, -11, -10, -76, 36, -100, -95, 75, 60, 57, -56, 75, -19, -45, 30, 8, 7, 13, -14, 64, 37, -47, -126, 72, -90, -65, 31, -26, 81, -4, -132, 34, 62, 75, -70, -81, -28, -28, 94, 39, -45, -69, -33, 27, -45, 91, 83, 101, -8, 112, 23, 20, 43, -66, -21, 54, -116, -16, -25, 10, -49, 35, 45, -21, -31, 45, -22, -77, 4, -109, 79, -19, -32, -34, 1, 54, -22, 23, -64, -30, 19, -51, 85, -80, 91, -34, -101, -105, 58, 51, -21, 40, -80, 50, 70, 67, 20, -8, 88, 14, -51, 9, -92, -69, 41, -83, -71, 60, -46, 76, -86, -102, -19, -71, -91, -42, 91, 20, -95, 19, -64}
, {-12, 2, 102, 85, 94, 56, -40, -32, 2, 49, 14, 6, -76, -46, -55, 48, 39, 42, -55, 51, 71, -22, 98, -93, -16, 31, 72, 18, 22, 108, 85, 72, 44, -48, -34, 20, -51, 21, 51, -31, -97, 34, 47, -66, -49, -10, 83, 35, 70, 17, 58, 14, 77, -104, -66, 74, 105, 33, -34, 82, -23, 58, 8, 31, 15, -32, -109, 0, -1, 78, 24, 1, 24, -12, 63, -39, -21, 21, -87, -59, -8, -78, -81, 76, 18, -83, -41, 46, -30, 28, 34, 45, -83, -54, 78, 79, -5, -37, 50, 16, -58, -53, -29, -59, 91, 66, 12, 82, 21, -40, -85, -102, -36, -21, 14, -14, -100, -95, 18, -47, 11, -13, 84, -85, -95, -88, 2, 116}
, {-109, 79, -77, 34, 97, -9, 63, -19, 4, 65, -43, -7, -100, -59, 72, -87, 92, 116, 53, 83, -49, -4, -61, -41, 1, 24, -32, 84, -13, 33, -51, -14, -40, 67, -74, 32, -29, 5, 87, -35, 86, 81, 25, -13, -54, -2, 44, -2, -44, 3, 49, -16, 104, 46, 45, 92, -65, 97, -82, 24, 85, -19, 78, -34, 82, -32, -38, -75, -78, 48, 2, -98, -28, 89, -47, 45, -81, 0, 34, -98, -78, 93, -67, -51, -49, 64, -25, 19, 33, 33, -64, -57, 12, -51, 15, -50, 73, -44, 33, 1, -60, 3, -82, 20, 87, -8, -66, 62, -27, -64, 72, 8, 23, -32, 27, 79, -82, -88, -102, -67, -72, -46, 75, -16, -25, -41, 87, 40}
, {-48, -95, -53, -66, -84, 66, -76, -89, -3, 57, -65, -58, 81, -84, 38, 3, -74, 78, 81, 29, -54, -11, -23, -77, 73, -52, -89, -72, -27, 44, -20, 61, -47, 1, 43, 81, 33, -103, 59, 24, -11, -93, -4, -7, -94, 73, -60, -92, -41, 65, 7, 44, 0, 85, -29, 36, -83, 25, -10, 60, -18, 103, -82, -1, 62, 21, 79, 33, -15, -36, -65, -84, -14, 11, -72, 47, -32, -50, 40, 2, -86, -25, -5, -47, -29, -54, 37, 40, -53, 4, 50, -31, -40, 35, 36, 77, -81, 14, 88, -97, 15, -55, -11, -57, 25, -64, -19, 78, 73, -76, 56, -77, 87, -71, 35, -25, 95, -55, -107, -86, -54, 95, -53, -4, 54, -86, -71, 3}
, {26, -78, 83, -15, -24, 71, -38, -20, 93, -47, -81, -43, 77, -17, 38, -46, 6, 56, 33, 42, -74, -68, -85, -66, -75, -3, 61, 21, -25, 9, 95, -3, -30, 93, 44, 16, -79, -70, -52, -30, -33, -37, -88, 95, -97, -97, 0, -29, -35, 8, 27, -68, 7, 44, -82, 56, 17, 30, 45, 44, -60, 0, 43, 80, -56, -71, -62, -42, -66, -39, 70, 80, -47, -39, -60, 56, -20, -22, 29, -61, 45, -89, -92, -14, -91, -93, 54, -82, 73, -62, 14, 9, -55, -14, -17, 95, -75, 70, -48, 73, -56, 81, -90, 0, -13, -2, 53, -65, 42, 53, 0, 53, 88, 23, -82, -13, 36, -31, 0, 49, -64, -22, -31, 72, 58, 72, 14, -33}
, {8, -61, 76, 25, 14, 86, 6, -96, -46, 24, -6, 41, 73, -21, -25, 43, 30, 50, 26, 38, 58, 38, 32, -39, 79, -104, -90, -96, 80, -81, 62, 43, -72, -15, 84, 49, 62, -75, -59, -64, -48, 8, 102, -11, -3, 61, -14, -87, -29, -23, 48, -76, 91, -91, -31, 10, 39, 30, -10, 55, 25, 60, 36, 60, 73, -22, -37, 3, -36, 8, -19, -54, -103, 13, -83, 32, 69, -25, -82, -36, 43, 66, -72, -7, -59, -87, 52, 13, -39, -55, -75, 64, -53, -100, -87, -9, -39, 93, 61, 50, -85, -40, -41, 15, -17, 93, -14, 97, -75, -32, -57, 95, -12, -89, 1, 47, 60, 80, -86, -55, -23, 62, -66, -26, 19, 57, -1, 102}
, {44, -81, -79, -54, 91, -46, -86, -71, 35, -52, -59, -57, -78, 31, -42, 50, -17, 31, 69, 85, -52, 46, 17, -66, 78, -80, 54, 6, 27, -36, 70, -22, 69, 29, -56, 64, -47, 32, 101, 4, 40, -99, 22, -13, -77, -7, -65, 17, -48, 0, -60, -48, 51, 2, -43, 66, 68, -76, -23, 53, -68, 86, 65, -75, -104, -81, -9, -12, -89, 41, -61, -60, -114, -47, 34, 84, -58, 11, 96, 52, 12, -64, 33, 89, 86, 45, 11, -90, 12, 32, -73, -50, 97, -17, -6, 53, 28, -99, -96, 79, 9, -32, -44, 80, -88, 13, 63, -78, -78, 46, 19, -24, 27, 88, 38, 12, 88, -97, -101, -102, -72, 31, 25, -41, 53, -58, -66, -3}
, {-46, 7, 13, -80, 103, -101, -76, -83, 13, 82, 85, -23, 8, 102, 30, 36, 85, -24, -72, 5, 55, -7, -97, 19, -100, 80, -25, -59, -92, -81, -29, -71, 17, 79, 12, -101, 0, -106, 11, 71, -26, -14, -81, 62, 40, -4, -85, -100, 30, 124, 0, -94, -40, 31, 20, 100, 102, 85, 91, -10, 73, -41, -89, -107, 22, 42, -15, 1, 71, 25, -37, 40, 37, 2, 86, -23, -71, -65, 97, -62, 73, -2, -9, -72, 103, -59, 55, -17, 11, 86, 56, -76, 40, 17, -108, 11, -71, -79, -6, 7, -20, 73, -11, 19, 47, 32, 54, -39, -48, -42, 70, 0, 77, -92, -53, 105, -66, -33, -28, 16, 15, -3, 80, 7, 0, -81, -40, -2}
, {-111, 88, 6, 68, 73, -18, -33, 16, -27, -79, 32, 82, -70, 55, -51, -74, 78, 0, -84, 81, -78, 93, -87, 15, 64, 78, 97, 28, 52, -53, -62, 34, -37, 78, 57, -4, 97, -46, 60, -46, -14, -40, -93, -97, -29, 6, -46, -29, 36, 80, 19, 56, -8, 19, -72, -15, -74, -70, 19, 79, -44, 6, 67, -68, -51, -68, 51, -50, -70, 71, -30, -73, 22, 23, 64, -93, -3, 95, 93, -25, -91, -27, -40, -86, 73, 8, -100, -14, 115, -23, -31, 72, -25, -37, -74, -7, 54, 33, 4, -32, -54, 76, -21, -60, 62, -60, -28, -90, -32, 81, -11, 16, -66, -3, -26, 11, -86, -32, 80, -66, -76, -101, 3, -77, 23, 9, -79, -24}
, {8, -36, 42, 40, -13, 64, -65, -79, 77, -67, 74, -68, -79, 23, 81, 27, 73, 56, 20, -87, 91, 51, 81, -80, -27, -71, 2, 62, 13, 99, 64, 16, -17, -3, 24, 4, 90, -98, -93, 37, 32, -91, -30, 85, -94, 10, -20, 15, -7, 96, 76, -80, 26, -32, -62, -2, -23, -106, 62, 7, 31, 83, 29, -78, -61, -42, -54, 89, -43, -44, -13, 28, -98, 98, 37, 33, 66, -50, -63, 97, 43, 56, -50, -79, 47, -23, 15, 41, -25, -17, 92, -12, -20, -12, -85, 17, 22, -92, -90, -64, 50, 82, 23, -58, -67, -82, 93, -51, -1, 3, -32, -86, -42, -91, 38, 79, 0, -2, 41, 28, -78, 95, 28, 49, -4, -61, 2, -110}
, {75, -61, 89, -82, 86, 94, -48, -90, 69, 61, -83, 46, -78, -109, -27, -69, 69, 105, -50, -84, -19, -81, 119, -3, -90, -20, -36, 86, 91, -80, 8, -61, 21, 65, 50, -24, 51, 0, -64, -88, -58, 89, -60, -20, 54, -52, 12, 47, -30, -92, 73, -32, 52, 94, -22, -29, -12, 84, 74, -94, -18, -4, 27, -48, 27, 96, -49, 5, 84, -37, -7, 78, 75, -26, 0, 69, 31, -77, 56, -45, 71, -63, -34, 89, -75, 27, -67, 92, 64, 41, 19, 28, 70, -10, 62, 53, -82, 79, 41, -33, -45, -78, -1, 7, -31, 115, 89, -86, 90, -60, -89, -73, 73, -2, -41, 38, 27, 97, -24, 18, 15, -18, 88, 28, 67, 86, -79, 82}
, {-63, -76, -72, -39, -23, -72, -81, 94, -82, 13, -75, 51, 48, 27, 4, 55, 91, -9, -65, 12, 77, 0, 99, 69, -86, -24, 48, -40, -22, 112, -37, 60, -12, -70, 38, -79, -90, 125, -30, 8, 84, 52, 35, 35, 22, -52, -39, 66, 93, -55, -80, 47, 15, 39, -81, 37, 32, -32, 9, 4, -91, 39, -4, 101, 22, 71, -11, 59, 47, -90, 71, 54, 64, -10, 41, 27, -58, -13, -5, 20, 77, 62, 96, 68, 75, -65, 56, 102, -46, 88, -75, 7, -72, 95, 57, 21, -50, -90, 77, -90, -69, -42, -10, 27, -84, 85, 89, -73, -15, 69, -88, 83, -19, 47, -72, -5, 22, -22, 13, 39, 51, 31, -10, -41, -14, -15, 78, 17}
, {100, 14, -86, 70, -43, -21, 25, 43, -54, -85, 92, 84, 59, -64, 84, 93, 28, 32, -59, -51, 62, -15, -49, -28, 67, -8, -87, 31, 20, -117, 81, 25, 0, 83, 7, 3, -36, -27, 3, 24, -13, -92, -17, -80, -7, 54, 77, -14, 37, -67, -17, -59, 80, 53, 24, 90, -67, -9, -10, 35, 35, -79, 95, 74, -25, -17, 52, -30, 58, 47, -90, -43, -33, 35, -80, 36, -11, 25, 28, -94, 86, 6, 0, 42, 36, 90, 3, -119, 38, -93, -84, -15, -82, 63, -36, 33, 39, 58, -22, 36, 50, -26, -24, -50, 49, 36, 52, 40, 91, -67, -8, -10, -8, 74, -15, 82, -95, 40, -97, 63, 64, 76, -42, -89, -124, 47, -66, -73}
, {-59, -96, 22, 80, 59, -70, -27, -67, -21, 17, -60, 36, 28, 32, 22, 64, 109, 16, -36, 19, -2, -84, -33, -39, -18, -60, 7, 77, -38, -46, -13, 70, -48, 22, -31, 85, 0, -91, 68, 69, 75, -8, 62, 20, 10, -33, -12, -29, -89, 51, 42, -69, 54, -23, -4, 58, 55, 10, 101, -27, 21, -11, 35, 81, -28, 59, 6, -64, -25, -49, -28, -40, -14, -105, 43, 45, -38, -84, 29, -52, 14, 35, 71, -32, -81, -14, 10, 66, 23, -34, 19, -96, -24, -67, -4, -51, 80, 51, -37, -53, 72, 112, 35, -38, -40, 95, -64, -5, 24, 65, -39, 106, 28, 34, 86, 34, -22, -13, -98, -81, -8, 69, -36, -82, 97, 64, 66, -97}
, {-34, 113, 37, 12, -40, 22, 89, 8, -74, -33, 55, 2, 13, -85, -82, -62, -98, -47, 92, -6, -6, -21, -22, -110, 37, 33, 25, 11, 70, -45, -43, 10, 1, -98, 98, -48, 71, -16, 65, 80, 65, -76, 116, 61, -44, -68, -91, -98, 34, -40, 15, -23, 69, 17, -2, -37, -64, 7, -92, -46, -69, -75, 75, -75, 69, 53, 21, -87, -76, 12, 55, -14, 18, 34, -24, 42, -31, -44, 26, -73, 66, -19, -19, 3, -11, 53, -5, -43, -84, 17, -89, 108, -88, 26, 53, 71, -29, 48, -62, -33, 23, 15, 90, 72, -76, -1, 7, -73, 88, 84, 49, -15, -11, 29, 83, 55, 6, 57, 13, 0, 9, -20, -12, 76, -61, -66, -76, 85}
, {-15, -94, -32, 39, 19, -53, 34, -57, 55, 49, 15, 94, -12, -22, 7, -69, -64, -54, -22, -4, -92, 82, 102, -66, 32, 6, -94, 11, -23, 12, 20, 97, 19, -44, 28, -54, -51, 141, 23, 81, -86, -45, 78, -61, 35, 86, -29, 77, -29, -63, -81, -71, -56, 42, -53, 79, 53, -87, -77, -61, -92, -68, 19, 5, 2, -17, -53, -74, 47, -24, -20, 13, 15, -78, 31, -60, 92, 32, -96, 32, 79, -37, -80, -36, -79, 46, 49, -73, -80, -81, -44, 27, 70, 20, 131, 91, 93, 12, -82, -88, 8, 58, -23, -20, 48, 56, 66, 85, -27, -3, -68, 38, 40, -39, -71, 40, 39, -19, 18, 7, 35, 79, -100, 95, -83, -78, -90, -16}
, {79, -46, -72, 52, 78, 13, 62, 13, -11, 0, 4, 53, 1, 20, 83, 59, -15, 75, 9, -9, 40, -6, -90, -45, 90, -19, -65, -39, 44, 1, 36, 44, -9, 10, -69, 5, -38, 48, -76, 39, 2, 20, -101, 70, 21, -73, 55, -68, -123, -75, -95, 96, -63, 45, 74, -40, 83, 28, -83, -40, 88, 25, -77, 71, -46, -74, -1, 36, -84, 45, -77, -32, -72, 42, -35, -90, 92, 59, -76, -83, -4, -51, -1, 24, 75, 78, 55, -16, 8, 42, -73, 34, -87, -48, 10, -72, -48, -42, 18, 61, 44, 79, -52, 74, 45, 95, 61, -69, -85, 57, -93, -61, -21, 69, 35, -35, -66, -52, 56, -8, 62, 58, 43, -76, 52, 78, -1, 1}
, {96, 52, -10, 80, -95, 41, -9, -75, 93, 32, -44, -87, 83, -26, -32, 26, 19, 25, -75, 9, 58, 5, -82, 61, -25, -67, 31, 76, 34, 52, -49, 35, -80, -35, -68, -63, -63, 14, -56, -70, -32, -77, 86, -50, -23, 85, 96, -91, 93, -38, -7, -17, 5, -98, -70, -72, 78, 57, 73, -82, -69, 69, 22, 98, 12, -73, 21, 25, -82, -48, 56, 12, -19, 99, 25, -24, 11, -5, 7, -29, 48, 6, -68, 24, 87, -70, 18, -57, 34, -53, -51, -28, -12, -104, -88, -19, 92, -41, 17, 74, 88, -7, 74, 28, -93, -62, 88, 95, -34, 87, -17, -68, 29, -6, -64, 3, 48, 37, 33, 70, -16, 6, -45, 64, -100, -97, -96, 89}
, {0, 40, -3, 51, -16, 0, 60, -9, 47, 43, -10, 30, 59, -9, 89, -32, 95, 87, 26, 33, 48, 54, -65, 60, -37, 93, -30, -77, 2, -71, -50, 32, -92, -41, -21, -62, -81, -11, 79, -20, -58, 83, -69, -45, -75, -34, -61, -11, -82, 45, 90, -28, -70, 43, -65, 56, 34, -24, -19, -48, 66, 91, 18, -5, 24, -77, -22, -34, 56, -42, -51, -76, 16, 48, -69, -36, -50, 21, -36, -8, -14, 34, 28, -90, -48, -62, -49, -84, -24, 13, -75, -23, -15, -47, -41, 85, -76, -87, -69, 33, 79, -31, -15, 40, 56, -73, -72, 57, -41, 44, 72, 42, 38, -91, 54, -11, 81, -54, -10, -69, 37, -95, 101, 36, -52, -30, -12, -2}
, {76, 2, 18, 89, -1, 68, 65, 4, 71, -70, -50, -99, -86, -61, -68, 30, -59, 30, -28, 60, 87, 83, -45, -78, -12, 16, 42, -72, -75, 115, 69, 65, 52, 42, 84, 14, 23, 73, -84, -45, 5, 50, -89, -40, -44, -36, -35, 23, -6, 21, 60, 7, 80, -21, -87, 17, -97, 56, -13, -17, 64, 34, -63, -75, -6, 50, 88, -38, -73, -38, 84, 30, 0, -63, 21, -77, 53, 4, -60, 28, -43, 58, 39, -46, -25, -6, -51, -38, 85, -7, 37, 32, -4, 102, 34, -88, 14, -7, 35, -30, 78, 99, 23, 93, 28, -33, -40, -12, 76, 21, 90, -59, 17, 59, 45, 39, 28, -100, -3, 28, -92, -20, 50, 29, -5, 87, -69, -125}
, {91, 9, 38, -72, -30, 6, -72, -82, -51, -96, 19, -35, -51, -82, -1, -19, -31, -60, 27, -25, 49, 89, -9, -77, 26, 11, -50, 8, -71, -112, -32, 30, 31, -31, 57, -61, -18, -6, 75, -78, 56, -58, -81, 25, -17, 95, 57, -52, -96, 87, 52, 29, -33, -12, -57, -11, -10, 39, 47, 12, 87, 29, -2, -70, -75, -11, 25, 61, 33, -73, 30, -28, -76, 2, 28, 59, 31, -89, -22, -42, -75, -20, 78, -13, -30, -42, 1, -108, 40, -81, -101, -42, 90, -68, 5, 44, -58, -57, 65, 2, 51, 28, 68, -18, -96, -22, -82, 38, -91, 46, -80, 5, 16, -96, 19, -103, -30, -103, -86, 23, 52, 83, -36, 13, 30, -66, -99, 78}
, {32, -93, 5, -50, 28, 60, 14, 78, 88, 58, -46, -70, -78, -42, -77, -64, 50, -68, 16, -5, -78, -28, 0, 5, 46, -14, -71, 6, 53, 29, -65, -51, 24, 73, 47, -90, -42, 36, 73, -61, 19, -1, 31, 4, 9, 31, -26, -80, 15, -94, 47, 55, 86, -73, -85, 6, 93, 51, -48, -15, 12, 15, 67, -17, -36, -2, 60, -44, 8, -43, -38, 12, 35, 72, -21, -41, -8, 43, -26, -90, 13, 44, -98, -18, -20, 25, 52, -95, 30, 73, -11, 35, -51, -110, 0, 49, -9, -28, -80, 83, -36, -92, 46, 83, 48, 46, -13, -101, 59, 76, -6, 67, 44, 72, -84, -17, 50, -7, -30, 17, 84, -74, -45, 61, 15, -58, -58, 5}
, {-63, -95, 59, 85, 79, 27, -13, -91, 61, -76, 100, -67, 83, -77, -48, 68, 75, -18, -87, -81, 77, -88, 66, -79, -43, 95, -43, -55, 10, 74, 64, 20, -23, -88, -27, 42, 52, -97, 55, 37, -35, -63, 12, 5, 58, -36, 14, 0, 44, 10, 91, 56, -70, 50, 89, -24, 6, -19, 55, -82, 32, 35, 84, 66, -73, -95, 10, 59, -55, 70, -60, -94, 50, 65, 43, 58, -88, -52, 11, -64, 1, -11, -18, 6, 64, 47, 77, -23, 71, 33, -10, 18, -113, 20, 13, -69, 10, 90, -68, 29, -4, 95, 55, 0, 110, 65, 33, 35, 43, -66, 93, -25, 49, -72, -8, 10, -32, -68, -11, -87, -90, 70, 87, -46, 73, 82, -21, -90}
, {-68, -27, 43, -75, -30, -42, 36, 44, -58, 0, 22, -69, -16, 42, -39, -47, 22, -53, 84, 88, -77, -40, -79, -58, -11, 96, -94, -79, 49, 76, 58, 34, 29, -49, 43, 8, 12, 92, 60, 14, -85, 90, -80, 77, 17, -58, 0, 79, 4, 57, 31, -40, 76, -66, 40, 37, -5, -78, 8, 78, -24, -49, -11, -76, -16, -71, 10, 48, 18, 13, -11, 58, 4, -69, 56, 96, -18, 84, -83, 96, -12, 87, 76, 62, -73, 98, 82, 87, -69, -76, -54, 79, 53, 110, 65, -90, -47, -76, -44, 81, -29, -43, 85, -71, 41, -45, 96, 40, 20, -61, 62, -99, -35, -11, -30, 85, -60, 43, 63, 16, -66, 65, -59, 12, -56, 22, 18, -23}
, {-71, 65, 36, 75, 84, -76, 38, 79, -4, 12, 15, 111, -71, 4, -68, 76, -56, 96, -12, -78, -77, 81, 102, 38, -96, -23, 61, 0, -8, 49, 97, 69, 48, -19, 57, -100, 75, -36, -27, -39, 37, -62, 84, -81, 11, 52, -39, -63, -18, 74, 3, -47, 74, 2, 58, 75, 53, -37, 67, 14, 70, 104, 9, -26, 100, 16, 1, 101, -45, -16, 68, 57, -77, -26, 4, -29, -7, 82, 80, -72, -11, 17, 36, 6, -66, -82, 51, -37, -4, -83, 50, -12, -17, 28, 0, -37, 13, -64, -49, 50, -23, 58, 31, -84, 56, 59, -49, 0, 1, -29, 62, -58, -23, 61, 48, 2, -70, 81, -73, -70, 38, -36, 99, 70, 59, -59, -22, -43}
, {-15, -55, -66, -40, -26, 102, 61, 84, 6, 116, 23, -10, -63, -27, -89, -71, 31, -31, -47, -47, 16, -51, 123, 70, -23, 1, -95, 70, -76, -30, -38, 71, -91, 87, 66, -23, 80, -3, 58, 68, -11, -79, 77, -79, 28, -43, 17, -58, -13, -13, -26, 93, -18, 22, -86, 88, 0, 36, 96, 21, 78, -25, -57, 47, -80, 29, 49, 91, -4, 94, -71, 114, -45, 60, -15, -100, 60, -39, -31, 98, 0, -61, 55, -65, -87, -64, -29, 22, 90, 52, -84, 19, 44, -32, -11, 60, 17, 41, 35, 58, 27, -63, 76, 44, 99, -25, 29, 43, -89, 79, 4, -12, -64, 68, 76, 65, -65, 58, -67, 27, -35, -37, 7, 22, 56, 77, -20, 48}
, {84, -8, -5, -14, -68, 44, 71, 98, 42, -88, -12, -11, 90, 11, -85, 84, -50, -17, 76, -85, -81, 8, 90, -26, -26, -18, 72, -88, 34, 100, -78, -50, -11, -3, 67, 111, 7, -43, -106, -1, 94, -33, 32, 32, 59, 79, 54, 56, -109, 4, 18, 12, -67, -105, -17, -36, -88, -19, -51, 11, -66, -25, -44, 106, 73, -43, 60, 30, 70, -78, 37, -45, 74, 7, -49, 6, -3, 79, -35, 101, -78, 16, -25, 20, 79, -58, -99, -33, 28, -20, 64, 85, -24, -84, 73, -87, 104, 93, 23, -38, 15, 66, 68, 16, 61, 10, -71, -38, 88, 15, -19, -73, -35, -35, 30, -55, 0, -57, -1, -66, 35, 107, -70, 65, 64, -61, 60, -28}
, {-63, -20, -40, 63, -49, 21, -93, -37, -72, -65, -8, 115, 56, -20, 50, 40, -20, 46, 47, 21, 86, -30, 73, -27, -66, -94, 30, 19, -32, -7, -74, 18, -64, -51, 88, 92, 74, 32, 74, -40, -66, 44, 4, -72, 104, 1, 72, 95, -74, 27, 85, 37, 88, 50, 17, 86, -94, -41, 18, -33, 46, 71, 31, 13, -64, 64, -62, 24, 5, -97, 30, 97, -48, 76, -2, 21, -31, 9, -13, -84, 100, 22, 79, 30, 8, -36, 30, -18, -5, 13, 89, 69, 75, -39, 50, 44, -54, 29, 72, -55, -8, -63, -10, -92, 37, 54, -24, -5, -34, -29, 20, 55, -57, 66, -39, 33, -24, -72, -41, 76, 21, -91, 8, -84, 26, -31, -16, -30}
, {38, 27, 102, -89, 67, 16, -13, -42, -100, -92, 41, -34, 0, -36, -74, -91, -75, 8, 83, -98, -76, -45, 18, 27, -34, -64, -79, -28, -48, 14, 83, -83, -5, -108, 71, 64, 33, -43, -64, 54, -63, 31, 87, -25, -73, -83, -69, 40, -30, 44, 23, -43, -96, 8, -92, 29, -55, 18, 77, 82, 78, -46, -18, -52, -1, 80, 83, -66, 24, 81, -3, -50, -26, -6, -32, -2, 38, -34, -74, 84, 2, 29, 47, 45, 78, -64, 26, 10, 79, 67, 95, 96, -7, -66, -31, -38, 26, -20, 84, 34, -77, 66, -14, -10, -2, -66, 71, 68, 88, 88, 95, 3, 32, -29, -78, 26, -29, 42, -8, -71, -42, -15, 30, 87, 13, -3, -17, -85}
, {54, 21, 86, 35, 52, 78, -76, -29, 62, 73, -40, 72, 31, 12, -69, 26, 56, -18, -97, 39, -30, -33, -56, -68, 29, -29, -75, -25, -9, 43, 27, -69, 16, 47, -41, 22, 64, 128, 19, -64, -31, 44, 71, 70, 8, 72, -34, 7, 71, -55, 10, 79, 28, -1, -64, 27, 14, 73, -3, 23, 9, -8, -93, 62, 31, 111, -2, -57, 111, -69, -49, -72, 28, -78, -68, 21, 80, -61, 73, 94, 61, -99, -61, 25, 63, -96, 1, 88, -33, 19, 3, -87, 21, -37, -27, 58, -44, -22, -34, -45, 72, -16, -99, 7, 76, 14, -19, -43, 4, -19, -99, -94, -28, -51, -20, -87, -38, -76, -80, 34, 36, -75, -100, -48, 35, 35, 77, -66}
, {-44, -73, 57, -40, 111, -4, 84, -64, -8, -46, 88, -97, 50, -33, -85, -107, -82, 70, -65, 91, -17, 19, -96, -50, 56, 29, 56, 5, 1, 80, -6, 95, 15, -28, 80, 19, -71, 2, -47, -41, 74, -68, -58, 70, 38, 14, -28, -92, -63, -9, -26, -83, -19, 100, 50, 62, 91, 65, 35, -91, 96, -89, 17, -53, 14, -42, 16, -63, 38, -59, -2, -43, 23, -88, 32, -15, -2, 53, -44, -32, 42, -72, 45, -28, -12, -60, -83, -28, 44, -59, 92, -52, 7, 59, -38, 18, -73, 4, 28, 12, 36, -81, 48, -53, -67, 34, -61, -32, -54, 7, 84, -83, -8, 19, -7, 35, -26, -16, 16, -5, -83, 16, -32, -13, 16, 12, -34, -51}
, {90, 63, -74, -55, 32, 73, -86, 42, -92, 12, 1, -21, 97, 72, -31, -52, -91, -108, -45, -57, 3, 22, 34, 52, -48, 96, 94, -27, -52, 83, 29, 94, 17, -36, 15, -86, -73, 86, 39, 38, 80, -38, -78, 21, -49, 80, -48, -94, -56, -41, -59, -39, -5, 33, -47, 39, -108, -31, -41, -8, 17, 60, 36, 86, -47, 89, -75, -16, -34, -24, 102, 124, -45, -65, -45, -29, 103, 21, -96, 68, 39, 87, -95, -99, 62, 64, -47, 121, 75, 88, 22, 91, 51, -68, 56, 55, -27, -83, 71, 28, 80, 97, 15, -8, -107, 32, -1, 97, 0, -2, -34, 73, 60, -62, 70, -58, 69, -1, -32, 108, 16, -35, 82, 65, -64, 83, -51, 65}
, {-20, 37, 31, 90, -30, 69, 22, 53, 83, -67, -61, -44, -69, -11, 27, -108, 87, 94, -36, -49, -83, -27, 125, 64, -85, 94, 49, 32, 45, -2, -9, -34, 36, 102, 95, -36, -4, -48, 59, 78, -81, 107, -11, -30, -23, 36, 13, -25, 2, 72, 81, 35, -3, 0, 71, 63, -76, -15, -73, 63, 84, 12, -66, 51, 24, -75, 66, -7, -21, 33, -32, -14, -4, -1, 56, 30, -7, -33, -59, -17, 43, -42, 52, 33, 55, -91, -43, 126, 31, 61, 93, -1, 1, 64, -41, 93, -1, -25, 46, -27, -75, -50, -28, -76, 19, 71, -31, -71, 91, 38, -63, 20, -72, -68, 61, 73, -9, 84, -89, -59, -39, -94, 62, 77, 48, -48, -20, -42}
, {-78, -116, -74, -82, -37, -80, -32, 79, 57, 22, -11, -25, 0, 19, 44, -19, 101, 62, -89, -55, -47, 33, 92, 10, -78, 24, -56, 32, 60, -7, -77, -25, 41, -54, 30, 84, 93, -62, -9, 7, -87, -26, -27, 39, 40, 0, -79, 52, 13, 57, 58, 48, -55, 58, -100, 51, -46, 17, -40, -22, 40, -63, -44, -93, 59, 85, 106, -113, -92, -48, -90, -98, -75, -20, -133, -29, 13, 15, 0, -33, 56, 73, -19, 13, 57, -44, -34, -88, 80, 40, -87, 47, -92, 47, -37, 25, -76, 16, -107, -5, -56, 58, 68, -77, -75, -71, 23, -45, -41, 7, 106, -76, 4, -46, 92, -9, 1, -87, -71, -76, -38, 44, 87, 72, 65, 21, 6, -19}
, {92, -86, 71, 1, 90, 10, 59, 98, -33, 84, -14, -22, -90, 49, -15, 50, 44, -74, -10, -90, 68, -73, -72, 81, -10, 86, 22, -40, -76, -78, -39, 97, 16, 5, -57, -77, 2, -67, -79, -15, -34, -37, 38, -93, -42, 18, 76, -91, 90, -87, -55, 66, -79, 86, 85, -91, 78, 36, 38, -59, -33, -68, 77, -26, -33, 84, 90, -71, 70, 31, 4, -28, -58, -66, -42, 18, 3, -60, -92, -66, 29, 12, 82, -82, -66, 30, -62, 19, -12, -25, 55, -5, -80, -21, -63, -11, 21, -91, 12, 83, 94, 95, -67, -72, 107, 70, 7, -99, 59, 96, 14, 96, 3, 22, -23, 41, 34, 86, -49, -59, 11, -23, 73, 51, 27, -4, -47, 25}
, {-46, -25, 102, 27, -48, -118, -88, -20, 39, 26, 21, 60, -58, 30, -81, -12, -69, 73, -58, 53, -17, -39, -33, 66, 66, 43, -59, 30, 7, 104, 49, 44, -6, -32, 80, -43, -3, 78, -38, 8, -36, -63, 60, -53, 69, -29, 40, 0, 106, -5, 50, -25, 83, 36, 49, 25, -43, 43, 6, -66, -9, -75, -5, -28, -33, -60, -7, -71, 8, -97, 20, -11, 23, 55, 62, 9, 24, -87, -29, -97, 66, 81, 60, 98, 78, 25, -12, 80, 53, -16, 47, -110, -33, 0, -93, 10, -3, -84, 20, 23, -64, 30, -32, 67, 94, 2, -106, 14, -20, -95, -74, 4, -47, 43, -44, 28, -35, 78, -13, -98, -29, 38, -84, -87, 89, -3, -75, 83}
, {-37, -43, 87, 42, 3, 49, 15, -8, 59, -82, -89, 15, 102, -22, -57, 74, -66, -10, -80, -1, -28, -98, -79, 88, 70, -21, -96, -88, -90, -1, -99, -71, -36, 52, -30, 59, -37, -48, -90, -42, 41, 1, -75, -81, -36, 28, 57, 12, 13, -57, -23, -44, -42, 85, 84, -34, -40, -87, -58, 28, 65, 49, 77, 70, 90, -70, 96, -80, 52, 43, -84, 38, 84, 45, -54, 3, 93, 18, 3, -10, -66, 65, -94, 55, -24, 13, -34, 79, 60, 30, 26, -28, -80, -39, -76, -31, -73, -58, -10, -83, 65, -44, -24, -56, 25, 2, -90, -7, 94, 30, 64, 93, -59, 44, 14, 35, 21, 60, -32, -14, 58, -9, 30, -66, 66, 60, -54, 69}
, {-79, -5, 85, 91, 81, 43, 21, -39, -27, 81, -85, -18, 64, -23, 52, -93, 84, -90, 88, -71, -58, -90, -96, -78, 63, 40, -18, -57, 16, -68, 57, -66, -48, -30, -65, -97, 89, -104, -6, -34, -56, 54, 56, -81, 20, -11, -10, -89, 58, 47, -37, -32, -56, 7, -46, 61, -20, -74, -47, 7, 12, -22, -76, 69, -6, 52, 14, -38, -89, 62, 36, 105, -32, 34, 99, 15, -64, -69, 59, 22, -45, -75, -64, -59, 58, 3, -54, -47, 11, 29, -12, 108, -37, -66, -25, -34, 68, 51, 11, -21, 93, -4, 41, -16, -45, -104, 68, 37, 15, 61, -54, 28, 24, -16, -24, 98, -38, 32, 110, 48, 3, -21, 81, 25, -77, -39, 53, 22}
, {-76, -47, 2, -27, 43, -97, -8, 37, -84, 112, 29, -41, -74, 101, 85, -81, 98, 27, -25, 90, -89, -90, 86, -45, 38, -74, -16, 26, -50, 41, -11, -45, 31, 75, 31, -7, -71, 34, 48, -23, 23, 45, -45, -79, -57, 18, 19, 42, 102, -74, 107, -7, 36, 87, -59, -35, -96, -24, -61, -25, 23, 52, -53, 49, 78, -25, 98, -33, -29, -4, -50, 18, 27, -70, 110, 52, -27, 32, -81, -64, 99, -3, -36, -48, -99, 18, -22, -16, 3, -69, 75, 23, -25, -88, 36, -45, -78, -67, -49, -23, 71, -61, -39, 52, 44, 73, -8, 30, -12, 27, -39, -27, -30, 16, -24, 47, 67, 75, 43, 85, -13, 51, -48, -41, -26, 96, 90, -33}
}
;

#undef INPUT_SAMPLES
#undef FC_UNITS