/**
  ******************************************************************************
  * @file    weights/fc.cc
  * @author  Pierre-Emmanuel Novac <penovac@unice.fr>, LEAT, CNRS, Université Côte d'Azur, France
  * @version 1.0.0
  * @date    24 march 2020
  * @brief   Template generating plain C code for the implementation of Convolutional Neural Networks on MCU
  */

#define INPUT_SAMPLES 128
#define FC_UNITS 40


const int16_t dense_46_bias[FC_UNITS] = {-3, 19, -13, -1, -18, -21, 16, -24, 4, 17, 0, 7, -3, 5, -17, -7, -21, 1, -8, 12, -9, 7, 19, -10, -23, 6, 9, -12, -8, 11, -2, 8, -11, -2, 5, 12, 0, 3, -1, 2}
;

const int16_t dense_46_kernel[FC_UNITS][INPUT_SAMPLES] = {{10, -48, -107, -15, 39, -74, 48, -58, -74, 95, -82, 46, 69, -88, -39, 23, -30, -59, 76, -27, -72, -97, 7, -35, 47, 3, 3, -10, 4, 44, 25, 12, 93, 33, 92, -41, 84, 106, -4, -80, 68, -32, 72, -63, 46, 28, -72, -60, 36, -97, 71, 21, 52, -39, 2, -89, 30, 56, 63, -19, -83, 41, -43, 37, -101, -94, 68, -30, -8, -15, 95, -17, -36, 18, 22, -45, 66, 22, 48, 65, -59, 76, -51, 11, -98, -73, -94, -88, 16, -84, -82, 59, 20, 98, 21, 10, 50, -59, 16, -5, 33, -83, -38, -42, 60, 11, 78, -19, -53, -53, -77, -4, -50, -97, 53, 55, -62, 64, -73, -45, 55, -18, 62, 117, -104, 55, 2, 30}
, {-89, 60, 43, -114, 91, 35, 0, -56, 5, 77, 53, -16, -62, -3, -72, -57, -36, 6, 3, 18, 23, -33, 32, -73, -60, -56, -37, -50, -30, 36, 45, -25, -19, -88, 81, -6, 44, -56, 56, 29, 78, 30, -18, 56, 20, -76, 26, -38, -40, -100, -43, 17, -24, -44, -79, -99, -17, -32, -5, -50, 97, 74, -86, -69, -96, -68, -85, -82, 10, 24, -96, -34, 96, -108, 86, -37, 68, 48, 31, 24, -50, 4, 42, -61, -90, -48, 38, -64, 83, 86, -90, 96, 83, 83, 11, 23, 38, 24, -92, -71, -20, 71, 3, -35, -31, -24, 35, 63, -47, 22, -85, 97, 66, -101, -77, 4, -8, 63, -85, -111, -105, 94, 35, 13, -7, -10, -67, 0}
, {22, -62, 12, 114, -10, 43, 74, 30, 37, 5, 55, -50, 82, -36, -22, 55, -52, -7, -30, -27, 60, -50, -21, 91, -72, -41, -34, 33, 29, 57, -61, -73, -89, -61, 36, 17, -29, -23, 9, -13, -32, 12, 25, 12, -20, 0, 45, 10, 5, -34, 41, 49, -69, -89, 73, -86, -64, -33, -20, 26, -72, -70, -22, -23, 19, 11, -37, -27, -77, 78, 8, -60, 43, -67, 9, -3, 5, 113, -70, -60, -43, 86, 4, -42, -25, 6, -88, -21, -5, 81, 40, 92, -71, 68, -65, -77, -28, 10, -52, 103, -62, -33, 18, 20, 95, -69, 6, 25, 93, 15, -78, -34, 14, 74, -13, -81, -34, -21, -26, -61, -12, -27, 81, -51, 25, 37, 78, 25}
, {22, 43, 63, 44, 74, 72, -46, -15, 16, -62, -20, -23, 72, 0, 36, -42, 30, 75, 89, 61, 40, -22, 61, 53, -62, 101, -21, -73, 90, -8, 77, 21, -32, -80, -104, 56, 42, 100, 47, 91, -78, 52, 94, 11, -64, 79, 10, 42, 19, -13, -1, 106, -81, -90, -27, -26, 64, -101, -12, 52, 52, -12, 78, -14, -33, -11, 59, 73, -44, 126, 12, -61, 9, 12, -84, 3, 40, 74, 88, 6, 46, -23, 79, -61, 46, -39, 19, -34, -2, -61, 39, 90, 21, 23, -36, 76, 58, -73, 60, 39, -63, 51, -62, -20, 74, -39, 21, -96, -58, 83, -58, 65, -2, -96, -67, -53, -65, -16, 60, -86, 31, 93, 15, -87, -72, 6, -39, 64}
, {-27, 91, 49, 30, 100, -24, -35, 61, -62, 65, 14, -16, 5, -37, -34, -2, -75, -36, 12, -96, -9, 38, -70, 78, 77, 54, -80, -12, -39, 85, -49, -39, -26, 18, -69, 92, 83, 58, 13, -18, 64, 90, 40, -87, -10, 69, -22, -31, -46, 67, 66, 27, -95, -48, 60, 8, -81, 64, 46, 3, -77, 89, 74, 27, -8, -51, -46, 18, -69, -9, 54, -13, -23, 77, -79, 52, -10, -16, -1, -1, 60, -56, -4, -19, 30, 23, 24, 72, -71, 49, -63, 33, -57, 64, -71, 45, -31, 0, -11, -99, -71, -24, 63, -23, -52, -92, 62, 35, -1, 76, -42, -10, -33, 17, 88, 24, -25, 38, 61, 25, -3, 49, 62, 53, -26, 67, 2, -77}
, {1, -72, 88, 16, 76, -2, 67, -68, -76, 2, -34, -21, 81, 84, -11, -50, -55, 62, 60, 98, -74, -49, 52, 16, 12, -63, -21, -46, 0, -5, 52, -16, -69, 2, -28, -19, -60, -58, -72, 17, -87, -7, -94, 21, 45, 65, 75, 49, -65, 57, 28, -92, -9, 99, -5, 29, -55, -51, 62, 86, -67, -43, -50, -52, 44, 52, 29, 72, 24, 19, -28, -32, 64, 50, -83, -13, -73, 43, 19, 60, 33, 19, 89, 35, 35, 68, -96, -29, 102, 41, 60, -97, -33, -30, 38, 101, 10, -94, 95, 34, 51, 54, -75, -53, -83, 28, -90, -66, 41, -54, -82, -116, 0, 85, 70, -89, -41, -22, 77, 55, 113, -21, -46, 2, -15, -6, -72, 48}
, {-42, -99, -57, 9, -49, -13, 8, -76, 19, -79, 85, 102, -5, -30, -30, 39, 24, -61, 68, -74, -92, 100, 95, -44, -45, -79, -90, -87, 66, 26, -67, 90, -22, 69, -53, -40, -45, -3, -54, 12, -79, 78, -23, -21, -50, 54, -6, -73, 30, 92, 43, -41, -75, -80, 48, 71, -1, -47, -33, -107, 3, -86, 63, 48, -97, -53, -84, -93, -87, -55, -49, 92, 70, -13, 22, 95, -4, 43, -60, 3, 85, -16, -65, -27, 75, -20, 89, -40, 109, -88, 0, 32, 104, 82, 70, 31, -7, 80, 7, 64, -11, -88, 98, -31, -41, 54, 15, 23, -27, 91, 89, 95, -67, -60, 42, -104, -66, 101, -89, -50, 68, -33, -92, 0, 30, 31, 82, -95}
, {97, -37, -31, 42, 15, -9, -43, -23, 7, 94, 47, -51, -99, -8, -73, -11, -75, 62, 27, 30, -87, 53, 80, -44, 93, -63, 55, -24, -42, 89, -57, 5, 76, -91, 63, -50, -47, 112, 74, 18, 82, -47, 26, -3, 0, 109, -28, 29, -60, 60, 20, -24, -100, 18, -100, 105, -53, 32, 27, 93, 8, 30, -83, 90, -72, 14, -23, 4, 99, -35, -61, -88, 25, -7, -1, -21, -76, -69, -62, -73, 79, -41, -52, -38, 41, -88, -72, -92, -58, 95, 66, -30, -8, 52, -28, 89, -43, 51, 76, 54, 7, -47, 115, 77, 36, 85, 38, 31, -20, 92, 57, 10, 70, -41, 79, 33, -93, -94, -50, 41, 79, -6, 32, -71, 61, 94, 57, -16}
, {-59, -114, -47, 15, -50, 80, 90, -43, -79, 15, -21, 65, -56, 18, 44, 54, 14, -23, -89, -73, 46, -70, -70, 8, -11, -48, -85, -64, -92, -17, 26, -31, 91, 4, 72, 66, 81, -84, 24, 31, 15, -16, 88, 42, 23, -50, 11, -93, 6, -7, -25, -8, -48, 57, -70, -59, -58, 58, -58, -17, -37, -48, 86, 112, 21, 66, -26, 98, 53, -89, 66, 48, -91, -60, 13, -7, 5, 13, -77, 25, -86, 88, -20, 5, 79, 5, -77, 38, -11, 31, -31, 7, 119, -63, -27, -12, 108, 92, 79, 87, 16, -95, 22, 76, -75, -64, 79, 56, -8, 86, -56, 15, 45, -1, 84, 5, -74, -47, 60, -58, -56, 83, -21, 118, -75, -80, 12, 92}
, {64, -67, -71, 85, -20, 17, 18, 32, -131, -115, 33, 17, 7, -50, 66, 91, -121, 36, -100, -35, 58, -20, 12, -9, 80, 60, -3, 105, 52, -30, 98, 91, 57, 81, -34, -76, 99, -89, 57, -43, 73, -60, -38, -33, 8, 36, -71, -104, 27, -87, -39, -67, -29, -99, -8, 67, 68, 65, 13, 63, -95, 15, 88, 97, -40, 59, -106, 48, 74, -9, -34, 3, -14, 75, -18, -87, 0, 20, 21, 71, 53, -33, -78, -103, 60, 21, -87, -80, 3, 18, 27, -71, 53, 45, -58, 56, 9, -55, 9, -43, 30, -7, 7, -63, 72, -47, -28, -19, 1, 30, 107, 70, -51, -34, -110, -64, 74, -3, -103, -80, 8, -38, 51, 40, 9, -17, -14, 44}
, {72, -29, 59, -54, 63, 74, -45, 90, -32, -33, 55, 5, 98, -65, -79, 58, -110, -30, 87, 69, 35, -41, -18, 53, 77, 87, 61, -11, 47, 10, 28, -28, -88, -4, 3, 71, -102, -20, 69, -2, -51, -10, -88, -44, -18, 43, 50, -94, 67, -39, 36, -66, 12, 77, -86, -6, -65, 68, 72, -59, -103, -53, 51, -56, 72, 2, -73, 52, 28, -15, 56, 0, 8, 19, -29, -16, -47, -8, 70, 67, 6, 32, -68, 12, 82, 15, 71, -60, -78, 59, 35, -86, 24, -16, 94, -99, 3, 97, -60, -68, -26, 17, 58, 5, 88, 43, 67, 1, 30, 84, -28, 91, 44, -36, 11, -27, -81, 92, -24, 72, -34, -66, -24, 59, 82, -83, 40, -112}
, {0, 64, -56, 57, 85, -38, 28, 75, 46, 4, 22, -26, -113, -102, -81, -19, -72, 63, 31, 17, -34, 72, 50, -5, 88, 57, 69, 34, -88, -96, -85, -46, -84, 13, 85, -55, -72, 43, 14, -76, -80, 93, 35, -36, 62, -107, -40, -40, -57, 75, -17, 65, 90, 3, -18, 61, 1, -92, -47, 105, 88, 0, 18, -19, 81, -72, 15, -54, -95, 34, 36, -43, 49, 85, 13, 21, -88, 20, -92, 82, -44, 49, -82, 68, -27, -29, -4, 62, 73, -69, -96, -30, -138, 47, -73, 49, -18, 82, -44, -113, 64, -14, 89, 35, -15, 40, -80, 78, 86, 61, -51, -92, 91, -7, -54, 39, 104, -13, -36, -25, -95, -7, 7, -114, 0, 35, -57, -11}
, {-44, -51, -60, -93, -13, 48, 7, -18, -69, 116, 52, -73, 0, -103, -29, 9, 20, -64, -23, -18, -46, -100, 82, -38, -4, -6, -51, 36, -64, -12, -107, 13, 82, 72, -35, -86, 4, 10, 90, -86, -69, -43, -85, -61, -26, -103, 70, -44, -44, -82, 61, 116, -17, -2, 21, -60, 97, -17, 23, 35, 20, -38, 40, -89, 34, -104, -83, 87, 59, 59, -94, 72, 26, 46, 78, -87, 63, -33, 37, -34, 45, -67, 2, 62, -98, -2, 92, -32, 75, -70, 16, 28, -31, 101, -93, 36, -56, -46, 83, 32, -103, -38, -22, 69, -98, -60, 33, 32, 78, 74, 38, -116, -103, -111, 38, 78, -59, -21, -19, -71, -10, 18, -62, 18, 21, 11, 25, 60}
, {73, 43, -55, -40, 53, -4, 40, -30, -100, -61, 97, 63, -83, -56, -18, -40, -1, -82, -12, 0, -34, -10, -42, 57, -61, 51, -73, 0, 24, 26, 7, -36, -3, -39, 95, -19, -100, -100, 2, -44, -86, 0, 55, 68, 6, 47, 51, -57, 90, -17, -11, 38, -55, 76, -87, -29, -70, -23, 29, 22, 8, -15, 87, -43, -24, 78, 40, -64, 72, 48, 64, 65, 103, -53, -16, 67, -68, 77, -84, -100, 35, 68, 87, 49, -53, -76, 40, 47, 112, -69, -68, 18, 64, 69, 76, -89, -17, -91, -55, 12, -43, 45, -77, -15, 60, -22, 25, 102, 0, 47, -66, -110, 62, -71, -84, -68, 38, -56, 30, -51, 71, 17, -71, 117, -49, 92, 55, -96}
, {37, 28, -26, 5, -97, -57, -38, 32, -77, -5, 29, -30, 17, -82, -75, 66, -8, -52, -2, -73, -44, -92, 17, -110, -13, 63, 90, -74, 47, 4, -32, -77, -5, 23, 33, 32, -76, -60, -6, 24, 75, 33, -60, -111, 10, 97, -94, 13, 45, -96, 1, -19, 1, 34, 50, -80, -60, -64, -79, 11, -5, -68, 39, -33, 20, -71, 8, -4, 84, -35, -82, -17, -4, 46, -39, 83, -62, 36, 87, -11, 0, 71, 38, 76, -17, -87, 48, 48, 12, -86, 45, 87, -81, 98, 0, -5, 107, 12, 40, -21, -98, -92, -4, 60, -4, 68, 33, 56, -99, -18, 40, -65, -77, 76, 7, 74, -15, 66, -24, -64, -79, -44, 96, 23, 18, 74, 99, 45}
, {-46, -22, -16, -38, -70, -98, 109, 40, -3, -2, 0, -50, 96, 95, 23, 98, -94, -18, -44, 36, 38, -1, -26, 98, 50, -91, 115, 34, -23, 38, 0, 24, -90, 41, -65, -54, -62, 19, -77, 4, 44, 10, -67, -68, 34, 31, 19, -46, 27, -33, 84, -69, -28, -45, -41, 71, 78, 37, 86, 35, -73, -32, -51, -68, -58, 3, 45, 72, 98, 60, 78, -8, 27, -54, 89, -51, 67, 80, 19, 45, -41, -31, -43, 91, 3, -67, 52, -92, 52, 44, -36, 5, -60, -46, -52, 50, -42, 100, -47, 102, 77, -12, 84, -22, 2, 58, 7, 89, 13, -27, 108, 58, 86, 94, -66, -27, -4, -28, -68, 89, -11, 47, -68, 54, 99, 59, 102, 25}
, {44, 1, -46, -12, -10, 48, -21, -17, -25, 116, 79, 17, -44, 42, 20, -40, 33, 0, 74, -17, -19, -52, 54, 1, 41, 16, -3, -8, 71, 78, -65, 44, 13, -86, 76, 70, -11, -71, 100, 56, 79, -97, 88, -110, -101, -24, 16, -21, 72, 55, -88, 98, -83, -25, -11, 85, 77, -86, 18, 111, -49, -60, -72, 19, 54, 71, 37, 40, 54, -14, 31, -71, 78, 51, -18, -61, -14, -102, -41, 72, -74, -6, -37, -93, 62, 42, -88, -20, -37, -35, 70, 89, -11, -86, -16, 55, -38, 85, 83, -14, 37, 70, -9, -25, -24, 43, 9, -17, -28, 37, -2, -11, -55, 62, 14, -89, 21, 35, -18, 22, -15, -77, 73, -86, -90, 50, 66, 71}
, {-4, -14, -62, 110, 14, -35, -14, 33, 87, 93, 29, -45, -83, -21, -76, -61, 13, 11, -75, -8, 68, 42, -33, 0, 5, 15, -44, -61, 4, 7, 109, -77, 41, -1, 47, -61, 77, 68, 106, -73, -76, 99, -46, -82, -43, -35, 70, 40, -24, -23, 78, 17, -48, 26, -85, -23, 48, -57, 13, 84, -56, 26, -90, 36, 2, 56, -113, 17, -76, 52, -87, 56, 55, -59, -5, -82, 25, 54, -78, 36, 58, -17, 9, -116, -66, 47, -43, 84, 17, 36, -92, -76, -27, -71, -63, -56, 79, -21, 55, 68, 50, -13, -95, -8, -44, 21, -84, 40, -28, 101, 20, 80, -15, 69, -68, 4, 90, 62, -58, 21, 73, 71, -65, 7, 80, -35, -19, -44}
, {51, -25, 90, -25, 7, 49, -74, 41, -64, -48, -54, 54, 68, 30, 25, -52, 71, 0, 16, -40, -91, 60, 110, -7, -32, 88, -103, 58, -9, -58, 5, 75, -85, -38, 33, -11, -73, -37, 100, -80, -90, 72, 23, -94, 59, 48, -45, 23, -26, 23, 90, 55, -22, 63, -55, -89, 101, 3, -57, 14, -69, -77, 65, 111, -70, -34, 79, 42, -76, 68, 7, -39, 52, -96, -98, 72, 99, 21, 42, -22, -24, 7, -35, -33, 69, -3, -31, 36, 52, 62, 15, 9, -80, -7, 64, 118, -31, -19, -3, -74, -39, 24, 37, -11, -33, 49, -53, -110, -22, -80, 88, -78, -39, -95, 78, 27, 13, -65, -20, -18, 45, -42, -92, 62, 4, -117, -70, -38}
, {-36, -35, -52, -67, -51, 34, -49, 1, -26, -57, -82, 110, -3, -27, 34, -84, 31, 3, -57, 85, 22, 27, 79, -5, 31, -34, 72, 67, 57, 97, -32, -87, 6, 96, 80, 65, -20, 21, 70, 58, -103, 69, 72, 94, -43, -23, -48, 95, 44, -46, 17, -6, -21, 105, -4, -43, 49, -16, -73, -105, 35, -80, -52, -91, 64, -23, 3, -86, 63, 19, 34, -32, 112, 2, -19, -58, 35, 13, -36, -33, 15, 39, -56, 87, 80, 85, -56, -37, 12, 70, 5, -75, 118, 28, 30, -101, -68, 80, 53, 104, 60, -67, 3, 64, -1, 17, -87, 29, -73, -53, -85, 42, -89, -29, 18, -58, -66, 41, -65, -98, -31, -82, 20, -56, 85, -38, -7, 39}
, {5, 104, 43, -29, 42, -89, -96, -34, 89, 83, -25, 10, -7, -2, 3, 54, 0, -58, -73, -51, -18, 36, 74, -59, 41, 26, -12, 55, 71, -13, -85, -52, 50, -20, 70, -79, -85, -62, 66, -43, 58, 57, -54, 70, 34, 21, 17, 22, 47, -18, -32, -83, -29, -64, 90, 23, -16, 1, -104, 5, -99, -70, -104, 88, 75, -39, 79, -11, 2, 51, -54, -90, 87, 10, -66, 93, -6, -25, -68, 45, 45, -56, 93, 6, -42, 45, -38, 80, -5, 36, 81, 67, 66, -19, 43, 117, -59, 69, 72, 96, -72, 11, -104, 44, -33, 12, -63, 20, -86, -91, 26, 34, 74, -55, 70, 35, -97, 52, 22, 3, 20, 93, -43, 65, 44, -15, 45, 98}
, {-43, 66, 45, -29, -86, 60, 55, -46, -104, -51, -64, -21, -63, -10, 59, -16, -72, 2, -60, -46, -11, -13, -17, 58, 44, 71, -30, -70, -65, 6, 56, 84, -15, 13, 77, -39, 89, 50, 104, 47, -9, 18, -3, 13, -32, 34, 59, 60, -43, -67, 78, -60, 22, 16, -97, -12, 74, 20, 16, 13, 64, -32, -64, -6, -17, -99, -102, -93, 56, -18, -36, 85, -18, 6, -74, -10, 105, -3, -19, 11, 36, 74, 8, -51, -92, 95, 88, 33, 6, 26, 15, -47, 17, -32, 30, -94, -67, -20, 101, 72, -89, -55, -32, 39, 38, 74, 61, 71, -95, 11, 69, 86, 47, -48, -52, 108, -62, -46, -42, 21, -6, -17, -56, 36, -73, -18, 12, -8}
, {13, -81, -82, 27, -15, -30, -36, 4, -82, -108, -63, -52, -97, -30, 98, 53, 5, -21, -30, -16, 42, -51, -85, -109, 25, -45, 49, -42, 86, 3, 55, -68, 55, 3, 23, 10, 19, -71, 24, 8, -28, -68, 86, -52, 33, -74, 8, 52, 31, -26, -86, 63, -16, -85, -68, -9, -3, -22, -33, -77, -13, -52, -48, 10, 49, 77, -100, 20, -71, 82, -107, 91, 40, 40, 4, 18, 56, -78, -4, 103, 33, 3, 39, -109, 32, -70, 55, -28, 94, -106, 67, 29, -3, -108, 11, 33, -13, -102, -20, -58, -14, -8, 36, 12, -70, 61, 88, 29, -28, 15, 44, 16, -23, -102, -80, 90, 100, 101, 51, -70, -71, 93, -30, 60, -9, 62, -3, 1}
, {-17, 70, -100, -6, 13, -59, -66, -49, -94, -54, -28, -46, 72, -99, 16, -82, -79, -58, -31, -49, 24, -127, 32, -60, -79, 100, 3, 4, -28, -71, -4, 9, -53, -26, -78, 81, -75, 19, 91, 2, 59, -88, -21, -34, 91, 5, -17, 32, 34, 46, -98, -54, -13, 13, -96, -27, 49, 5, -33, 88, -2, 19, 41, -47, -30, 16, -76, 12, -6, -69, -13, -27, 22, 52, -53, 38, 70, -79, 77, 65, -22, 62, -33, -40, -58, -2, 47, -40, -21, -105, 59, 50, -97, -52, 46, 3, 88, -15, -57, 22, 49, 92, 50, 83, -84, -67, -56, -64, 10, -63, -75, -127, 98, -71, -80, -36, 37, -78, 58, -28, -8, 38, -81, -32, 76, 27, 35, 78}
, {81, -86, 73, -3, 36, 24, -79, 39, -79, 46, 91, -78, -25, -25, -69, -14, 96, 31, 101, 47, -73, -13, -13, -81, -8, -1, 20, 33, -109, 79, -9, 26, 24, -60, 47, -7, 14, 98, 29, 50, 19, 51, -70, -81, -23, -10, 54, 47, -32, -25, -75, 42, -8, -59, 84, 65, 83, 72, -12, -74, 94, -56, 17, 107, -73, -32, 40, -60, 65, -16, 25, 45, -43, -110, 64, -49, -89, -22, 78, 88, -53, 77, 92, 21, -36, -39, 39, 46, -62, 59, 0, -25, -38, 39, 52, 118, 16, -25, 62, -53, -87, -108, 85, 18, 56, -21, 71, -22, 17, -51, 4, 47, 70, -81, 74, 13, 65, -44, 34, -70, -37, -31, 90, 82, -86, 23, 20, -24}
, {61, -88, -34, -42, 64, -66, -89, 9, 53, 38, -58, -10, 100, -57, -16, -71, 2, 72, 14, -65, 52, 34, 121, 87, -48, 93, -40, -95, 104, 39, 81, -34, -31, 23, -1, 20, 32, -75, -28, 85, -39, -94, 34, 29, 35, 35, 96, -25, 35, -16, 50, 57, -35, 7, 98, -49, -73, -48, -66, -75, -94, 5, -19, 83, -47, -17, 54, -39, 54, -70, -5, 40, -96, 44, -61, 30, -30, 1, 57, 44, 71, 103, -29, 89, 50, 100, -60, 87, -13, -72, 25, 2, 23, 11, 96, -12, 82, 75, -34, 18, 70, -84, -33, 88, 48, 37, -6, 64, -89, 61, -48, 111, -65, 48, -29, -46, 53, 44, 46, 43, 72, 84, 44, 114, -76, -91, 75, 59}
, {87, 8, -3, -23, 57, -73, 59, 38, -127, -13, 51, 96, -48, -20, 8, 15, 2, 7, -69, -58, 13, -11, 35, -2, -76, -38, 56, 21, 39, -10, -80, 79, 80, 5, -62, 56, 47, -4, 2, -12, -85, -7, -33, -35, 77, 75, 52, -52, -10, -18, -66, -80, -25, 68, -34, -84, -15, -53, 79, -116, -68, -68, -54, -66, -82, 30, 38, 59, 65, 12, -4, -52, -73, -25, 16, -43, 68, -30, 12, 25, -49, -81, 25, 38, 95, 48, 73, 36, 62, 25, -20, -48, 105, 22, 26, 83, -41, -34, 75, 91, 14, -90, 51, 66, -55, -25, 93, -19, -6, 12, 57, -88, 31, -71, -67, -101, -54, 10, 76, 63, 65, -67, -51, 4, -87, 18, 17, -74}
, {-75, -6, -53, 53, -42, 49, -58, 97, 84, 76, 70, 23, -41, -24, -17, -36, 39, 91, 7, 77, 43, 59, 77, 88, -30, -21, -21, 72, -93, -89, -101, -81, -64, 50, -21, 61, -86, 73, 26, 7, -73, -1, -63, -81, 90, 18, -61, 93, 67, 99, -41, 18, -70, 0, -80, 42, 25, -73, 91, 24, -38, 37, -77, 60, 33, 13, -91, 43, -82, -4, 93, -102, 74, -10, 74, -75, -83, 101, -31, -38, -26, 75, -39, 32, 78, -53, -41, 54, -75, -42, 50, 49, 41, 97, -68, 0, 1, -15, -73, -93, 41, -79, -36, -24, 46, -10, 45, 36, 14, -59, 8, -81, 86, 68, -16, -77, -29, -18, -10, 63, 96, 66, -9, 14, -41, 59, 106, 40}
, {62, 40, 82, 99, -81, -29, 5, -73, 16, 74, 35, 16, -37, 8, 29, 35, -16, -96, -76, -13, -21, -16, -93, -125, -95, 91, -30, -81, -36, -75, 88, 27, -84, -85, -7, -4, -68, 93, -49, 84, -38, 98, 25, 58, -24, 39, -3, -84, -100, -91, 8, 69, -81, -25, 48, -28, -7, -39, -108, 42, -25, 77, 42, 99, -15, -47, 61, -20, -85, 18, -82, 20, 11, 2, 0, 39, 96, -23, 65, -65, -54, -28, -62, -71, -104, 8, 68, -45, 22, -22, 93, 41, 39, -51, -2, 20, 58, -95, -43, 26, -77, 68, -32, 45, -13, -7, 20, -63, -12, 14, 28, -94, -13, 47, -4, -64, -94, 4, 66, 86, 61, -31, 68, 32, 60, -36, -92, 82}
, {-46, -106, 2, -36, -59, 43, -11, -75, -10, -104, 61, 3, -27, -46, 47, -103, 33, -92, -58, 46, 77, -113, -45, -6, 27, -38, -98, 70, 21, -24, -17, 52, 54, 85, -34, -89, 47, 47, 83, 8, -38, 18, 0, -15, 4, -1, -52, 40, -78, 3, -100, -2, 73, -63, -88, 10, 93, 0, 30, 33, -76, 104, 91, -80, -13, 29, 41, 84, 92, -62, -65, 0, 19, -18, 86, 19, -8, -27, -41, 98, 92, -96, -103, -27, 89, -74, 21, -19, -67, -89, -17, -60, -72, 5, 71, -69, -100, -68, 39, 78, -37, -70, 2, -69, 77, 40, 39, 75, 20, 55, 90, 6, -82, 43, -90, 96, 44, -38, 31, -106, -20, 87, -91, 36, -96, 57, 49, 7}
, {92, -1, 97, -56, 96, 12, -83, -94, -43, -54, 76, 78, 2, 55, -7, 49, 32, -9, 0, -15, -79, -89, 39, -47, 2, -15, -86, -51, -50, -26, -32, 7, 89, 100, -44, -85, 90, 52, -4, 45, -108, -72, 59, 51, -74, -97, 90, 45, -84, 1, -26, 47, -75, 93, 44, -101, -1, 14, 81, 1, 22, -43, 80, 90, -67, -78, -48, 80, 72, -78, -41, 95, 2, -46, -24, 29, 64, 52, 66, 45, -71, 1, -37, -25, -68, 82, 37, -36, 18, -70, -24, 17, 45, 73, 70, 113, 88, 51, 0, 15, -114, -71, 8, 88, -65, 16, -16, -12, -22, -42, 47, -116, -1, -61, 103, 17, -18, -8, 0, 9, 27, -31, 68, 18, -99, -95, 65, -16}
, {-95, 0, 0, -53, 72, 2, 50, 67, -23, -9, 65, 70, 82, -67, 8, 27, -99, -44, 14, 17, 62, 73, 64, -69, 77, -93, -45, -59, 75, 39, -18, -44, -59, 20, 67, -28, 41, -79, -44, 41, -69, 34, -78, -53, -30, -58, 20, 51, -59, 87, -46, 4, 13, -24, 11, -53, -58, -48, 28, 52, -124, -14, 67, 19, 72, 61, -80, 58, 52, -44, 18, -21, -13, 68, -28, 0, 64, 33, 77, 38, -38, -64, 80, 4, 50, 2, 12, 13, 42, -33, 81, -40, -16, -66, -46, 2, 3, 24, -60, 25, 89, -79, 109, -17, 46, -56, -27, 50, -21, -48, -24, 71, 60, -73, 0, 23, -50, 11, -17, -10, -61, 23, 95, -30, 91, -6, -83, -49}
, {13, 59, 71, 112, 60, -16, 14, -85, 58, -34, -40, -40, -84, 56, 31, -73, -69, -79, 66, 14, -51, -132, 16, 25, -57, -60, -30, 60, 63, -76, -32, -22, 46, -102, 51, 67, 70, -41, -6, 87, -3, -27, -92, 15, 3, 15, 54, 6, -40, -41, 84, 58, -76, 38, -66, 81, 0, 52, -58, -33, 70, -75, -44, -45, -79, 48, -38, -52, 14, -110, -81, -8, 25, 18, 64, 29, -25, -55, -61, 82, -85, -92, 53, -69, -12, 7, -38, -104, -54, 93, 20, -55, 33, -91, 34, -22, 54, 61, -24, -99, -24, -75, -91, 21, -56, 11, -47, 21, -90, -14, 18, -41, 59, 1, 51, 79, -48, -99, 31, -8, 43, -51, 82, -46, 47, -71, -32, 32}
, {85, 104, -126, 1, 10, -19, -52, 14, -79, 75, -94, -78, -41, -90, -83, 59, 66, -16, 53, 82, 32, -76, 9, -18, -5, -84, -39, 66, -83, 90, 59, 56, 84, -28, 14, -46, 40, 96, 31, -105, 24, 90, 21, -136, 60, -85, -34, 75, 49, -92, -56, 112, 43, -50, -67, 50, 80, -43, -44, 62, 59, 12, -89, 56, -84, -51, -29, 32, 28, 55, 4, 2, -56, -102, 89, 4, 73, 55, -72, -76, 6, 31, 64, 46, 89, -64, 45, 31, -107, -75, 49, 11, 33, 114, 64, -106, -2, 34, 74, 15, 84, 6, -50, -9, 38, 44, 91, 2, -47, -67, 93, 34, -80, 7, -15, 41, -78, 24, 33, -58, -86, 49, 27, 100, -72, 33, 89, -40}
, {-39, -106, 116, 58, -47, 78, 88, 54, 7, 16, 21, -85, 5, 68, 103, 39, -80, 80, 6, 88, -52, -65, -47, -75, -15, -40, -37, -1, 88, -48, 111, 92, 50, 27, -98, -60, 67, -56, -67, 53, -79, -46, -46, 14, 84, 90, 98, -74, -53, -45, -8, -73, -43, 7, 65, 28, 95, -14, -95, 60, -75, -11, 57, -54, 13, -60, 0, 76, -37, 94, 64, 70, -14, -71, -100, -41, 47, -91, -38, -94, 74, -93, 62, -11, 20, 21, -66, 45, -31, 65, 73, -88, 45, 31, 29, -35, -73, -73, 22, -4, 53, 6, 19, 36, 59, 87, -85, 79, -102, 6, 74, -30, 73, -19, 39, -67, -38, 10, -90, 60, 18, -46, -87, 3, 11, -11, -88, 60}
, {43, -79, 95, -102, -23, 42, 22, -24, 43, -18, -40, -33, 1, -81, 25, 58, -72, 63, -46, -17, -69, 43, 102, 45, 9, -6, -67, -35, 23, -1, -5, -6, -68, 5, -18, -88, 47, -30, 63, 70, 72, 58, -17, -61, 28, 45, -56, 0, -70, -13, 0, -53, 4, 0, -68, 22, 67, -78, 13, -115, 0, 69, -21, -69, 82, -43, 31, 4, 50, 52, 64, 89, -3, 78, -16, 63, -73, 33, -79, 58, 13, -41, 62, -20, 49, 86, -65, 90, 31, -48, 83, -14, -56, -51, -89, -60, 36, 9, 1, -37, 75, -28, -29, -76, 59, -57, -1, -86, -76, 16, 19, 5, -78, -17, 64, -106, -37, 11, -71, 17, 82, 2, 66, -26, -27, -70, -60, -37}
, {47, 78, 79, -4, 34, 85, -67, 81, 16, 69, -84, 18, 134, 80, -23, 53, 72, 9, -54, -46, -79, 90, 127, 97, -39, -81, -1, -62, 25, -53, -72, 1, -34, -33, -75, 0, -88, -25, 26, -8, 4, 77, 8, 63, -44, -17, -11, -89, 93, -84, 6, -8, -86, 75, -28, 60, -82, 11, 48, -56, -32, -60, 75, 65, -75, -2, 59, 75, -94, 112, -80, 28, -23, -76, 9, -49, 53, 36, -85, 89, 40, 109, -48, 43, 52, -47, 46, -78, 79, -72, -14, -86, 105, 11, 71, 34, 54, -42, 61, 66, -76, -60, -59, 91, -1, -100, 95, -10, -24, 47, 82, 11, -83, 52, -17, -86, -34, 12, 26, -37, 59, -99, -29, -28, -19, -92, 48, 52}
, {104, -24, 73, -16, -48, 0, 32, 63, 80, 19, -3, 31, -75, 49, -50, 62, 86, -62, 86, 86, -19, -5, -7, 96, -20, -73, 36, -18, -96, -20, -73, 45, -35, -82, -36, -27, 86, 11, 66, 52, -65, 67, 29, 20, 8, 9, 47, -27, -82, 73, -15, -78, -19, 34, -2, 73, -1, 98, 30, -73, 7, 44, -71, -57, 68, 55, 21, 62, 70, -101, 4, -22, 59, -101, 44, -18, 84, -55, 30, 77, 55, 88, -49, 39, 88, -21, 78, -92, 47, 101, -12, -58, 69, 81, 50, 111, 71, -43, -5, 19, 37, -113, -63, 90, 81, -17, 1, 54, -53, -93, -4, 13, 30, 23, -15, -32, -78, -68, -42, -78, 22, 48, 23, -1, -96, -87, 38, -20}
, {-58, 44, 93, -44, 72, 112, -85, -28, 64, 12, -19, -30, 14, 11, 68, -33, 100, -92, 24, -62, 90, 94, -63, -35, -63, 79, -95, 11, -16, 13, -70, 76, 66, -4, -2, -4, -20, 4, -22, 106, -52, -80, -69, 18, 69, -73, 30, 78, 9, -9, -64, 73, 103, -14, 58, -26, -38, -91, 54, 38, 4, 34, 72, -34, 101, 54, 52, -24, 65, 93, -38, 82, -10, -31, -75, 94, 4, -82, 4, 35, 51, 23, 36, 48, -117, -24, 94, 11, 10, 71, -65, 90, -50, 31, 74, -75, -104, 12, 38, -44, 12, 28, 57, -82, -65, -102, 64, -83, 65, -53, -51, -99, -12, 30, 100, 88, 66, 72, -69, -65, 44, 55, -21, -10, 41, -89, -14, 114}
, {40, 35, -59, -32, -57, 74, -66, -102, 37, -78, -88, 50, 54, 59, 108, -67, -27, 31, 10, -82, -27, 67, 15, 21, 34, -70, 92, -46, 45, -66, -10, -37, 62, 82, 0, -28, 1, 21, 38, 66, 52, 75, 57, -42, -24, -85, -43, -87, 0, -41, -26, -3, -67, -82, 87, -99, -72, -27, 94, -59, 117, -88, -58, -32, -27, 95, -19, 9, -62, 56, -52, 61, -81, 17, 43, 63, -13, -4, -17, -86, -30, -30, -65, 42, -25, 49, 28, -38, -37, 83, -11, 27, 39, 14, -98, 35, -75, 91, -34, 7, -18, -63, -23, 49, 55, -40, -97, 3, -91, -89, 10, 0, -88, 0, 71, -60, -9, -35, -58, 46, -42, -64, 0, -92, -50, 19, 11, 111}
}
;

#undef INPUT_SAMPLES
#undef FC_UNITS